-2.147437128772759e-17,6.791675893526304e-17,-4.701247116946246e-16,-2.409849039670124e-16,-7.275368040211323e-17,-5.126543459654118e-16,1.3877787807814457e-17,0.1696297545723965,-0.048889438038031696,-0.03132128018979028,-0.029081718774559506,-0.1355173997347521,0.008556269460294152,0.05068955358909826,0.09360030312777386,0.02110901117178119,-0.008137246164190363,0.01947958966693286,0.09551341056991808,0.0023441566994024787,0.07848131312883902,-0.0063725247878366155,-0.03443676189447457,0.018218968209998434,0.11143225518743126,0.03525884543402251,0.018203088428161082,-0.03421937550362325,0.00446507612901284,0.0035598808387947065
-1.1717622271939445e-17,1.3137916620042594e-16,-3.487906091905049e-16,-2.3478389977603147e-16,-2.7630160034222463e-17,-2.1797988240880686e-16,-1.3877787807814457e-16,0.11022093245848523,-0.05035315550676871,0.03120755934234813,-0.0468437670024354,-0.10053116870278454,-0.00024234343262204372,0.0945810088401712,0.051909796456042455,0.003634466342623618,-0.05362047634932995,-0.006145931786375353,0.046928971010319766,0.013106595674624572,0.025415877637634428,-0.04207614789178904,-0.03679854388751251,0.02935517036811005,0.07083596064967282,0.03807554274434784,0.037348568608549126,-0.018671090254104253,0.03273401562908588,0.003980681039545299
-1.0351479217718469e-17,1.6429718818112007e-16,6.707544331239415e-17,-5.1614147600491913e-17,-1.947678057232881e-16,-1.6640010253364882e-16,-1.734723475976807e-16,-0.08503512191603538,-0.07803103064200237,-0.030934644200222242,-0.038810248178793826,-0.005866311495198503,-0.027785864596078014,0.017263868589812863,-0.013759027797971555,0.06107253637781065,-0.005223305439167839,-0.04801370092540755,0.017364779002094818,-0.06686289360379656,0.08123210641927087,0.039623184539729836,0.001813392803661034,-0.025517489584217193,-0.01962984187307447,0.02779654804405936,-0.03987278768786781,-0.05131285353419857,0.035900701541796184,0.010136573842149495
-4.393356760044327e-18,9.234422420861653e-17,9.564146582145315e-18,-1.2484541790808498e-16,-1.1402262172674143e-16,8.821329145094092e-17,4.0939474033052647e-16,0.024400235647789696,0.15847115369545922,-0.074923394520893,-0.013512829531473449,0.08022288538032853,-0.008956496248130096,-0.025318168061114893,0.014559659828436926,0.013726276920321722,0.016751791895197966,-0.006437655062992252,-0.04565615697467143,0.02912036286474758,0.017343125838675057,0.039906722645397415,0.025009134525586146,0.037470892303766275,-0.013777185022386972,0.04634570741332077,0.03544027820396841,-0.0054432261996110645,-0.008420839363617429,-0.045211270436292854
-5.084408347671105e-18,4.015205085924512e-17,5.028328519726977e-17,9.939330598093722e-17,9.779827855702445e-17,-2.4949407766478633e-16,-1.942890293094024e-16,-0.07045248027672987,0.003200863588470638,0.0005522440101416972,-0.03074191399561767,-0.09620015501332416,-0.023712809044331012,0.0333940001719161,-0.004264596358503033,-0.033027402557147374,0.06373237268855964,-0.022164342796567437,0.02429850191259107,0.06016018285629338,-0.03362758200527316,-0.043419254853952385,-0.022788748658194084,-0.057677337217441116,0.01747323367268792,0.06655213241373245,-0.01295807883085377,-0.0035171958622934782,-0.040464885416643066,-0.007015480317210772
-1.9978976444626304e-17,-9.27587492059045e-17,-1.9276060253721752e-17,2.627568952776206e-17,-3.110896586592178e-16,1.7033213880075391e-16,1.8041124150158794e-16,0.011247871290662147,-0.07980361732963853,-0.02671980205174303,0.05804733309384726,-0.004424820515638373,-0.07728673861603141,-0.003105873960486949,-0.07542546692584177,0.09926687210040834,-0.009754897512394379,0.014544075185896288,0.044733605121369646,-0.017381082623839573,0.04128254857135321,0.0627993141013031,0.02970555085852154,-0.07737005711968699,-0.03230399418134099,0.0159656232342145,-0.08036402478567332,-0.05464399616004501,0.024620634315463526,-0.06602277873098392
-9.537487057490208e-18,1.1033678089055883e-16,-7.150601572625368e-17,-2.5416123262365592e-17,1.615354030531252e-18,-1.3284270850119397e-16,3.469446951953614e-16,0.12416504022933753,0.09987813894511849,-0.06272480743442947,0.055845848472970146,-0.014980909895004805,0.015277949032944575,0.04530442287567464,0.07411015919528609,0.04170650516902326,-0.06487650458061378,0.02721165155694856,0.008797920380095461,-0.0070915958651730825,0.02945097503969914,-0.05013341559665037,-0.006115392294345032,-0.01854296609037192,0.020168923200781546,-0.0009057026650321811,0.030058202521025888,0.008137669264915126,-0.02200073732432594,-0.0007179687401905587
-6.665365402743272e-18,1.2879353381510853e-16,9.339408530751046e-17,1.206898504139018e-16,-1.8531021225170382e-16,-1.3195701852877118e-17,1.3877787807814457e-17,-0.05275500849329436,-0.0445947641584502,-0.027515735811695,0.03915013251289598,-0.00557628679670198,0.00751265206123623,-0.023757657069926417,-0.0018795393392635241,0.048208269696619344,-0.06380976584258713,0.04301914297182812,-0.013871376803922152,-0.015769638233379242,-0.013562074877223336,0.059870466442603944,-0.04291830701753565,0.019532484451350755,-0.023354579292294085,0.01957821909635135,-0.007582765335006706,0.04096133105802221,-0.014345317943230153,-0.02232845990855034
-2.0086529287642856e-17,1.7343885993270427e-16,1.3053346414079582e-16,1.3991147885928605e-16,-9.301109882591496e-17,-3.563321033758045e-16,4.163336342344337e-17,-0.001046369319922703,0.015417240531469515,-0.017954418047745283,-0.06788111368513954,-0.021169066994710908,0.007839391353908008,-0.07641812145149474,-0.03167822338128561,-0.03550418013285703,-0.017476011554846953,0.07780456633507701,0.024659734450057855,-0.018690422215981935,-0.030796805941378253,-0.03072285243614268,-0.051709319845056154,-0.008812752518667212,-0.06671239327444767,-0.027544628954499197,-0.005859341787302018,-0.04405327666708765,-0.034935061319572844,-0.025521613734166386
-3.961942293070134e-18,1.3312203501775377e-16,9.130224223998127e-17,1.1823151832481861e-16,-1.0575254307598344e-16,-1.0862901168841296e-16,4.163336342344337e-17,-0.009159829388205393,-0.02899070732778356,-0.007334271930948846,-0.00014532127648636002,-0.0051196253761955236,0.015190419293468928,-0.028992753183534743,-0.054003390451680566,0.0014759532682322688,0.0055262623776063105,-0.029014634021734476,0.026001316170994822,-0.038033569953101136,0.005674485746019896,0.01841273489773057,-0.05183825028658431,0.004092495489520473,-0.014186051693230745,-0.023455368349723123,-0.02688300665877036,-0.0058622032803709095,-0.06519389451537086,-0.08794372046960687
-1.2359046788250274e-17,2.0695621172991133e-16,2.1141623011696993e-17,-1.4564577148387794e-17,-2.414799926934456e-17,-3.4132957665247293e-16,-3.191891195797325e-16,-0.03462413241977361,-0.004590263384062677,0.02467358078229069,-0.04442916544979919,-0.07161999405377589,0.008769827811549079,0.0030122589372711577,0.049712628694466306,0.007931652086123035,-0.027722149264049884,-0.01792575678083861,0.024863154290401885,0.004485936362213426,-0.056871476924853934,-0.03692910883940139,-0.010102164968517163,-0.03087224612890526,-0.03417575391146316,0.00701321462784595,-0.025587975652573033,-0.036214545939397505,0.010862270871636234,0.055127317040948025
-2.025450704530571e-17,1.9594234409933858e-16,-2.3094039774761514e-16,-1.7707144401123067e-16,5.1298958081104025e-17,-4.81718768558557e-16,2.220446049250313e-16,0.18840315742672673,-0.048262344811638554,-0.07792698238223986,-0.020930237919639667,-0.16361769556558928,-0.0227758712915495,0.10905902031735927,0.09351686692072986,0.011308575461353053,0.01888149318129208,-0.020262783098504517,0.043052232534261395,0.023781779114307337,0.06542365067535375,-0.024516100672449893,-0.039078766139163446,-0.013732404301933898,0.10452032133265952,0.043730358069290015,0.02429515076718513,0.007110135344496769,-0.025845140317477627,0.008907154333683316
-5.136534797162101e-17,2.0799351747251075e-16,4.2515446760804913e-17,-7.801072001616968e-17,2.1143290723750524e-16,-2.9303585949984254e-16,-4.996003610813204e-16,0.04655339332364652,-0.0012670871439373226,0.08639069451702598,-0.004250160081918325,-0.08608229441831644,0.15413648456238607,0.022196797599192762,-0.006480890155707447,-0.01760939623331907,-0.0955037160713139,0.08638351933947112,-0.007188889255199611,-0.03469953332835232,0.03798733776043651,0.07387209186386243,0.09730049549029196,-0.01890574851089101,-0.09475185223716365,-0.05456367073468479,0.10345004174691239,0.11202714149534906,0.00426642529598403,-0.015930622053661192
-1.735371726722683e-17,1.776386737989099e-16,-5.845434278436904e-17,8.077283009670317e-17,-4.9270565254316276e-17,9.478045101750287e-17,-4.440892098500626e-16,0.01928977562572372,-0.06819832079098354,0.14641866984993945,0.05705159054523458,-0.04820120176492784,-0.0076685895975655725,-0.05436882556593416,-0.0030315231178274604,0.027487797867614894,-0.10651620624536928,0.002284241092625946,0.012618464289357284,-0.023585231418078233,-0.013945600208993245,0.10887277746212426,-0.0037114213164863353,-0.07880755409825464,-0.01701806099441008,0.04111596687394383,0.06701056565401746,0.027272630869771927,0.07493202408808718,-0.10934924357610364
-2.7668414034730343e-17,1.7772938560520752e-16,5.78681636033632e-17,-1.6032505782533012e-17,-2.1919149988421346e-16,-2.1385350071084525e-16,9.71445146547012e-16,0.10229198782478664,0.18185925266156824,-0.22455315052101618,0.07859723844049732,0.038035606645005715,-0.06197509397178806,0.06863554525654265,0.07767801089044525,-0.015231997242121167,-0.09333720970171677,-0.03217697842980401,-0.07806934576109047,-0.01586783846070906,0.05865144283665151,0.14772158756320727,0.05250979138014031,-0.09985655393595744,-0.03221528783749216,0.015037956968186737,0.07699726874087126,-0.013099531155214346,-0.13491863296859263,-0.03670092747291878
-1.1384049207615961e-17,1.554344833846026e-16,-5.936961619276376e-17,1.78762007601038e-16,-1.970553419021335e-16,2.206796257672634e-18,5.134781488891349e-16,0.07261099137398369,0.04746334657420343,-0.06153563244813215,0.03423317839144935,0.022491002129319104,-0.047238188260172106,-0.07383671279339654,-0.07253642925890669,0.018211497626751224,0.0007921704354583886,-0.08011349682667299,-0.026229934789199286,0.0208436641649708,-0.10108075327397152,0.02956176058927014,-0.0046665724341569195,0.030292066258518185,0.0013004717552436028,0.05452946126704331,-0.018515860628709295,0.03452409429168187,-0.024223818193031516,0.004919832328908797
-1.4643697054272085e-17,7.18040763281788e-17,-6.721104996913862e-17,-9.518328920345031e-17,1.6426589878840639e-16,-2.9395057969049473e-16,-5.620504062164855e-16,-0.008215202045915667,0.1280450189480781,0.10541988226903862,-0.07581066021794172,-0.05940643050493199,0.034223589475841906,0.03295036609274522,-0.016853797864592877,-0.07392758157441075,0.036357314407012696,0.023645811517236357,-0.031965008313965856,-0.007103814641429057,0.035258252569305315,-0.008660676684789977,0.02755996204528811,0.008956407488090385,0.06177283264794395,0.025879291060853852,-0.032973297113810744,-0.015209900110050403,0.012234779294725067,-0.07954514502390506
1.1160666700055882e-18,1.3495259032026683e-16,-2.0252768431766562e-16,-1.9533055498541343e-17,-4.803693807282238e-16,-3.130357405325246e-17,4.718447854656915e-16,0.13614214184861223,-0.01865174104344391,-0.059180782004326235,-0.08890545878316611,0.03613618073898755,-0.03880983692082835,0.011154838509584533,-0.16045245311006834,-0.013508597914995975,0.05594988932657617,-0.07919434264446387,-0.1329772549138031,-0.06640089784561101,-0.05226351976855392,0.046191911232172804,-0.07993020814987875,0.0791932254805794,0.05308192374821835,-0.0583611068216375,-0.06361083311028211,0.04973180082459723,0.008079564774713707,-0.029784731868686288
2.318005521663783e-17,1.4782866378908197e-16,-1.9207326048421445e-17,1.9978347688881762e-16,-4.1148051136226944e-16,6.79967936060037e-18,5.828670879282072e-16,0.09983887585987308,-0.06848196081063629,-0.08041254297858857,-0.047496579585399025,0.04861677317782691,-0.04286109963277024,-0.02811518542881016,-0.18167522932742616,0.007095455257448885,0.06524314959942787,-0.054567383473913864,-0.08723013580950813,-0.05960644887739251,-0.052436742380204605,0.0698332338715891,-0.06159757503041361,0.07847166535925156,0.05324093643387062,-0.04494263979719736,-0.03574673617011158,0.046123904009351645,0.031035764595063353,-0.005019187568280206
9.501333710447467e-18,1.5841059763876348e-16,-9.598369804623407e-18,8.625204238994826e-17,-1.151407521549208e-17,-1.9751268233614638e-16,4.579669976578771e-16,0.16496986155033022,0.09300071572274875,-0.07191798141840976,0.01564584685938388,0.005526134357329694,-0.018135177728885357,0.019459396069116123,-0.1056726794473899,-0.06594606790919451,0.01948786057012532,-0.021275537825255274,-0.059041187394699976,-0.022116181952159194,0.024031979777919096,0.06364627502403322,0.07741311195108973,0.01578099810467282,-0.012958463052576794,-0.07205730776132596,0.01684785527419261,0.05698521373328305,0.009981295952420678,0.019433048782866034
-3.006043518302522e-18,1.3527538136219224e-16,6.844255416674943e-17,1.4248298733537992e-16,-1.5397139777087986e-16,1.5791748674408174e-17,1.0755285551056204e-16,0.09258264070358783,-0.05114607163802369,0.039085950313302066,-0.039231321990644316,-0.013174330486065571,-0.04492653492245778,0.015433769841067226,-0.13769473729011292,-0.04817098062105664,0.04325079573141565,-0.017482047398265695,-0.07527071942953452,-0.018552233472357887,-0.062434059965646944,0.025568615000596182,-0.03729201798468994,0.061596100621785034,0.06610166445085967,-0.0178922583556677,-0.052454946831789945,0.03438468083521323,0.00650955011652044,-0.03125551368297373
2.6852547995448762e-17,1.3360469307893423e-16,7.401910718036782e-17,1.8351617326950445e-16,-4.4688504469482786e-17,-1.794563818802557e-16,6.245004513516506e-17,0.0793844956188618,0.00906471467755676,0.010156660707334175,-0.02413596470070693,-0.0124613877841754,-0.001380555214368582,-0.0009567840193038827,-0.11066007185871413,-0.05258742890237521,0.024483095977593503,0.035422122158508165,-0.02073647310882481,-0.06071419834848955,-0.05093532715278856,0.0360421145854605,-0.034803415363428444,0.079532785640919,0.06079473231675434,-0.0055577447005815865,-0.04623393385298505,0.02856717481345248,0.01966835143397356,-0.00377647978047927
-2.3569743476467322e-17,1.5349315264706448e-16,8.696445348676806e-17,2.816634016629835e-16,-9.837887230024701e-17,-2.856239225527935e-16,4.718447854656915e-16,0.04160810617114709,0.1305483772029049,-0.10634957327163215,0.0336968048570015,-0.003887110402531018,0.0078757679372468,-0.008836900507090812,-0.050660625564625826,0.010754232279409566,0.06400694495165662,-0.059955385636249706,0.014991876207237478,-0.018598855330380377,-0.09792194439475937,0.056445654988766546,-0.04674739957000843,-0.049214374182833705,0.001078626615870931,0.04697358125040951,0.04498101789351408,0.021234392734069445,-0.03740275682457096,-0.004849174904915151
9.209378079749192e-18,8.566810294941577e-17,1.0436723263329685e-16,2.7175002214508194e-16,1.6071778171487335e-16,2.528640540656044e-16,1.3877787807814457e-16,0.015126678643404749,-0.06621472678546547,-0.0017997720030357317,0.010814936350329062,0.055935863894175396,-0.012693375792262759,0.0015004788922865454,-0.011475776574126692,-0.031577604740537266,0.0017236833236772989,0.020744481580244604,0.05188655887936475,-0.003501146859216364,0.04625188695508638,-0.0474261855999165,0.015966950033561196,0.04204431656092879,0.05435602854355402,0.05215141491262365,0.005468969140529367,0.011409750268471621,0.018503028319460525,0.02354302030984816
-1.1266455420967813e-17,1.1632281776463406e-16,2.2803560265565124e-16,1.152732223204689e-16,-2.0853903389279865e-16,3.8093585758908635e-16,7.528699885739343e-16,-0.06460640469058429,0.036201351403001444,-0.18513738424451334,0.04928879074324632,0.11375118733334533,-0.03166068567790346,0.07036977368197454,0.07173493488259954,0.0014979634871239782,-0.09626685681216601,-0.03527193669191317,-0.04818175796405274,0.06141578497749121,0.12371683967017039,0.03901320350965842,-0.02730720658873835,-0.04836059617941171,-0.05514205371409724,-0.03645848036040601,0.019162564257671846,0.00956850402443343,-0.13629465898934862,-0.08086282256928276
9.28313523859439e-19,1.9724125181944395e-16,2.391186497691717e-16,7.851419699402919e-17,-3.7109614974761096e-16,2.4936616110307145e-16,5.828670879282072e-16,-0.08246670266512258,-0.05730047531478683,-0.18140520112141106,0.044190008121739344,0.0871160483342057,-0.01068465966390474,0.08350044778651969,0.12605569300567704,0.008461490825830432,-0.12014106663761336,-0.012549787303544667,-0.10397814399439283,0.0009898398163936373,0.1417419876258034,0.16987782986627525,-0.06778358543824413,-0.09678693302131575,-0.04919082627706004,-0.012460785548422518,0.04786799799143571,-0.022184649814216095,-0.13883726046350942,-0.12197417023968303
-4.818299070468243e-18,8.94925237615141e-17,7.637809390084188e-17,-3.799776522574047e-17,8.809108246521941e-18,-3.190335341215599e-16,-6.036837696399289e-16,-0.05995208324270703,0.01551558087497486,0.08426136584403524,-0.08075870394494584,-0.06688862720523517,-0.020251833762787545,-0.061001111199683856,0.01599973649288213,-0.04082841532520238,0.01329095994689092,0.03972491099522473,0.009541692629560034,0.02246517598512248,-0.0030969460479337886,0.005350018011474628,-0.025816241419486498,0.02334285700142085,-0.030810327935092138,-0.050645971703010446,-0.03139365884068113,0.0345644271778799,0.01832061554531452,0.04492054894429073
-1.8234836344711593e-17,1.4661565641816695e-16,-4.958438344431382e-16,-1.85380524137896e-16,-4.911021020861206e-17,-7.118267011671092e-16,2.498001805406602e-16,0.24941588021833128,-0.08424794473918848,-0.09636966247967027,-0.011899326509976271,-0.2214470610457619,-0.011961327316806126,0.14393179499141953,0.13035887124052906,-0.003507186070127239,-0.009501242929174829,0.01351932570260616,0.07154216099795224,0.040770768351829946,0.11432007398332163,-0.028565823044421346,-0.10173318007932906,0.018042867442447943,0.13911493385026147,0.06803305970035743,0.03192674799002782,-0.011147249375028848,-0.01482207330238746,0.0030394194941936316
6.410923342325073e-20,7.431485571717764e-17,3.8416521220218136e-17,9.375913599240138e-17,-1.157283383866674e-16,-3.010362739777607e-16,-7.112366251504909e-17,0.01698196379889703,-0.012109336242302631,0.019596976563448578,-0.05071000494182126,-0.050809795686235296,-0.020569712587107596,-0.031108387125999153,-0.018549965919655496,-0.0010420166341869347,-0.02150617617358299,0.04277401883087434,0.04078517373831064,0.03036775197207325,0.015148777641547257,0.02661432315420329,0.0032420850842955016,-0.020254750178254274,0.024183938141868797,-0.005707976050612268,-0.018534391199462458,-0.03934845978926342,0.018844198141464468,-0.009204172824058181
1.1200111171858703e-17,6.243809179996083e-17,5.257397154188973e-17,8.25184874471746e-17,-5.713433694944048e-17,-4.520406637638276e-17,-2.3592239273284576e-16,-0.057152796057199105,0.003420949841355766,0.03771437376278196,-0.03839160217258548,-0.030171225978754008,-0.0393394344235094,-0.04573741721678792,-0.006451894897806674,0.014541872984991183,-0.02531733450768041,-0.020619949689096462,0.009895752603282777,0.01848600007675335,-0.02120127901268765,-0.024358439829235082,-0.00397208523943282,-0.010614937761388358,0.02421888938853681,0.014807345212371696,-0.010421306659913726,0.02920554125327351,0.014761419597833838,0.03458570082532697
8.410312827463824e-18,-2.3846591779285855e-16,1.7019603340803933e-16,-1.3484440728695976e-16,9.435455285283267e-18,-1.1748441413314359e-16,-5.967448757360216e-16,-0.024515447231847468,0.014953117941494178,0.07568128676916583,-0.04399185656303324,-0.023793303406591738,0.08147635161833837,0.0537765523545248,0.003221838821528189,0.060867699688906395,-0.040361547906059086,-0.023481265792744586,-0.029019438219465423,-0.028236297076407547,-0.02072643200316522,0.04772731704755502,-0.02940663048057778,0.11305804692792025,-0.09493254970394532,-0.014597839595823812,0.006765958955511069,0.09747462957637364,0.049038457982759694,0.058789349387230905
-2.4183549506587078e-17,8.784153198038931e-17,1.112310987347371e-16,3.539209875870763e-20,7.785975467985255e-18,-2.1670498865899239e-16,-2.463307335887066e-16,-0.018474119618789465,0.057960843220157696,0.03512981212049317,-0.05481198021007281,-0.028864515772916675,-0.003115111279148084,-0.0037711523369188486,0.011276937398299235,-0.02201356364781724,0.03188334824096645,-0.05672823258544875,-0.003673209882841829,-0.007773717016739964,0.03263269371166536,-0.01329341874733949,-0.05144430872132203,-0.012103050073691893,0.01816499766354586,0.004452476700159482,-0.01431273407122252,0.013473815584388177,-0.007521736518077238,0.012721798842122567
-8.365439377349837e-18,1.0938870147438124e-16,-7.699422106585766e-19,1.4086336874007044e-17,3.89197761691947e-17,2.2190656682191106e-16,1.5265566588595902e-16,0.07948302111112998,0.023319424553011017,-0.012718170737897862,0.10768913957872855,0.030397812226203982,-0.0637844813545333,-0.03268875114138406,0.014667888240280832,0.02437116741849921,-0.023671256750482098,0.010689974027023439,0.04669830136309788,-0.0077689589108768855,0.054349223061706545,0.01146555450725027,0.08860581965747791,0.008578727300901789,-0.020310891312205117,-0.014461917694856144,-0.02585631006530285,0.03418489114221161,0.030665506775143375,-0.006682153558501682
-5.265895452552623e-18,1.8343173431849603e-16,3.00602358473778e-17,3.2496608288629836e-17,5.094891844037019e-17,4.7083278789712805e-18,-2.5673907444456745e-16,-0.0595976111234612,-0.022442031545717927,0.04524258496532311,-0.02342612965939776,-0.02962225634448029,-0.06088759874081146,-0.10158052454924202,0.03554229015093596,0.02401605242413268,-0.009223267726972033,-0.006773614642278179,-0.0010541355615907976,0.05712319570105806,0.013031097649743795,-0.0744374416946442,-0.006678021132291872,-0.0070241733921373945,0.061069169386959214,-0.010783095129989389,-0.03147917967355548,0.03943645454714131,0.06818894795144931,0.07530050429879379
-1.580361454311326e-18,1.7032312777629198e-16,5.3895638548565737e-17,2.53605222100501e-16,8.959282562292429e-17,-1.3861012758483802e-17,-1.196959198423997e-16,-0.04358703621553719,-0.061307005595984676,0.016793210492343807,-0.026717469146776685,0.014684449305306524,0.019889019946500934,-0.06960920950740597,8.201990988739105e-05,0.014339257481161742,-0.016391701844234902,-0.03687419906002196,0.065893017896629,-0.018321344762008945,0.07507142580528342,-0.024779355025755755,0.03866210740272591,-0.010688787803548283,0.07643983587636473,0.04185278424444629,-0.012716171082070245,0.015075120452928416,0.011314832567988245,0.019022320840647408
1.334373617247278e-17,1.7935193244762024e-16,1.1615188941586117e-17,7.215501083552278e-17,-7.411154457705898e-18,-2.2185953289705236e-16,-5.100087019371813e-16,-0.046148571575584406,-0.023619242954053356,0.09346232963268532,-0.04979131646262582,-0.06704261938695037,-0.05832982674739142,0.0035570959512027894,-0.015009430640746424,-0.027156979115870578,-0.04335597889430017,0.041025863456512573,0.014568947393942903,-0.03717589464849674,-0.041224892637483905,0.0034723610912896566,-0.018191770134210982,-0.07018569242423736,0.013661430916440325,-0.012948860851910599,-0.012117994312652954,-0.04855810779800071,0.035642142350994464,-1.8988033160325236e-05
-1.8558687207350315e-17,2.584621066674033e-16,-2.472901224103413e-16,-3.9621821231433634e-16,3.5907835902004243e-16,-3.3465953141708886e-16,1.8041124150158794e-16,0.07240876920323726,-0.1454888149695864,-0.013408787264442206,0.025182771447252273,-0.07731978329506942,-0.05903320618817359,0.08950080165605127,-0.07427031219569684,-0.09038428876564014,-0.02985143709246281,0.009324064277582754,0.09274505788526492,0.043561682394092846,-0.04228845165584123,0.05638261776461465,-0.021683602517767353,0.015974142441576345,0.04677489874364526,0.10073863771044612,0.05978574204922443,0.009324463434314574,-0.07167787773270479,0.08511916215764874
3.2972663254390677e-17,5.137048248736755e-17,1.0592209266209708e-16,1.7531909854363285e-16,-8.793978481808718e-17,4.606866989849479e-16,4.2674197509029455e-16,-0.013881228824914691,-0.014819886617586186,-0.08405432630238337,0.021736197916485255,0.10380017302217599,-0.0009936359631922348,0.06116831501492012,-0.00499208796941032,-0.041426807378602055,0.008521932793062875,-0.04349912668710731,-0.030620261378495064,0.04742929728590421,0.08468146569431599,-0.002035970740019873,-0.019984637782023973,0.024128699012373182,-0.05945316123405097,-0.03616023546268509,-0.0025948296631905727,0.012534915421663007,-0.037855662777293644,-0.0072620230168734794
7.734677977086977e-18,7.452629352714811e-17,1.1594938406917599e-16,1.8420446187041734e-16,-1.0382240005216374e-16,3.1641151241035974e-16,2.706168622523819e-16,-0.01672596731794527,-0.0499492518260755,-0.0667312888673858,0.018939900259785505,0.08648102688258434,0.029157337064385943,0.050395813356141954,0.01765701078348117,-0.040971185848974766,-0.015970571139106358,-0.01683699560125895,-0.04246938131508255,0.002986807219153515,0.07746960967254626,0.06075833022093692,-0.038137411798330675,-0.01942367776271882,-0.06254823944968643,-0.036870199822279806,0.0006762274970492922,0.016864071799787307,-0.046150224313649194,-0.0510056403621496
3.8037674058195436e-17,-7.29229237813827e-17,-4.962656620771929e-16,-1.6103140780697834e-16,-5.259662683720279e-17,9.528274568527343e-16,5.551115123125783e-17,0.11824385872587116,0.030961121397132748,0.12645066231475705,-0.07486314139685295,0.3139310936690033,0.001170804193296647,0.052769417693482534,0.07461959174196289,-0.027876612422860214,-0.1163624602480151,-0.03705352709638275,0.22913698482309086,0.064383085177986,-0.11490134789519006,0.05196213941151861,-0.12715560099599824,-0.04295640805116139,-0.046363683099901305,-0.21577772563303718,0.13956993947612065,-0.00016630189196349926,-0.09155695971313914,-0.07678825007195589
2.3029595684742162e-17,1.2038013496744316e-16,1.1442164082098083e-16,1.4560261465692305e-16,-1.0036112243599704e-16,1.1670359897592774e-16,2.7755575615628914e-16,0.013205657363440735,0.03816175458352225,-0.06470280769261447,0.026932191551172588,0.0378478680911623,-0.0002651727711401682,-0.015073942589694446,0.015666085591866837,0.04770623103670454,-0.04587353259742908,0.017703333243948717,0.045460761441608745,0.0374175156722039,0.04357338596548381,-0.04064638713498783,-0.038160169143716824,0.023891712969801842,-0.04519951803251888,-0.016423925724323846,-0.004918029504682247,0.04706488742282368,0.013677671712181394,-0.046349534048595306
-3.966095456721049e-17,1.498640082061131e-16,-8.38689420423908e-17,1.2420652427291793e-17,5.814490299696053e-17,3.8583463549829637e-16,3.7470027081099033e-16,0.16376666167827664,0.09142403805674439,0.07159120858388697,0.16771234370037388,0.04002315178082091,-0.04986954844108907,-0.004376065084885356,-0.06755928887548152,-0.03709799088547118,0.12810328333503487,-0.06037882514130945,0.03735247327891111,0.14117238653425415,0.079794328737201,0.033596934411324046,-0.013673206944149616,-0.05272356284051237,0.025806733768357664,0.007600957829447768,-0.03572263625880341,0.00916560031893898,0.0663051548813793,-0.0287166896447749
-2.985614095931571e-17,1.5120554727682095e-16,-2.3058382571832377e-16,-1.7449579514159205e-16,-1.2262848321134288e-16,-7.900220531355148e-16,8.049116928532385e-16,0.3180060234125268,0.09385997767980511,-0.15272332718025525,0.0923479953566844,-0.13086216409671697,0.10517610699777538,-0.018312923160960573,0.07555107015525685,0.015804960146504173,-0.010325715307547346,-0.04275302480379792,-0.0694970134394629,-0.0637142439062636,0.02933872317515312,-0.0743314613142872,0.025345305522509,-0.024162006376246013,-0.004077099141126522,-0.06379587201016976,-0.007720867455131579,-0.04740586442587419,0.028232202535193138,0.01882094740011135
1.884144986359782e-17,1.1878622532082755e-16,-8.321806084013374e-17,2.400249839431458e-16,-3.0046929471883154e-16,2.5587029070810384e-16,2.3592239273284576e-16,0.020030249680796128,0.005054997019817902,-0.004864812537679137,-0.010232419327376339,0.09524021320473305,-0.023234400712962382,-0.009749319353775078,-0.07412873714194464,0.07410664928178493,-0.026513153537772213,-0.04196620905267837,0.09368586769816672,0.027372682447502777,-0.0902623817726415,0.0761590059545476,-0.07137471607783905,-0.011106828625895085,0.028588447743494835,0.00441256415536924,0.04542756995604306,0.033712195099842183,-0.023439185706306348,-0.05795468127974387
2.469716060748309e-17,1.2357364149484257e-16,2.285961540190367e-17,1.1153217306361492e-16,-9.19700161141458e-17,2.0960625554375724e-16,2.498001805406602e-16,0.024876569428128676,0.037361684680150824,-0.04346353387202992,0.01562159412520858,0.06852377846003042,-0.0001056189515616265,-0.0075357910072688375,0.022216473493625283,0.03930813961946527,-0.05370563405450352,0.011619237560885004,0.06586923060337468,0.04041369024656563,0.02596508236935683,-0.030356556324069178,-0.04804855389918408,0.016464141809610325,-0.045328873965351485,-0.038574347973592674,0.01113618823514466,0.0418169813886991,0.001984935417483209,-0.049731614375125396
-3.972647924707638e-18,-1.1826226676072187e-17,1.4483330184828478e-17,1.3507165139851874e-18,3.3319633539536914e-19,-3.668774194539623e-18,-6.505213034913027e-19,0.0005532195022575126,-0.0015301588637429203,0.0003688871708791992,-0.0011823600306934323,-0.0009097368580101941,-0.0003760913894542475,-0.0006193055619432713,-0.00010373843332041345,-0.00031916120963823363,-8.176365560240798e-05,3.173008218755316e-06,0.0005239728392163709,1.8059385744994873e-05,-0.0006386024351315781,-0.00014880904408062196,-0.00027374023805138385,-0.00042431138414537797,-0.00014203022876002047,-0.0001525481170882606,2.7115374237723968e-06,-0.00015774141500103213,3.704690871491544e-05,0.00019533357319717357
-3.972647924707638e-18,-1.1826226676072187e-17,1.4483330184828478e-17,1.3507165139851874e-18,3.3319633539536914e-19,-3.668774194539623e-18,-6.505213034913027e-19,0.0005532195022575126,-0.0015301588637429203,0.0003688871708791992,-0.0011823600306934323,-0.0009097368580101941,-0.0003760913894542475,-0.0006193055619432713,-0.00010373843332041345,-0.00031916120963823363,-8.176365560240798e-05,3.173008218755316e-06,0.0005239728392163709,1.8059385744994873e-05,-0.0006386024351315781,-0.00014880904408062196,-0.00027374023805138385,-0.00042431138414537797,-0.00014203022876002047,-0.0001525481170882606,2.7115374237723968e-06,-0.00015774141500103213,3.704690871491544e-05,0.00019533357319717357
-6.141497481105017e-18,-1.9333022621885625e-17,-2.043562083807466e-16,-4.32962206639472e-16,-2.3037463292090244e-16,3.1149781684440317e-16,5.273559366969494e-16,-0.027453317981935926,0.29218448539086456,-0.11397854371018229,0.01603537514992224,0.1533653708766842,-0.08927147903671923,-0.09561133189852766,0.03427309807328437,0.03501606709988835,0.006428477699288942,0.10060739775573127,-0.03425042291871658,0.06803614582581469,0.038357946776959036,0.10419419552150068,0.04495677888937747,0.15576720497569188,-0.013285360077993786,0.04175966866064253,0.11400748088407826,-0.036121530075037454,0.025477220476856167,-0.07655226186070224
-6.141497481105017e-18,-1.9333022621885625e-17,-2.043562083807466e-16,-4.32962206639472e-16,-2.3037463292090244e-16,3.1149781684440317e-16,5.273559366969494e-16,-0.027453317981935926,0.29218448539086456,-0.11397854371018229,0.01603537514992224,0.1533653708766842,-0.08927147903671923,-0.09561133189852766,0.03427309807328437,0.03501606709988835,0.006428477699288942,0.10060739775573127,-0.03425042291871658,0.06803614582581469,0.038357946776959036,0.10419419552150068,0.04495677888937747,0.15576720497569188,-0.013285360077993786,0.04175966866064253,0.11400748088407826,-0.036121530075037454,0.025477220476856167,-0.07655226186070224
-6.141497481105017e-18,-1.9333022621885625e-17,-2.043562083807466e-16,-4.32962206639472e-16,-2.3037463292090244e-16,3.1149781684440317e-16,5.273559366969494e-16,-0.027453317981935926,0.29218448539086456,-0.11397854371018229,0.01603537514992224,0.1533653708766842,-0.08927147903671923,-0.09561133189852766,0.03427309807328437,0.03501606709988835,0.006428477699288942,0.10060739775573127,-0.03425042291871658,0.06803614582581469,0.038357946776959036,0.10419419552150068,0.04495677888937747,0.15576720497569188,-0.013285360077993786,0.04175966866064253,0.11400748088407826,-0.036121530075037454,0.025477220476856167,-0.07655226186070224
-6.141497481105017e-18,-1.9333022621885625e-17,-2.043562083807466e-16,-4.32962206639472e-16,-2.3037463292090244e-16,3.1149781684440317e-16,5.273559366969494e-16,-0.027453317981935926,0.29218448539086456,-0.11397854371018229,0.01603537514992224,0.1533653708766842,-0.08927147903671923,-0.09561133189852766,0.03427309807328437,0.03501606709988835,0.006428477699288942,0.10060739775573127,-0.03425042291871658,0.06803614582581469,0.038357946776959036,0.10419419552150068,0.04495677888937747,0.15576720497569188,-0.013285360077993786,0.04175966866064253,0.11400748088407826,-0.036121530075037454,0.025477220476856167,-0.07655226186070224
-6.141497481105017e-18,-1.9333022621885625e-17,-2.043562083807466e-16,-4.32962206639472e-16,-2.3037463292090244e-16,3.1149781684440317e-16,5.273559366969494e-16,-0.027453317981935926,0.29218448539086456,-0.11397854371018229,0.01603537514992224,0.1533653708766842,-0.08927147903671923,-0.09561133189852766,0.03427309807328437,0.03501606709988835,0.006428477699288942,0.10060739775573127,-0.03425042291871658,0.06803614582581469,0.038357946776959036,0.10419419552150068,0.04495677888937747,0.15576720497569188,-0.013285360077993786,0.04175966866064253,0.11400748088407826,-0.036121530075037454,0.025477220476856167,-0.07655226186070224
-6.141497481105017e-18,-1.9333022621885625e-17,-2.043562083807466e-16,-4.32962206639472e-16,-2.3037463292090244e-16,3.1149781684440317e-16,5.273559366969494e-16,-0.027453317981935926,0.29218448539086456,-0.11397854371018229,0.01603537514992224,0.1533653708766842,-0.08927147903671923,-0.09561133189852766,0.03427309807328437,0.03501606709988835,0.006428477699288942,0.10060739775573127,-0.03425042291871658,0.06803614582581469,0.038357946776959036,0.10419419552150068,0.04495677888937747,0.15576720497569188,-0.013285360077993786,0.04175966866064253,0.11400748088407826,-0.036121530075037454,0.025477220476856167,-0.07655226186070224
4.5724132869485135e-18,6.898379989133077e-17,1.3988753619898542e-16,1.153806073466909e-16,-6.377040938152383e-17,2.117368510494395e-16,3.157196726277789e-16,-0.10065260564203606,0.017098841591240505,-0.10382088592461898,-0.006866887413680377,0.059144439795719844,-0.017871428022772005,0.04136446453208586,0.040594701312925904,-0.027917733421228223,-0.03835371458678027,-0.046346113724958726,-0.04388319606092552,0.056747272714014224,0.09882370555417501,0.021251809911950706,-0.016089178365569414,0.03006651243618938,-0.0020831967974483754,0.011611238011353504,0.041273633700579085,-0.00668445169927839,-0.06331549246633374,-0.03719613707349385
-4.334618934889692e-18,7.515130423386526e-17,1.4317031021264508e-16,1.2685926981406638e-16,-3.5506603790128015e-17,-2.978263368220899e-17,1.1102230246251565e-16,-0.055444566515380836,0.017973285006530813,-0.06679693775726349,-0.017445320802649603,0.022214711676551934,-0.016410955265193112,0.025649312557795848,0.024021027563477813,-0.022746845285972823,-0.046629905036076676,-0.0033833371332528906,-0.010115319924565025,-0.01670052069383868,0.03223502166515497,0.032867056025799486,0.0006921012138700194,0.03402268671797319,0.03691556415023581,0.0316542595584435,0.01291164486745471,-0.012676462577326887,-0.019638150596446167,-0.012742974501988554
-3.972647924707638e-18,-1.1826226676072187e-17,1.4483330184828478e-17,1.3507165139851874e-18,3.3319633539536914e-19,-3.668774194539623e-18,-6.505213034913027e-19,0.0005532195022575126,-0.0015301588637429203,0.0003688871708791992,-0.0011823600306934323,-0.0009097368580101941,-0.0003760913894542475,-0.0006193055619432713,-0.00010373843332041345,-0.00031916120963823363,-8.176365560240798e-05,3.173008218755316e-06,0.0005239728392163709,1.8059385744994873e-05,-0.0006386024351315781,-0.00014880904408062196,-0.00027374023805138385,-0.00042431138414537797,-0.00014203022876002047,-0.0001525481170882606,2.7115374237723968e-06,-0.00015774141500103213,3.704690871491544e-05,0.00019533357319717357
-3.972647924707638e-18,-1.1826226676072187e-17,1.4483330184828478e-17,1.3507165139851874e-18,3.3319633539536914e-19,-3.668774194539623e-18,-6.505213034913027e-19,0.0005532195022575126,-0.0015301588637429203,0.0003688871708791992,-0.0011823600306934323,-0.0009097368580101941,-0.0003760913894542475,-0.0006193055619432713,-0.00010373843332041345,-0.00031916120963823363,-8.176365560240798e-05,3.173008218755316e-06,0.0005239728392163709,1.8059385744994873e-05,-0.0006386024351315781,-0.00014880904408062196,-0.00027374023805138385,-0.00042431138414537797,-0.00014203022876002047,-0.0001525481170882606,2.7115374237723968e-06,-0.00015774141500103213,3.704690871491544e-05,0.00019533357319717357
-6.616590062289296e-18,9.411896766785019e-17,1.7705181919335906e-16,1.2725242439080394e-16,-2.1404613525407903e-16,2.332681808406004e-16,-5.551115123125783e-17,-0.009433524360866136,-0.14298225861703098,0.008394718470663561,0.053524325977758025,0.007805847980069647,-0.03966517807609226,0.011059715088478033,0.011285899567644675,0.07106757994436724,0.0036408854318664323,0.00018332042853987663,0.005057968039237589,-0.05733790264958689,0.019314853311355764,0.026554531492821724,0.03262875528065546,-0.038531664983355945,-0.013468157524923084,-0.011921242897381966,0.011859501586288929,-0.024676849617411532,0.021984299629204403,-0.01885282746608581
3.2407781143382063e-17,1.500614515922559e-16,3.39346592673768e-16,4.441940443253205e-16,1.4139190360602105e-17,-9.761779139189818e-17,4.163336342344337e-16,-0.001917132184874646,-0.07810787450379653,-0.09139375792442886,-0.023956400787471178,-0.004356869631019958,0.03499494546684137,0.021065912121790518,-0.08430597009065757,-0.009902622706444502,0.055272806057361824,-0.03114362720778153,0.014090021877767162,0.02429703831194157,-0.01633413746981354,-0.06795949243840033,-0.053113108722421205,0.061398533503491,0.056530265846616475,0.009514741569924563,0.014565937969126074,0.004212046390560124,-0.07460668336477644,0.004291834693724207
3.9966620279867047e-17,1.0721585040400847e-16,1.0158364323186075e-16,3.2997071408527405e-16,-2.775824110562874e-16,5.107017073006772e-17,5.273559366969494e-16,0.06357628021876575,-0.06822163241601131,-0.08775962195466382,-0.02251602130277962,0.04735924865401072,-0.020782342823536564,0.009396614456231968,-0.15281764199317735,0.021426434163532324,0.073355473698267,-0.055182816208678424,-0.05428522248508345,-0.02692239509705955,-0.04964219934802971,0.03272162069816658,-0.05232565477664895,0.04821412150361624,0.08702566984513226,-0.022483850080393213,-0.04728868251566688,0.03506443633035092,-0.008300752119481437,-0.01822146546941938
-2.3703575030162805e-17,1.8773085961020042e-17,-5.134552019642186e-16,-3.262522905087952e-17,2.659781787972286e-16,-2.640841042817921e-16,-8.326672684688674e-17,0.06608322375301258,0.22398820988068016,0.059009582228987036,0.057323479093947007,-0.07501784182288444,-0.06036600142422327,0.07666181244295074,-0.04999768598372215,-0.05404836402781578,-0.03144460699804218,0.02948257230575629,-0.0030729626224380462,0.010911038682249664,-0.06605975495254286,-0.00037275698882505295,0.030314835013586804,-0.09198916530784966,-0.01038825832482182,0.018583339357785163,0.07788309521767844,-0.03827478658623495,-0.06741050091254223,0.032647173640011025
-1.0857332434020862e-17,1.750367612803871e-16,-2.5931082985010253e-17,-2.0006571534138858e-16,4.0509142368362853e-16,6.3724462094927955e-16,9.020562075079397e-17,0.071619995310106,0.06081824630188046,0.025553813443091957,0.0888707830587512,0.07278469142067288,-0.10101825343928467,0.009257818890972273,0.04158011558098078,0.0611484439619597,0.019398089928380012,-0.20504321030380038,0.041110484539520466,-0.014682802200847538,-0.010776180519118671,-0.09152621450371443,0.26889665312113026,0.000150881974941653,-0.023646546195606334,-0.0814284687640951,0.06847218771153929,-0.14599890408335772,0.034263300474386325,0.13916465928301544
-3.966095456721049e-17,1.498640082061131e-16,-8.38689420423908e-17,1.2420652427291793e-17,5.814490299696053e-17,3.8583463549829637e-16,3.7470027081099033e-16,0.16376666167827664,0.09142403805674439,0.07159120858388697,0.16771234370037388,0.04002315178082091,-0.04986954844108907,-0.004376065084885356,-0.06755928887548152,-0.03709799088547118,0.12810328333503487,-0.06037882514130945,0.03735247327891111,0.14117238653425415,0.079794328737201,0.033596934411324046,-0.013673206944149616,-0.05272356284051237,0.025806733768357664,0.007600957829447768,-0.03572263625880341,0.00916560031893898,0.0663051548813793,-0.0287166896447749
-2.766841403473034e-17,1.7772938560520747e-16,5.786816360336309e-17,-1.6032505782532494e-17,-2.1919149988421252e-16,-2.1385350071084485e-16,9.71445146547012e-16,0.10229198782478595,0.18185925266157038,-0.22455315052101438,0.07859723844049996,0.038035606645006215,-0.06197509397178497,0.06863554525654138,0.07767801089044604,-0.015231997242121134,-0.09333720970171641,-0.03217697842980044,-0.07806934576108995,-0.01586783846070775,0.05865144283665185,0.1477215875632065,0.052509791380139476,-0.09985655393595526,-0.03221528783749164,0.015037956968188297,0.0769972687408697,-0.013099531155212746,-0.13491863296859327,-0.036700927472922064
-6.110234754973039e-17,-7.260242370720057e-16,3.0538167355908184e-16,1.9318643301787603e-16,5.270872895877241e-17,-1.3227418629840501e-17,-6.938893903907228e-17,0.009179869888903147,0.025822224302877176,0.01956872392532258,0.007686045643993621,-0.001639629452426488,-0.014797150221374898,-0.00867687422002523,-0.0032674245081168772,0.011372624899292413,-0.013013813156711187,-0.002649387515113018,-0.0002834576847753835,0.015362246566523666,0.010094071113267978,0.0036255724922020253,-0.0023469677525720326,0.0037719397090485015,-0.0022318822879822367,-0.000753523599738783,-0.0039074070959764775,0.006048297273720963,-0.003456807675794844,0.011030220924462767
-6.110234754973039e-17,-7.260242370720057e-16,3.0538167355908184e-16,1.9318643301787603e-16,5.270872895877241e-17,-1.3227418629840501e-17,-6.938893903907228e-17,0.009179869888903147,0.025822224302877176,0.01956872392532258,0.007686045643993621,-0.001639629452426488,-0.014797150221374898,-0.00867687422002523,-0.0032674245081168772,0.011372624899292413,-0.013013813156711187,-0.002649387515113018,-0.0002834576847753835,0.015362246566523666,0.010094071113267978,0.0036255724922020253,-0.0023469677525720326,0.0037719397090485015,-0.0022318822879822367,-0.000753523599738783,-0.0039074070959764775,0.006048297273720963,-0.003456807675794844,0.011030220924462767
-1.2796086547590195e-17,8.12711263971453e-17,1.8730314307266838e-16,-1.4124181244381188e-16,8.073182243196575e-17,-5.663952971081841e-17,-1.6653345369377348e-16,0.02067493514092802,0.03465394197648733,0.04639442788598892,0.007012096749074475,-0.046678378715874304,0.06044975640193689,0.06203906537322341,0.049161899815757026,0.007368859797643882,-0.051760253349262104,-0.08392082114120161,-0.05262425318284348,-0.02556857196722178,-0.02800547174726751,-0.007458837974259951,-0.019360773149797134,-0.05225348601017192,-0.022039946021487317,0.016426015148918654,0.024486368016691462,-0.02755280642170199,-0.002447909509969985,-0.025133298887967392
-6.110234754973039e-17,-7.260242370720057e-16,3.0538167355908184e-16,1.9318643301787603e-16,5.270872895877241e-17,-1.3227418629840501e-17,-6.938893903907228e-17,0.009179869888903147,0.025822224302877176,0.01956872392532258,0.007686045643993621,-0.001639629452426488,-0.014797150221374898,-0.00867687422002523,-0.0032674245081168772,0.011372624899292413,-0.013013813156711187,-0.002649387515113018,-0.0002834576847753835,0.015362246566523666,0.010094071113267978,0.0036255724922020253,-0.0023469677525720326,0.0037719397090485015,-0.0022318822879822367,-0.000753523599738783,-0.0039074070959764775,0.006048297273720963,-0.003456807675794844,0.011030220924462767
-6.110234754973039e-17,-7.260242370720057e-16,3.0538167355908184e-16,1.9318643301787603e-16,5.270872895877241e-17,-1.3227418629840501e-17,-6.938893903907228e-17,0.009179869888903147,0.025822224302877176,0.01956872392532258,0.007686045643993621,-0.001639629452426488,-0.014797150221374898,-0.00867687422002523,-0.0032674245081168772,0.011372624899292413,-0.013013813156711187,-0.002649387515113018,-0.0002834576847753835,0.015362246566523666,0.010094071113267978,0.0036255724922020253,-0.0023469677525720326,0.0037719397090485015,-0.0022318822879822367,-0.000753523599738783,-0.0039074070959764775,0.006048297273720963,-0.003456807675794844,0.011030220924462767
-1.4534795012216462e-17,7.549568026533303e-18,1.9732873672430287e-16,7.251204914696189e-17,1.4748877165382266e-16,2.1820071788132932e-17,1.249000902703301e-16,-0.008728202167037255,-7.676253766777222e-05,0.02047501400883029,-0.015254474120517917,-0.020852115563635382,0.010860310586546582,-0.01816547980073846,-0.08018074000875758,-0.012476215401617216,0.032861579863919584,-0.07349430693404109,-0.012952817647592048,0.08527522174149084,0.021931232795287955,-0.012604010245629862,-0.04246468482501127,0.01749974946202976,-0.0060626774302373,-0.01045212741500457,-0.015293558418820241,-0.007177463236751959,-0.018803284257394207,-0.02376897826027846
4.0549708161741466e-17,2.4256249582778166e-16,4.772050192559269e-16,-4.831004927620457e-16,4.68861991079533e-16,4.3101183873036085e-16,4.440892098500626e-16,-0.06510449908663792,-0.23458112125220185,-0.03653646473585749,0.08765535695208117,0.17738573722179699,-0.15601721767118515,0.07008362283266718,-0.003835447773918476,-0.1095522737322357,-0.04108486226538025,0.06399377616748936,-0.07243203532354696,0.04358501567431801,-0.02033783706420012,-0.01622156876437482,0.019345625274115624,-0.025077475931168915,0.020517099557478664,-0.048749951793477735,0.025099907423877722,-0.01702193324809232,-0.03986150334789603,-0.042697591619986965
4.0549708161741466e-17,2.4256249582778166e-16,4.772050192559269e-16,-4.831004927620457e-16,4.68861991079533e-16,4.3101183873036085e-16,4.440892098500626e-16,-0.06510449908663792,-0.23458112125220185,-0.03653646473585749,0.08765535695208117,0.17738573722179699,-0.15601721767118515,0.07008362283266718,-0.003835447773918476,-0.1095522737322357,-0.04108486226538025,0.06399377616748936,-0.07243203532354696,0.04358501567431801,-0.02033783706420012,-0.01622156876437482,0.019345625274115624,-0.025077475931168915,0.020517099557478664,-0.048749951793477735,0.025099907423877722,-0.01702193324809232,-0.03986150334789603,-0.042697591619986965
-5.901591734853581e-18,-1.3604155598483526e-16,1.3603688565544903e-16,5.19528197066689e-18,-9.872848287379317e-17,-8.298616249129171e-17,4.163336342344337e-17,0.11158867671433802,0.016988901644103892,0.07345769292513547,-0.040614078106036795,0.03771588381198102,0.06458072679929552,-0.06572242135333721,0.026940562110833427,-0.010586967873465978,-0.00435987614873153,0.04389352156878687,-0.06892599535890417,-0.03367538131410159,-0.01565498445136747,-0.005005525738242782,0.027678575081442156,-0.016148588727316802,0.03269096827379486,0.026755795300756002,0.047806245782933014,0.02329708575722191,-0.004738421117999504,0.011757980099472484
-3.0810846378819085e-17,-2.9676441030532174e-17,1.291319561037829e-16,-1.2405432798308693e-16,4.83668652676028e-17,1.8313579639204712e-16,2.0816681711721685e-16,0.06741337382548027,0.01502934137183265,0.010458514092193462,0.024618220285159493,0.019761225411207915,-0.023244525702318244,-0.09325714908710121,0.08451288294102585,0.0004591573943632863,0.03260979915192551,-0.050152279152208774,-0.040595089099437535,0.028927165034721883,-0.01178349530214642,-0.002297199489723204,0.024815952579624982,-0.011696198943355414,0.057360042879886775,0.0037822619165590174,0.013908390461412512,0.012392047023799597,-0.05461960350346395,-0.029924831669722547
1.6935728756629395e-17,-8.618411260566561e-17,8.841147324569967e-17,-1.7223488489217585e-17,-2.2333494717065754e-16,-1.856472591691947e-16,6.938893903907228e-17,0.13565923306883274,0.02799680736889257,0.0755825330808443,-0.06008935035280681,0.04341434337188412,0.06516019760513767,-0.10264674496636006,0.008861795203345096,-0.011034558106561527,-0.006601990474794212,0.05503408892959538,-0.07886568791552329,-0.0840380368581701,-0.008163928461136172,0.015032841454967711,0.026948657589450545,-0.06036270766453201,0.03802017589115711,0.059210310022321536,0.037985741023449225,0.007317112999351464,0.01779332034694804,-0.0008249605654774586
-1.3652983972970273e-17,4.1461331408052184e-17,1.558718955576343e-16,-5.1245690110659726e-17,-1.2447303982186424e-16,-1.7833489192061755e-16,2.7755575615628914e-17,0.0707384766849154,0.0114497006012576,0.03993001689167991,-0.06253721070765512,-0.014112514175235123,0.07589620056994985,-0.03551068704867688,0.0016752344324110946,-0.025943967415016308,0.011253633354063652,-0.012739934824972928,-0.05759529125201815,-0.009874173868985828,-0.03325327441621838,0.0036101147063746864,-0.03557985579012047,-0.031064237547788504,-0.021641402860875507,0.007754688195823495,0.014861371148460083,0.019855465033502825,0.002733681519283059,-0.034539701989880586
6.912331528790026e-18,-1.0719807426955199e-16,1.8887315973445219e-16,1.163099446290747e-16,-1.3139708153346948e-16,-1.0568765457761069e-16,1.231653667943533e-16,0.024762578698290866,0.02653730015753653,-0.0017363435346787835,-0.06389177324142023,-0.002480797289498392,0.024907201665039323,0.009423993692911385,0.00849141763666126,0.003202748601512504,0.015333073267194002,0.011141231116217377,-0.022919628040526697,0.09677328238311907,-0.08215820602094515,-0.004968604231255922,-0.029180769284156215,0.044446805871207966,-0.04452097158884658,-0.016065283108725584,-0.027861913441287633,0.0006388197729994,-0.0898522572718183,-0.006378618842905178
-7.759272734216143e-18,2.5762308633251777e-17,2.5234859021685316e-17,7.963725647577121e-17,-8.58576367673624e-17,-1.8489614842211466e-16,-6.938893903907228e-17,0.04583393704471728,-0.07177319757280125,0.02884161257210969,-0.05746132839959159,-0.04197416183805724,0.007143485379823515,-0.061530833442472954,0.06975825748338585,-0.04414077419023861,-0.03263828656836304,0.05920575391624599,-0.006659997088577636,0.07212304089915104,-0.03816701504596104,-0.018726252914144186,0.013372605898995719,0.0027525113360966614,-0.043968129645869304,-0.06497142121613733,-0.02837270311484794,0.03399237809974075,-0.039567091807959816,0.02388428084135258
-2.481046603151872e-17,7.969366540382969e-18,9.353266072293654e-17,9.38605780870735e-17,-2.6471880295481887e-17,1.203624275475092e-16,-1.249000902703301e-16,-0.0131991419265344,-0.07703772058180676,0.04183784613706474,0.03449206111416348,-0.019052771016925665,-0.005283499560720597,-0.02741279140461342,0.04857871811081781,-0.01885992610928599,-0.0007546376578145832,-0.04289280447005466,-0.014863179996100286,0.006426656947185561,-0.00668970124418578,0.0017139702591106953,-0.014920478699162246,0.053736398856852906,-0.03633766524788064,0.009923003146781035,0.047448953939968105,0.022302945706390298,-0.03603363624906918,-0.004571239265608709
2.802876191808225e-17,-4.578225825063406e-17,4.820838242345052e-17,-4.625276226404906e-17,-8.034680631753789e-17,1.4803574117543555e-16,5.551115123125783e-17,0.12227307864362347,-0.04620822419695073,0.08220693529451858,-0.05175965985885678,0.06857053268180094,0.049094596645893177,-0.10623596398784056,0.06102984525993874,-0.08557566210591717,-0.0034891125207122246,0.05530564902292094,-0.08732687328147694,0.037984724580319706,-0.02236018122371305,0.04006042376540339,0.06676842619190974,0.03407666315594877,-0.03463756611189855,-0.019571478268610176,0.021472556493284483,0.07563350645908078,-0.0268485020762354,0.006076679561773909
-1.445964506096004e-17,-2.589926844500872e-16,8.374151064580732e-17,-3.5165969678416203e-17,-7.175499768063823e-17,-2.6051070699943787e-17,-1.3877787807814457e-17,0.14741942683871065,-0.012703960215791133,0.1207706430929516,-0.10444466998088979,0.05530046757702639,0.058974533430432845,-0.12162175697687094,0.011336817060616643,-0.05330043146080597,0.0012291444770216556,0.0819376330206962,-0.09444695705196825,0.006475609653653065,-0.003541431438445307,0.03355968637295166,0.05111087874916375,-0.03550744399631575,0.02403125156672532,0.014870433475028302,0.08860092456294558,0.0835192226193713,0.028498785767401072,-0.0013028560501747377
4.856784852384303e-18,-8.65322107520056e-17,2.209864590936537e-16,1.91351621906591e-17,-1.27651637015949e-16,2.7414762084515883e-17,2.229119666630197e-16,0.11818608662699874,0.015348932095679153,0.04396399615781734,-0.0808478938123209,0.0934948816793577,0.07842198379489397,-0.1389098750515483,0.022172489960396773,-0.06259361123439412,0.018214914524165602,0.057791898958764694,-0.0919454927490441,0.004316178226957758,0.04757408368477827,0.04957941917913621,0.02615160376189376,0.02054923971847086,0.010294592599566894,0.021495438817439063,0.05391509214176656,0.06116243903760481,-0.006388054926235269,-0.03708031393915351
-9.547086256653545e-19,-3.3533334704791003e-16,3.297869476313486e-16,1.584786429885923e-16,-1.4217947022024252e-16,4.227757786329203e-17,1.5265566588595902e-16,0.03396407298978458,-0.06801639960080097,-0.012823238350746924,0.03385111239835607,-0.003529629132009675,0.003694113914447726,-0.022543335385215083,0.05239942035880898,-0.014579251577103818,-0.006741214444044267,-0.03526268577283699,-0.036429926614635066,-0.03423801692937843,0.02163842251116305,0.014118087712000514,-0.0359614135873433,-0.038153871090193074,-0.007766887702791709,-0.023733188101758725,0.006500626137211427,0.006052707725352849,-0.0364368761153875,-0.04673635272519709
-3.0502698513123797e-17,-6.587482654254357e-18,1.1088667930291204e-16,1.0613412845872742e-16,2.1826258431662535e-17,-1.3414974574816295e-16,-1.5265566588595902e-16,0.006479485820606635,-0.021363162022793623,0.03299605586979859,0.046081139868402926,-0.0399794573453735,0.036502589978246874,-0.012593605210618109,0.02038233907211162,-0.007505817363036525,-0.030066515777109216,0.011854782574296294,-0.016327603271578388,-0.05715772071057413,0.020221179204075845,0.004946402212241354,-0.0007063048968760228,-0.03694483360609905,0.01411328206688275,0.04279654077345811,-0.013776121377138559,0.01692629593860335,-0.019577761599262097,-0.04343445916855312
-6.110234754973039e-17,-7.260242370720057e-16,3.0538167355908184e-16,1.9318643301787603e-16,5.270872895877241e-17,-1.3227418629840501e-17,-6.938893903907228e-17,0.009179869888903147,0.025822224302877176,0.01956872392532258,0.007686045643993621,-0.001639629452426488,-0.014797150221374898,-0.00867687422002523,-0.0032674245081168772,0.011372624899292413,-0.013013813156711187,-0.002649387515113018,-0.0002834576847753835,0.015362246566523666,0.010094071113267978,0.0036255724922020253,-0.0023469677525720326,0.0037719397090485015,-0.0022318822879822367,-0.000753523599738783,-0.0039074070959764775,0.006048297273720963,-0.003456807675794844,0.011030220924462767
-6.110234754973039e-17,-7.260242370720057e-16,3.0538167355908184e-16,1.9318643301787603e-16,5.270872895877241e-17,-1.3227418629840501e-17,-6.938893903907228e-17,0.009179869888903147,0.025822224302877176,0.01956872392532258,0.007686045643993621,-0.001639629452426488,-0.014797150221374898,-0.00867687422002523,-0.0032674245081168772,0.011372624899292413,-0.013013813156711187,-0.002649387515113018,-0.0002834576847753835,0.015362246566523666,0.010094071113267978,0.0036255724922020253,-0.0023469677525720326,0.0037719397090485015,-0.0022318822879822367,-0.000753523599738783,-0.0039074070959764775,0.006048297273720963,-0.003456807675794844,0.011030220924462767
-6.110234754973039e-17,-7.260242370720057e-16,3.0538167355908184e-16,1.9318643301787603e-16,5.270872895877241e-17,-1.3227418629840501e-17,-6.938893903907228e-17,0.009179869888903147,0.025822224302877176,0.01956872392532258,0.007686045643993621,-0.001639629452426488,-0.014797150221374898,-0.00867687422002523,-0.0032674245081168772,0.011372624899292413,-0.013013813156711187,-0.002649387515113018,-0.0002834576847753835,0.015362246566523666,0.010094071113267978,0.0036255724922020253,-0.0023469677525720326,0.0037719397090485015,-0.0022318822879822367,-0.000753523599738783,-0.0039074070959764775,0.006048297273720963,-0.003456807675794844,0.011030220924462767
4.0549708161741466e-17,2.4256249582778166e-16,4.772050192559269e-16,-4.831004927620457e-16,4.68861991079533e-16,4.3101183873036085e-16,4.440892098500626e-16,-0.06510449908663792,-0.23458112125220185,-0.03653646473585749,0.08765535695208117,0.17738573722179699,-0.15601721767118515,0.07008362283266718,-0.003835447773918476,-0.1095522737322357,-0.04108486226538025,0.06399377616748936,-0.07243203532354696,0.04358501567431801,-0.02033783706420012,-0.01622156876437482,0.019345625274115624,-0.025077475931168915,0.020517099557478664,-0.048749951793477735,0.025099907423877722,-0.01702193324809232,-0.03986150334789603,-0.042697591619986965
-1.0234338479351235e-17,7.280469527172028e-17,8.380992870022707e-17,5.5046638692866863e-17,7.933146693666301e-17,-2.9809159414112876e-16,-5.828670879282072e-16,-0.09745941301484068,0.00624666118114044,0.04552621211289588,-0.09164112080816034,-0.048692722719382395,-4.4173269825185346e-05,0.019192496649126225,0.03258207653707327,-0.03133971728024023,0.036532537139094615,-0.05339827493161272,0.03159582253089358,0.009278804510818583,0.028365429735725745,-0.0071268414880107465,-0.004951472290847248,-0.02796871623159833,-0.03398847864444115,-0.011426384691938228,-0.02583368908451656,-0.00328326785080652,0.008352387601241528,0.05534050144097852
-3.972647924707638e-18,-1.1826226676072187e-17,1.4483330184828478e-17,1.3507165139851874e-18,3.3319633539536914e-19,-3.668774194539623e-18,-6.505213034913027e-19,0.0005532195022575126,-0.0015301588637429203,0.0003688871708791992,-0.0011823600306934323,-0.0009097368580101941,-0.0003760913894542475,-0.0006193055619432713,-0.00010373843332041345,-0.00031916120963823363,-8.176365560240798e-05,3.173008218755316e-06,0.0005239728392163709,1.8059385744994873e-05,-0.0006386024351315781,-0.00014880904408062196,-0.00027374023805138385,-0.00042431138414537797,-0.00014203022876002047,-0.0001525481170882606,2.7115374237723968e-06,-0.00015774141500103213,3.704690871491544e-05,0.00019533357319717357
-7.989931419544642e-18,-1.08217378980108e-17,-3.346530185767338e-16,-2.1536432425347176e-16,-4.1097005583633824e-16,-4.3959243196402824e-16,4.163336342344337e-16,0.24671477415563836,-0.06957765646450177,-0.09836236574746725,-0.12178313340687633,-0.08121501407608779,-0.013077776505456079,0.08958193355045357,0.002044483362226774,0.02348883972774508,0.03670752957254659,0.007514085454950517,-0.12785712652964998,-0.00250013080725403,0.13157961873151372,-0.04997571104365176,-0.07064769138857628,0.04455085959437693,0.06446226331729553,-0.08594599789052136,-0.005713444164891962,-0.05860805532933471,0.11923672198343636,-0.07062416965787219
-3.972647924707638e-18,-1.1826226676072187e-17,1.4483330184828478e-17,1.3507165139851874e-18,3.3319633539536914e-19,-3.668774194539623e-18,-6.505213034913027e-19,0.0005532195022575126,-0.0015301588637429203,0.0003688871708791992,-0.0011823600306934323,-0.0009097368580101941,-0.0003760913894542475,-0.0006193055619432713,-0.00010373843332041345,-0.00031916120963823363,-8.176365560240798e-05,3.173008218755316e-06,0.0005239728392163709,1.8059385744994873e-05,-0.0006386024351315781,-0.00014880904408062196,-0.00027374023805138385,-0.00042431138414537797,-0.00014203022876002047,-0.0001525481170882606,2.7115374237723968e-06,-0.00015774141500103213,3.704690871491544e-05,0.00019533357319717357
4.829500710263886e-18,-2.2662429497264046e-18,9.774181304518764e-17,4.045244800089364e-18,7.391946274601851e-17,-4.3934053369064335e-17,-3.469446951953614e-16,-0.06029361791628875,-0.010897983017726598,0.04588557947690432,-0.04190447654283934,-0.001082668985199492,0.015295744260485166,-0.02333132788496882,-0.005702067637391594,0.005478851427752132,0.04625981443935005,-0.08242651027185025,0.019878559353232687,0.017420488966892564,-0.015521123764686175,-0.004234758450570634,-0.01564377488441304,0.01569817129949597,-0.05332037270525077,-0.036732154225476606,-0.009407293532036601,-0.0006776727431349046,0.0447799620390094,0.05192604041714463
1.9376028303282947e-17,1.6942088634047946e-17,-8.239989357318004e-17,-2.1004685401224947e-16,1.0176524435434515e-16,4.228624841337247e-17,-9.159339953157541e-16,-0.15159509871497584,-0.048700480552527105,0.10428387396676925,0.0363185476288889,-0.06093780728533242,0.014305172082512268,0.010236961862713919,0.07499520655186769,0.0215998040064141,-0.03033748625825948,-0.03502348019974338,-0.016341682548794936,0.00928683274748771,-0.056454328562815424,0.08727825929565144,0.010473398702883163,0.027060860413042516,-0.049885788418966036,-0.02345396811976479,-0.0016940248525681733,0.05174107010784929,0.04529644378198577,0.020360349506082256
-3.972647924707638e-18,-1.1826226676072187e-17,1.4483330184828478e-17,1.3507165139851874e-18,3.3319633539536914e-19,-3.668774194539623e-18,-6.505213034913027e-19,0.0005532195022575126,-0.0015301588637429203,0.0003688871708791992,-0.0011823600306934323,-0.0009097368580101941,-0.0003760913894542475,-0.0006193055619432713,-0.00010373843332041345,-0.00031916120963823363,-8.176365560240798e-05,3.173008218755316e-06,0.0005239728392163709,1.8059385744994873e-05,-0.0006386024351315781,-0.00014880904408062196,-0.00027374023805138385,-0.00042431138414537797,-0.00014203022876002047,-0.0001525481170882606,2.7115374237723968e-06,-0.00015774141500103213,3.704690871491544e-05,0.00019533357319717357
-3.972647924707638e-18,-1.1826226676072187e-17,1.4483330184828478e-17,1.3507165139851874e-18,3.3319633539536914e-19,-3.668774194539623e-18,-6.505213034913027e-19,0.0005532195022575126,-0.0015301588637429203,0.0003688871708791992,-0.0011823600306934323,-0.0009097368580101941,-0.0003760913894542475,-0.0006193055619432713,-0.00010373843332041345,-0.00031916120963823363,-8.176365560240798e-05,3.173008218755316e-06,0.0005239728392163709,1.8059385744994873e-05,-0.0006386024351315781,-0.00014880904408062196,-0.00027374023805138385,-0.00042431138414537797,-0.00014203022876002047,-0.0001525481170882606,2.7115374237723968e-06,-0.00015774141500103213,3.704690871491544e-05,0.00019533357319717357
-4.9699436509838785e-17,3.0438407277940993e-16,-8.369101918972872e-16,-1.9155406145386708e-16,4.000202982632434e-16,-7.0206619608018e-16,6.245004513516506e-17,0.18145050779505842,-0.06728711119293665,-0.02740044015359667,0.0696054768527328,-0.2761480202400627,-0.08417859543361196,0.1359154139565442,-0.05670017202842126,-0.12555270590644224,0.027800123219892177,0.009161046400301638,0.24547608520766626,0.08536851934083439,0.02058658979211415,0.15465609695513952,-0.05557246900721605,0.022120271495463535,0.14542814941014112,0.23844448725308376,0.07549312380430077,0.0994594940357965,-0.12273599239344751,0.18721776872977205
-4.9699436509838785e-17,3.0438407277940993e-16,-8.369101918972872e-16,-1.9155406145386708e-16,4.000202982632434e-16,-7.0206619608018e-16,6.245004513516506e-17,0.18145050779505842,-0.06728711119293665,-0.02740044015359667,0.0696054768527328,-0.2761480202400627,-0.08417859543361196,0.1359154139565442,-0.05670017202842126,-0.12555270590644224,0.027800123219892177,0.009161046400301638,0.24547608520766626,0.08536851934083439,0.02058658979211415,0.15465609695513952,-0.05557246900721605,0.022120271495463535,0.14542814941014112,0.23844448725308376,0.07549312380430077,0.0994594940357965,-0.12273599239344751,0.18721776872977205
3.0047291958827136e-17,1.0541344875158104e-16,-8.24204939817226e-17,1.9945165926242404e-17,1.8489299365294687e-16,7.005645045978609e-16,1.1102230246251565e-16,0.08287869700130343,0.019676418213674447,0.11884423213631963,0.10970136777249144,0.08721545879721576,-0.06755139445606223,-0.015341220457945701,-0.04592797466812841,-0.0628712391755187,0.12177605152255602,-0.09078079478523736,0.06014517630675595,0.18169095555186618,0.07386973906476602,0.003659077373519339,-0.06827414317655459,-0.049110109742539654,0.06761737959851188,-0.004228867142251456,-0.05566228987564899,0.03864196465549292,0.09575386877575144,-0.047963712625775895
-3.7521304387338786e-17,2.532013825294568e-16,-2.615481129967943e-16,-1.972937046943496e-16,6.604501706775975e-17,-7.964839228086846e-16,9.575673587391975e-16,0.31831839577127646,0.19139434948399653,-0.14641553946060154,0.1852240566269044,-0.11292018689088132,0.12763619014804772,-0.10344347264651074,-0.04538235823436299,-0.03556172278325464,0.007912729042189544,-0.07306833783330886,-0.05304963808934334,-0.09365787057704167,-0.06001869790201696,-0.005603316470531232,0.111964902538082,-0.043225738927088045,-0.07251651055690653,-0.044504620600061044,-0.005761482804863561,-0.010231799080191046,-0.004197618216729535,0.11880088868399495
-2.6552408577992185e-17,1.6083507195307489e-16,-8.99176396599345e-16,-2.4182987741633667e-16,1.9021875850728282e-16,-3.081467016312839e-16,-2.0816681711721685e-16,0.1765046591002222,-0.033924785942438335,0.1114899209279576,-0.03962946683197318,-0.1543864303104437,-0.06884566424880162,0.09401331683664439,-0.07304846150266758,-0.07129335043798218,-0.02233691676731522,0.029678529038918943,0.15356582071084082,0.0767557609529955,0.05524370557022266,0.017371478279592473,-0.021765694165027917,-0.017860541958336636,0.06645057775870136,0.10590081496063788,0.09025018210259513,0.03461743251118707,-0.047188306382569635,0.06269857940072665
8.406110402666167e-18,1.5517710813433412e-16,1.3899499120058033e-16,-8.2771264885762e-17,-7.826998114950677e-17,7.057291531251462e-17,2.0816681711721685e-16,0.024923869078199417,-0.03349501288921276,0.04826965276294681,0.03835295213886614,0.038074615693353166,0.1588513124585241,-0.01880996053104391,-0.022630240695349545,0.11546994646285005,-0.0355798000861512,0.06349054782487548,-0.0397683449676135,0.06584911499282825,0.06535158314133357,0.02158885758991373,-0.03692990007346907,0.01603019722635386,0.029541002929615763,0.028021014705061714,-0.00010803435707302199,-0.0654234913144486,-0.06629630359773456,0.056078542892800266
-3.5416403755348716e-17,-1.0218633063668411e-16,-7.096456154832123e-16,-5.665600782909185e-16,-2.3840725868972302e-17,1.552031255994523e-16,-8.049116928532385e-16,-0.008757833858261418,0.014860553876363359,0.2089991001450491,0.04095549274163072,-0.1310950885561146,-0.048202703013839214,0.029131272490890227,0.001797316455759218,-0.09119771344055791,-0.04955926639891516,0.04734192213078744,-0.12850608614046202,0.100211235370855,0.006422586543750291,0.10164525196083228,0.016733363160160702,0.11776014700798353,-0.11429865035956041,-0.039336207597800106,-0.030891923286858688,-0.03857060900665977,0.059354637278346174,0.037275082719209554
-3.972647924707638e-18,-1.1826226676072187e-17,1.4483330184828478e-17,1.3507165139851874e-18,3.3319633539536914e-19,-3.668774194539623e-18,-6.505213034913027e-19,0.0005532195022575126,-0.0015301588637429203,0.0003688871708791992,-0.0011823600306934323,-0.0009097368580101941,-0.0003760913894542475,-0.0006193055619432713,-0.00010373843332041345,-0.00031916120963823363,-8.176365560240798e-05,3.173008218755316e-06,0.0005239728392163709,1.8059385744994873e-05,-0.0006386024351315781,-0.00014880904408062196,-0.00027374023805138385,-0.00042431138414537797,-0.00014203022876002047,-0.0001525481170882606,2.7115374237723968e-06,-0.00015774141500103213,3.704690871491544e-05,0.00019533357319717357
-3.972647924707638e-18,-1.1826226676072187e-17,1.4483330184828478e-17,1.3507165139851874e-18,3.3319633539536914e-19,-3.668774194539623e-18,-6.505213034913027e-19,0.0005532195022575126,-0.0015301588637429203,0.0003688871708791992,-0.0011823600306934323,-0.0009097368580101941,-0.0003760913894542475,-0.0006193055619432713,-0.00010373843332041345,-0.00031916120963823363,-8.176365560240798e-05,3.173008218755316e-06,0.0005239728392163709,1.8059385744994873e-05,-0.0006386024351315781,-0.00014880904408062196,-0.00027374023805138385,-0.00042431138414537797,-0.00014203022876002047,-0.0001525481170882606,2.7115374237723968e-06,-0.00015774141500103213,3.704690871491544e-05,0.00019533357319717357
-2.0650258997840245e-17,2.766163368643961e-16,-4.0991254896880716e-16,-3.028770615327782e-16,1.764904677440565e-16,-7.023255806466866e-16,-5.551115123125783e-16,-0.004859126391783171,-0.04234116364369085,0.05302029641651614,-0.027687924605010992,-0.21356148552510557,-0.07020364763327784,0.04549012212690641,0.0007844422858364599,-0.04924761973485909,0.012291535530560792,0.005247188645282955,0.10075163999293753,0.05276342637914957,0.07350826862531863,0.04637048035438457,-0.031070099263424255,-0.04542688393701212,0.04750448795321824,0.09764261656149699,0.05415700779497891,0.05528012024588728,-0.05381139653013771,0.21307284647867186
-3.972647924707638e-18,-1.1826226676072187e-17,1.4483330184828478e-17,1.3507165139851874e-18,3.3319633539536914e-19,-3.668774194539623e-18,-6.505213034913027e-19,0.0005532195022575126,-0.0015301588637429203,0.0003688871708791992,-0.0011823600306934323,-0.0009097368580101941,-0.0003760913894542475,-0.0006193055619432713,-0.00010373843332041345,-0.00031916120963823363,-8.176365560240798e-05,3.173008218755316e-06,0.0005239728392163709,1.8059385744994873e-05,-0.0006386024351315781,-0.00014880904408062196,-0.00027374023805138385,-0.00042431138414537797,-0.00014203022876002047,-0.0001525481170882606,2.7115374237723968e-06,-0.00015774141500103213,3.704690871491544e-05,0.00019533357319717357
-3.972647924707638e-18,-1.1826226676072187e-17,1.4483330184828478e-17,1.3507165139851874e-18,3.3319633539536914e-19,-3.668774194539623e-18,-6.505213034913027e-19,0.0005532195022575126,-0.0015301588637429203,0.0003688871708791992,-0.0011823600306934323,-0.0009097368580101941,-0.0003760913894542475,-0.0006193055619432713,-0.00010373843332041345,-0.00031916120963823363,-8.176365560240798e-05,3.173008218755316e-06,0.0005239728392163709,1.8059385744994873e-05,-0.0006386024351315781,-0.00014880904408062196,-0.00027374023805138385,-0.00042431138414537797,-0.00014203022876002047,-0.0001525481170882606,2.7115374237723968e-06,-0.00015774141500103213,3.704690871491544e-05,0.00019533357319717357
-2.061959304318908e-17,-1.9654460944110013e-16,-6.427328928611368e-16,-3.092891412147142e-16,6.600230880525453e-17,4.497173618565202e-16,-5.793976409762536e-16,-0.04901769609997001,0.06155801000620848,0.14752250775199227,0.1209574786196822,-0.06155895684231115,-0.09913075049984592,0.08736514941373412,-0.011025872292560102,-0.005271174024908795,-0.0620893534516514,0.040191308327352786,-0.07410181769526585,0.045136672116190345,-0.008495142755961546,0.06638505365926158,0.05995910952962747,-0.06636321476086872,-0.05604417757033268,0.0005179870718939083,0.0005169407797836048,-0.020444750058690092,-0.003472955600866674,-0.021822336424709703
2.8361339706544796e-17,-7.922947260321728e-17,-4.293102215850834e-16,-4.1075896451922713e-16,-1.645126411649709e-16,9.807303371789056e-16,-6.938893903907228e-17,0.02857565380277811,0.1048116916989397,0.09175822738370107,0.009394235286182693,0.2104039559093571,-0.00251990299130805,0.06502752369464947,0.06894055354560491,-0.06653462365177444,0.05405574760744241,-0.047792836848485204,-0.1280529232308343,0.0010206329256049966,0.04526513810437395,0.026031062605470612,0.0220244142631036,0.0002829631303736865,-0.0507944683827794,0.09362455983546844,-0.11512414187396217,-0.004943375750077829,-0.06946047435791014,-0.03886156065838059
1.9420609527982105e-17,1.4665781627257833e-16,1.9741375118931135e-16,1.7083127446436727e-16,9.826507913737451e-18,9.656793010956317e-17,2.0122792321330962e-16,0.03853372231485941,-0.05287089140924733,-0.0321249855659455,-0.0618041469877118,0.06030144167266172,0.0011919147546730928,0.08092925944099708,-0.0843188572453092,-0.09282160461249805,-0.006372603852657984,0.08211647521974454,-0.018025825362226747,-0.039596090401716806,-0.0082393042453525,0.02680255605739278,-0.017710223427417265,-0.020651760599731377,-0.04027966648624619,-0.06688947652056211,0.01043110141440568,-0.051753828973939736,0.11212759200914921,0.0206849334997999
-2.607797693309522e-19,8.122147851141592e-17,-1.6494323682089122e-16,-1.289354988263996e-16,-2.2168243386660357e-16,3.1334730034431037e-16,6.245004513516506e-17,0.06481792738352415,0.0907030152359516,0.021804944252997335,-0.07607950168130237,0.13039395002920096,-0.02774426558667783,-0.024548081570891188,0.08210841810256381,-0.038306851938167234,0.030025671431744273,0.024964156921830963,-0.01950887444336648,-0.018194538004594772,0.001423140265695608,-0.0048730366955274515,-0.0037789808231358125,0.04139040877737147,0.04487100518139687,0.022405267313047733,0.0108432181239636,0.016094901413756604,0.02158960588794903,0.007063813099343761
-3.5357040442791176e-17,1.559531761096972e-16,7.238223970253488e-18,-4.5440353308425373e-17,6.145589091272331e-17,-3.174719968428516e-16,-2.5673907444456745e-16,-0.016430990082670086,0.001124994337002769,0.011230233266160343,-0.04949777253329382,-0.0830371929876728,0.013418428675809294,-0.02765129887672401,-0.005815567069990073,-0.004620663698997587,-0.042200598390784855,-0.02274984099608442,0.04775341380983278,0.01734485879640735,0.011778876832783183,0.05698357668373714,0.038401237315812436,0.046993133752079704,-0.025963420958480848,-0.04880232285044224,0.06367372495380379,0.07927779041672427,-0.055999058086594125,-0.03140045100838458
-2.0315214541975562e-18,-1.793668215138e-16,-1.0240140837515431e-15,-7.791857885735008e-16,-2.1537815482436712e-16,9.095219906892768e-16,-5.551115123125783e-16,-0.0843565636529641,0.1479532343836419,0.1907932228077586,0.13721765840703598,0.13538392279680933,-0.09423938858160263,-0.05795198849434619,0.01748749033459105,0.011439392215254767,0.08270577594056458,0.006840151609651501,-0.13658371838752645,-0.07775204151947118,0.11135716655036348,-0.01012885057062551,0.02084826906244989,-0.013528794755769357,-0.04920981806038577,0.19987797987210082,-0.1401580979433106,-0.07509795673980897,-0.1114094447412195,-0.006827063654463157
9.342314930933604e-18,8.644854488666993e-17,-1.018824402707693e-18,8.257945064008692e-17,3.0913876847021397e-16,8.925275353046025e-17,-1.7694179454963432e-16,-0.04387956883481281,0.0536774031256454,0.008324591835177118,0.07080213511316209,-0.0239463409691565,-0.028177868915437564,0.001863693612622585,-0.007071498869752873,0.00937590875849236,-0.007522533661208415,-0.05177057203985067,0.06744543738880379,-0.009044067352860353,-0.015478688192693974,0.040115960350838344,0.029940171703009756,-0.02426478482812507,-0.06293944228150657,-0.006409934990972387,0.0508566153135393,0.04402950073640531,0.0030679413410699165,-0.04164308513093106
-1.5828537385339722e-17,-2.7308131033312436e-17,9.709158085436745e-17,3.5824868723136574e-16,1.3074257467429726e-16,4.3551558871045995e-16,3.400058012914542e-16,0.025244107476731406,-0.08123032625074846,-0.02847201626952069,0.03840353514282251,0.0875700371048284,-0.07100119710777779,0.02297082982141938,-0.07030711855223355,-0.13104515133063555,0.055621893587717824,0.059123490891875234,0.08652295669653597,-0.02057411743130754,-0.014454327579975928,-0.0030818253828026206,0.0247683178943733,0.08584224811555856,-0.023065830776796723,-0.016580966831854903,0.04904081079370236,-0.13222853547760077,0.018918023721669286,0.01920515677930155
-3.972647924707638e-18,-1.1826226676072187e-17,1.4483330184828478e-17,1.3507165139851874e-18,3.3319633539536914e-19,-3.668774194539623e-18,-6.505213034913027e-19,0.0005532195022575126,-0.0015301588637429203,0.0003688871708791992,-0.0011823600306934323,-0.0009097368580101941,-0.0003760913894542475,-0.0006193055619432713,-0.00010373843332041345,-0.00031916120963823363,-8.176365560240798e-05,3.173008218755316e-06,0.0005239728392163709,1.8059385744994873e-05,-0.0006386024351315781,-0.00014880904408062196,-0.00027374023805138385,-0.00042431138414537797,-0.00014203022876002047,-0.0001525481170882606,2.7115374237723968e-06,-0.00015774141500103213,3.704690871491544e-05,0.00019533357319717357
-3.972647924707638e-18,-1.1826226676072187e-17,1.4483330184828478e-17,1.3507165139851874e-18,3.3319633539536914e-19,-3.668774194539623e-18,-6.505213034913027e-19,0.0005532195022575126,-0.0015301588637429203,0.0003688871708791992,-0.0011823600306934323,-0.0009097368580101941,-0.0003760913894542475,-0.0006193055619432713,-0.00010373843332041345,-0.00031916120963823363,-8.176365560240798e-05,3.173008218755316e-06,0.0005239728392163709,1.8059385744994873e-05,-0.0006386024351315781,-0.00014880904408062196,-0.00027374023805138385,-0.00042431138414537797,-0.00014203022876002047,-0.0001525481170882606,2.7115374237723968e-06,-0.00015774141500103213,3.704690871491544e-05,0.00019533357319717357
-3.972647924707638e-18,-1.1826226676072187e-17,1.4483330184828478e-17,1.3507165139851874e-18,3.3319633539536914e-19,-3.668774194539623e-18,-6.505213034913027e-19,0.0005532195022575126,-0.0015301588637429203,0.0003688871708791992,-0.0011823600306934323,-0.0009097368580101941,-0.0003760913894542475,-0.0006193055619432713,-0.00010373843332041345,-0.00031916120963823363,-8.176365560240798e-05,3.173008218755316e-06,0.0005239728392163709,1.8059385744994873e-05,-0.0006386024351315781,-0.00014880904408062196,-0.00027374023805138385,-0.00042431138414537797,-0.00014203022876002047,-0.0001525481170882606,2.7115374237723968e-06,-0.00015774141500103213,3.704690871491544e-05,0.00019533357319717357
-3.972647924707638e-18,-1.1826226676072187e-17,1.4483330184828478e-17,1.3507165139851874e-18,3.3319633539536914e-19,-3.668774194539623e-18,-6.505213034913027e-19,0.0005532195022575126,-0.0015301588637429203,0.0003688871708791992,-0.0011823600306934323,-0.0009097368580101941,-0.0003760913894542475,-0.0006193055619432713,-0.00010373843332041345,-0.00031916120963823363,-8.176365560240798e-05,3.173008218755316e-06,0.0005239728392163709,1.8059385744994873e-05,-0.0006386024351315781,-0.00014880904408062196,-0.00027374023805138385,-0.00042431138414537797,-0.00014203022876002047,-0.0001525481170882606,2.7115374237723968e-06,-0.00015774141500103213,3.704690871491544e-05,0.00019533357319717357
-1.2863178275907437e-17,1.710084294243461e-16,-8.714356399587386e-17,2.1271449479842384e-17,1.9224421272762037e-16,2.4908464566704165e-16,2.498001805406602e-16,0.1272039259886245,0.11456625764401629,0.046269489896262055,0.08065639407853496,0.03373516342700326,-0.07161927911266151,-0.011286100767573781,-0.03271271689157527,-0.0894903624450835,0.06768647289035255,-0.08824316768067154,0.03203925924392761,0.09641658893683595,0.02264723548298407,0.02600639909012328,-0.022614992094781967,-0.05695685431898991,0.028326024494614115,-0.016891745898448843,-0.019184138013131777,0.07209122804383875,0.02854650257532831,-0.03879366942701664
-3.7521304387338786e-17,2.532013825294568e-16,-2.615481129967943e-16,-1.972937046943496e-16,6.604501706775975e-17,-7.964839228086846e-16,9.575673587391975e-16,0.31831839577127646,0.19139434948399653,-0.14641553946060154,0.1852240566269044,-0.11292018689088132,0.12763619014804772,-0.10344347264651074,-0.04538235823436299,-0.03556172278325464,0.007912729042189544,-0.07306833783330886,-0.05304963808934334,-0.09365787057704167,-0.06001869790201696,-0.005603316470531232,0.111964902538082,-0.043225738927088045,-0.07251651055690653,-0.044504620600061044,-0.005761482804863561,-0.010231799080191046,-0.004197618216729535,0.11880088868399495
-3.972647924707638e-18,-1.1826226676072187e-17,1.4483330184828478e-17,1.3507165139851874e-18,3.3319633539536914e-19,-3.668774194539623e-18,-6.505213034913027e-19,0.0005532195022575126,-0.0015301588637429203,0.0003688871708791992,-0.0011823600306934323,-0.0009097368580101941,-0.0003760913894542475,-0.0006193055619432713,-0.00010373843332041345,-0.00031916120963823363,-8.176365560240798e-05,3.173008218755316e-06,0.0005239728392163709,1.8059385744994873e-05,-0.0006386024351315781,-0.00014880904408062196,-0.00027374023805138385,-0.00042431138414537797,-0.00014203022876002047,-0.0001525481170882606,2.7115374237723968e-06,-0.00015774141500103213,3.704690871491544e-05,0.00019533357319717357
-3.972647924707638e-18,-1.1826226676072187e-17,1.4483330184828478e-17,1.3507165139851874e-18,3.3319633539536914e-19,-3.668774194539623e-18,-6.505213034913027e-19,0.0005532195022575126,-0.0015301588637429203,0.0003688871708791992,-0.0011823600306934323,-0.0009097368580101941,-0.0003760913894542475,-0.0006193055619432713,-0.00010373843332041345,-0.00031916120963823363,-8.176365560240798e-05,3.173008218755316e-06,0.0005239728392163709,1.8059385744994873e-05,-0.0006386024351315781,-0.00014880904408062196,-0.00027374023805138385,-0.00042431138414537797,-0.00014203022876002047,-0.0001525481170882606,2.7115374237723968e-06,-0.00015774141500103213,3.704690871491544e-05,0.00019533357319717357
-2.2101447699233323e-17,7.691277847854077e-17,3.664117443537425e-17,6.590485934188556e-17,1.4538033570681884e-17,-1.5366899598726526e-16,-3.0531133177191805e-16,-0.05474083402374824,0.028380084325177003,0.02038467488652216,-0.05530849585848013,-0.03330056888381975,-0.007627821455899742,0.05931565050858641,-0.008417004243529131,-0.011020338226934453,0.020560887496605618,-0.053984668696964756,0.004891368198426594,-0.004724853168674571,-0.0063547755980179685,0.0054589315913343055,-0.04074061606544168,0.018448897811212436,0.015115810241664017,0.016304881016298622,-0.025063465279365725,0.005135937345215133,-0.011988957592299218,0.0412405774134568
1.4802148549837037e-17,-2.3165416811349653e-17,-2.5356596513932603e-16,-2.2952225427693016e-16,7.121693297466521e-17,-8.921601326172462e-17,-1.6046192152785466e-16,-0.03773628991937204,0.09518718772924058,0.03210457792368234,0.06239991836872366,-0.08723406377971664,-0.09852281629724507,0.003820787761424825,-0.0016722018767659063,-0.027605016193935742,-0.010149958972641078,0.06914557254691343,-0.03111242591051283,0.011765234821405658,-0.029962831236942437,-0.0656372487906488,-0.02778385434389684,0.006786640104820056,0.02313079190474655,-0.04206914553690447,0.04350448426405739,-0.055495379134965966,-0.020703943273586628,0.021341401438126333
-1.856034840086387e-17,1.7631403686401828e-16,-4.4896476538412643e-17,5.929439163503181e-17,1.0627338231302964e-16,1.0391955488826979e-18,-4.683753385137379e-16,-0.03649378568547182,0.01577656671260753,0.052784131056151894,0.019419270363920185,-0.10769032529785974,-0.03659135583345507,0.13885557058481418,-0.005565895795330452,0.02858228479859277,-0.0325599587829584,0.026813485440650025,-0.0912511949939407,-0.02570159025192086,-0.0244566660140109,-0.05064086194633286,0.04978147914872782,0.030162138176737133,0.0791418252934143,0.07349923129671161,0.00414623277850144,0.13138644445248038,-0.050482482042843044,-0.08129273496762665
2.055609262728016e-17,1.520656188803755e-17,-1.5717073415711365e-17,-4.836291024508835e-17,4.274686362357279e-17,2.1413160417954023e-16,1.8561541192951836e-16,-0.011690975671491093,0.07291158966709661,-0.04299373447510281,-0.003124228624188424,0.06811604100475563,0.003980332031052164,0.03727289783882101,-0.050052534071977815,0.0070476098798592625,0.04715356722985897,-0.015848446553451884,-0.03793634522727481,-0.012062926776706657,0.09161928190828195,-0.013595064501778956,-0.06619084463254625,-0.036914046782805285,-0.0544910063325065,-0.020114250511907638,-0.028554264845436526,0.07117043852450693,-0.011335426677015975,-0.030450811838662918
-1.002809215158904e-17,2.1445802262639864e-16,8.132246159792017e-17,-9.227784150188027e-17,2.0472872154867734e-16,-1.2934236784993504e-16,-1.196959198423997e-16,-0.00678840226319455,0.05030865949224408,0.01592831071503761,0.001751703041671681,-0.054469287606547706,0.024876142096974817,0.006440251363209577,0.015530432268521417,0.007001058816638507,0.015030140897155906,-0.0330139465990969,-0.08547373928838213,0.01589807761504082,0.0503972086135453,-0.03490130346180113,-0.035350678482782276,-0.006650704264587461,0.02037288184613587,-0.0023989958012303877,0.030039829126030367,0.1394024101213945,-0.06361057240251927,-0.060115513105525153
-1.3266655697166987e-17,3.2119151609763273e-17,1.2822174284785097e-16,8.935055778937958e-17,6.758974496142667e-16,1.8178943720849777e-17,-3.608224830031759e-16,-0.12166911307045697,-0.04051117767370049,0.04067983836685858,0.12581661869673175,-0.053381046109922635,0.034274723347702665,-0.04901751626077863,-0.009974985892109182,-0.0767985140875294,0.01788973731210212,-0.031086780281105713,0.002027603630407959,-0.05313605673950553,0.029140987929064048,0.02283384886767353,-0.02976258616396621,0.0235003355730469,0.03585002637246795,0.0018222587722603472,0.09436907585102845,0.007358018445664262,0.04700351416121723,0.008017301429879779
1.1996501359975833e-17,7.29229889685357e-17,-1.1703943735305797e-16,-9.120890817744382e-17,-1.78802614305045e-17,1.6692010318300128e-16,-5.204170427930421e-17,-0.01655673361347463,-0.004272558387502488,-0.0003388701568193034,0.017498614504515283,0.03311169028021781,0.025220027151744574,0.01573633483825377,-0.0017635391046958388,0.016570140188100116,-0.005652143824780521,-0.026903150468329716,0.05359140088846777,0.015904240958470137,0.061615622689669115,-0.0031108481427866907,-0.008368081766679877,0.03362550702185076,-0.03059961472990745,0.014530151268173322,-0.036106673064903214,0.043230986437403675,0.011142131638058736,0.01822611369545871
-4.8520226159793e-17,2.2750361187682334e-16,2.544835614983669e-16,-2.2250105781236966e-16,5.000720518406654e-16,-1.8298143238793452e-16,1.6479873021779667e-16,0.029057716315772582,0.05061808097015152,0.006984134477929039,0.04677026170917471,-0.09248908263616017,-0.056125454780556236,-0.10626794387734485,0.008430044122535,-0.06579728687321099,-0.035109286794826174,-0.1769097016552547,-0.09662408839497418,-0.039989090176863744,0.08366758798602815,-0.005462078811532723,-0.029243830932129004,-0.08325735062553612,0.009191444274919273,-0.0330421183040809,0.07245713113373892,-0.042949852006826654,-0.057489470004790155,-0.013029678015010454
-5.2656308521291493e-17,3.1101595186873044e-16,2.6781527780078652e-17,-5.186310974180119e-16,2.8741065946028553e-16,-4.747530572664327e-16,-8.326672684688674e-16,-0.10524677038070519,0.037192181775044485,0.1090671903787005,-0.13236484008502358,-0.12625710411305227,-0.0629827478007923,-0.08035282650235435,0.05397415805452451,-0.05419825869803754,0.020652002087273028,-0.19716322097625674,-0.017309412655939386,0.006299811356915984,0.09350676380943017,0.06861057936885338,0.030805529802685076,-0.04844834812309991,-0.015544908745826432,-0.03022153626163311,0.02129576015666876,0.0018124214693641635,-0.056751654965612575,-0.028981580593981385
-6.410679319371001e-17,3.746005909855687e-16,2.6578047918207235e-16,-2.037887432434619e-16,-1.9292883820982007e-16,6.035154888246586e-17,-1.3322676295501878e-15,-0.01326841514676775,0.005406490829475511,0.12190791057312395,-0.07715295787043264,0.002711002560538554,-0.22904931380468535,0.1251917179678511,0.15546773746558615,0.4082557966993512,0.4187916780365897,0.15177077313636786,-0.012935724019776555,-0.1878996190409493,-0.06486529575105628,0.024209210858428882,0.018009684580169088,0.022261125156112345,-0.09869804302097886,-0.08172004214355458,0.06599361322032374,0.03796623546309567,-0.02225598240828258,0.0674563489579415
3.0537238978886584e-17,5.891970244701625e-17,-1.6362285074573478e-17,-6.450151344440235e-17,-1.166255575380266e-16,2.680259542749918e-16,-1.8735013540549517e-16,-0.02227250983168102,0.06160869255249683,-0.014262791207728267,-0.03410503549967446,0.09191606431565102,-0.03925063173510016,0.09513781347997,-0.013293109147978904,0.12556088156320244,0.16062880535333768,0.06632167442049097,-0.017014254698885383,-0.049040557042317835,0.05448606463632867,-0.006177242730201904,-0.05437746582657131,-0.010534426868236843,-0.08146338065499169,-0.03228373294117598,-0.030170146112123156,0.09139945760797132,-0.0025270526343362707,-0.010329303672135802
1.1075459340725788e-17,1.645151222926152e-16,1.0722587471829976e-16,-1.1542104725465067e-17,8.452271096362692e-17,1.619184605163735e-16,-3.191891195797325e-16,0.030137541250806997,-0.004642647006212281,0.0355836064384212,0.02491198871877671,-0.018633922317157305,-0.030675802219741602,0.09973931831127938,0.04169440208306373,0.061727074715466165,0.0022358538251271193,0.03597912648739864,-0.027264258121649645,-0.05023434484285251,0.03820580956978722,-0.05816329409597133,0.07192239936423951,0.022308753395992854,0.004756974471789708,-0.023003872927337767,-0.008984843987613221,0.10367761461377109,-0.0709342250211013,-0.024277471786757165
-2.4219955990487852e-17,2.976967753590612e-16,6.544177465211146e-17,-3.607307666052575e-17,1.4219303298600754e-16,-4.615309317638063e-17,-7.945033519973776e-16,-0.017244943063235145,0.02614930728834202,0.09242782506193188,0.011891938206996012,-0.07806747713652856,-0.029356282907641362,0.11199737296414466,0.07858689627272611,0.1291592687448923,0.08880460130505428,0.10157317338541347,-0.07297909393576713,-0.028835980328616194,0.014395164679872991,-0.03927021997178129,0.006575385069367896,0.054170696282758155,0.02138125048948174,-0.016722159001147346,0.04193944264710836,0.20388512245305207,-0.06358102076736016,-0.04281241823072074
2.7924427030225156e-17,3.131730924623423e-17,-4.136926711049186e-17,1.12287597492601e-16,8.813987335871731e-16,-2.9051898083502546e-16,-9.43689570931383e-16,-0.18063312119922925,-0.02959744131053323,0.07156400282314057,0.1499776682039657,-0.07734508032122818,0.25137539989122304,0.027505413607074224,-0.028444480058852917,-0.07668186702283568,0.04105103845948973,0.028754532379499216,0.11505254889107815,-0.13691351171468286,-0.04086061320529358,-0.015120028448480444,-0.011074055134505765,0.03833493943897302,0.03280074296770899,-0.043237793044238436,0.018363154085230586,0.03742557938100878,0.13958697758315894,0.013449549925438732
-9.441994785108281e-18,2.1573482763461746e-16,6.441805312877878e-17,-1.1846186789715242e-17,1.2252386120344743e-16,-2.704760002147147e-17,-8.075137780672037e-16,-0.01727804903523648,0.02061294955820605,0.08000994615180491,0.0025614837960405033,-0.06250691355502327,-0.052274225979260396,0.128533327324233,0.07147348696885425,0.12686019002306764,0.0867429610375924,0.12352935948143479,-0.053424237590007646,-0.05222827287488666,0.02643484064178058,-0.020527729639930502,0.00501540804900057,0.050939609007543636,0.0053777830948674955,-0.023931624277660175,0.016850895642548002,0.19116290771160455,-0.04561007439929694,-0.0526565271196389
2.5114974098298567e-17,1.86998769029711e-16,2.378060442673199e-16,-5.847633197975418e-17,1.2726333615176814e-16,-1.7167958227777329e-16,-1.3183898417423734e-16,-0.04313882947736053,0.04774702308276468,-0.009382936858377565,-0.04282595272037821,-0.03389369598565338,0.05166819854073374,0.05161931003392253,-0.0035446699105771847,0.03888152406816886,0.06937066342082336,0.039914368788088586,-0.04921311759431479,0.028250074384870424,0.002379967530680087,-0.02778808157587594,0.007779597225192191,0.0003396701740077855,-0.03102595568837437,0.016742245586830837,0.02820027268086183,0.06414780470537405,-0.05139354361608171,-0.02431312667125323
-2.417193914904461e-17,2.724901359312909e-16,1.6796493497640946e-16,-3.188764839899867e-16,-6.005247919791496e-17,-2.920653865810376e-18,-1.2004286453759505e-15,-0.06510439291962569,0.015971890373066833,0.14932758107476565,-0.08262085697529385,0.001228262353989656,-0.10751813732758095,0.007488052318893301,0.13321796790306253,0.2755447026247399,0.272915816454318,0.04505578760068826,0.004087619691621498,-0.0983922010619482,0.04223436964680864,-0.0065704785651486885,-0.006309800840610348,0.001178599250339175,-0.05825966352162252,-0.04992583369771742,-0.0038790423679625993,0.020840302228798544,-0.015592450052856045,0.07441166624665128
2.0904381860323195e-17,2.0972472215983028e-16,1.5833721940470757e-16,9.123244749409649e-17,8.08838372615785e-17,1.2456026716509526e-16,-2.2898349882893854e-16,-0.029794193580336956,-0.01452165735043027,0.004724241661897049,-0.03124044088985508,0.015091319314718785,-0.002209825878296362,0.10931608631010076,0.016867918371862523,0.08885406060991591,0.048081106366163445,0.04792291149634995,-0.04796930244504504,-0.02434097594723281,-0.01948065232412882,-0.03210458234652777,0.028699039604059874,0.030899008404787324,0.0022374028459014846,0.01728589665215199,0.051540575054267235,0.08538505170305793,-0.023286375528363507,0.006561052651345763
4.744725595186777e-18,1.8482304608945537e-16,9.744268258404105e-17,-8.74851188392872e-17,9.695618733388005e-17,2.0930955809370305e-16,-2.42861286636753e-16,-0.003567360801209959,0.02136122783906677,0.03698531812336247,0.0005659615455861144,0.03293805505532207,0.0180236800346171,0.05775078740297887,0.0498360363539539,0.06929696741718637,0.029728569957661655,0.027618918684449427,-0.05879222095176477,-0.01042297047615582,0.029296291454119803,-0.011551102031787,-0.008515100515943369,0.053789224503319,-0.00294987470227685,-0.0035301477602853065,0.010231369549722782,0.08886086615599256,-0.02791746458998602,0.018452319900774998
-6.410679319371001e-17,3.746005909855687e-16,2.6578047918207235e-16,-2.037887432434619e-16,-1.9292883820982007e-16,6.035154888246586e-17,-1.3322676295501878e-15,-0.01326841514676775,0.005406490829475511,0.12190791057312395,-0.07715295787043264,0.002711002560538554,-0.22904931380468535,0.1251917179678511,0.15546773746558615,0.4082557966993512,0.4187916780365897,0.15177077313636786,-0.012935724019776555,-0.1878996190409493,-0.06486529575105628,0.024209210858428882,0.018009684580169088,0.022261125156112345,-0.09869804302097886,-0.08172004214355458,0.06599361322032374,0.03796623546309567,-0.02225598240828258,0.0674563489579415
8.55276465257974e-19,-1.2645262103292963e-17,1.9383077303074985e-16,3.7476945288250655e-16,1.0091997220582061e-15,9.319053746483129e-17,-3.0531133177191805e-16,-0.17465171621390468,-0.04138117560607349,0.021840697528915678,0.19182428387981024,0.027700014735374933,0.26555419795183577,-0.08766913997063845,0.009642933349467078,-0.1323511200073395,-0.012185000573208,0.05959304412867331,0.059834350753813104,-0.08376756023578882,0.07261587596820931,-0.04024932825712959,-0.0659743497806675,0.034764603340580146,0.0537440575753875,0.04291165746301821,0.04633912839457513,-0.0007122301508031096,0.07063647645946915,0.04348376425315843
2.100879928510608e-17,1.9645646779144396e-16,1.2321230310859925e-16,-6.918554353458262e-17,1.8552319355453674e-17,1.9999163293619516e-16,-3.677613769070831e-16,-0.03548528640286861,0.008844235542475574,0.024560419214114424,-0.022605364594843618,-0.0034486406931067554,-0.014316483780107919,0.1476731891433985,0.03393637858133184,0.11400665260729322,0.05569790391212732,0.061421579731242376,-0.08452123600079606,-0.008672466750027122,0.005361805869614089,-0.0632308834169144,0.06097600972642282,0.009925251254400592,0.0032749493119753194,-0.009958374474863137,-0.010599834367629382,0.08928131903316136,-0.015495846140990189,-0.012701919940132925
-2.4219955990487852e-17,2.976967753590612e-16,6.544177465211146e-17,-3.607307666052575e-17,1.4219303298600754e-16,-4.615309317638063e-17,-7.945033519973776e-16,-0.017244943063235145,0.02614930728834202,0.09242782506193188,0.011891938206996012,-0.07806747713652856,-0.029356282907641362,0.11199737296414466,0.07858689627272611,0.1291592687448923,0.08880460130505428,0.10157317338541347,-0.07297909393576713,-0.028835980328616194,0.014395164679872991,-0.03927021997178129,0.006575385069367896,0.054170696282758155,0.02138125048948174,-0.016722159001147346,0.04193944264710836,0.20388512245305207,-0.06358102076736016,-0.04281241823072074
-1.72451368870239e-17,2.1427976454879108e-16,1.9759121706661244e-16,2.0130253652723562e-17,-8.190852507082206e-18,2.7010816168617717e-16,3.191891195797325e-16,-0.04972356678583174,-0.02380170612297488,-0.057753369468350496,-0.040343011023250074,0.03884042877825986,0.04761498154260176,0.15660635322646266,-0.11737685810510388,0.04910629794008252,-0.017348581880652487,0.0051750800080167985,-0.06902744277472243,0.08110216272322485,0.008046927634186157,-0.08060689053037046,0.04531761949825166,-0.02335468856337872,0.017804867112346016,-0.010875712039173735,-0.029246703288751518,0.007184876095585417,0.06870081002705196,0.00896067951299509
-7.278909640181231e-18,1.2469407076002877e-16,-1.0293428583877628e-16,2.534607427000128e-18,-3.754095698683461e-17,6.770142043192431e-18,-3.2248238367865723e-16,-0.05276549211116062,0.03391016366461415,0.02876765473500285,0.05344598648924651,-0.04819386036859122,-0.04021259837111991,0.04586623536849401,0.02324315102434466,0.05791693937997946,-0.05866735629432914,0.0124417802650645,0.016154066148104277,-0.018413962419757304,0.02133647628398335,-0.012370290626781102,0.008908521290112574,-0.00860626084615094,-0.031428770718095585,0.008518741260450604,0.03252596900439565,0.05703744445947639,-0.031050048168871844,-0.030317194511393843
-5.01183365153489e-18,-3.168159498903815e-16,-8.428759937359172e-16,-5.331644588168484e-16,-2.7485451133100196e-16,2.3092440490768356e-16,9.71445146547012e-17,0.034592336731925175,0.08265340490492462,0.053220757790689216,-0.025912575817018633,0.07231018383783418,-0.004759258922424443,-0.02180520961154111,0.005966547384036045,0.02692676988771739,0.03424136334229974,-0.018459096573526318,-0.08579105915002785,0.023603760874827063,0.012261659927189493,0.01698243630669332,-0.040993765906516745,-0.18025668379475437,-0.02091925994152154,-0.028893865842701906,0.05492465999061471,-0.06386529193346646,0.006656163016459748,-0.017446229497195303
-1.6858679335658633e-17,8.379172613382712e-17,4.846355909691593e-17,2.4065940147411386e-16,-9.15066294831899e-17,4.4124499123894287e-16,2.671474153004283e-16,-0.06064411873391767,0.008474544278629178,-0.08836226975220493,0.23144009784560907,0.0571879222898961,-0.08978462825061154,0.04236030284150664,-0.035759088973213324,0.11521721331290846,-0.024553921611613457,-0.007486160648306216,0.0852571540428276,-0.06636353807169265,0.035978708126070534,0.041373782182914015,0.0007815200858092913,0.04123427527951018,-0.06544444972060323,-5.2809631021901245e-05,0.05875521544455994,0.004313914707104924,0.00880078654781894,-0.030195354195553744
3.516461756076907e-17,-4.184577604216747e-16,-7.575095043771145e-16,-2.895389182143657e-16,-2.8901243769370745e-16,7.889099993528603e-16,-1.0408340855860843e-16,-0.04160607193125025,0.15144476178333513,0.06369431128337501,0.06842269987758613,0.14501686691439114,-0.05749534709104265,0.037977618217025846,-0.02656087305030551,0.10207426333835869,-0.03724255658129733,-0.03893793106668684,0.03216648236645485,-0.005102885026068564,0.022997465974191906,-0.027902427950032133,0.009921497816342445,-0.07550669967080778,-0.03167126116609932,-0.03162853603384564,-0.04087757890246096,0.00568333270646718,-0.030076306383564864,0.09684999176459987
2.0449992117475603e-17,-4.530429843739553e-16,-1.1138307576868571e-15,-4.78155588914489e-17,-1.553265448704594e-16,5.453802051321095e-16,2.0816681711721685e-16,-0.05017866405493106,0.10740397992182943,0.06137484713029254,-0.03834502074383441,0.13351040254940488,-0.042335076759271714,-0.018720840732532395,-0.0812413259416194,0.04916142041342733,-0.004595683763239041,-0.036093446286952595,-0.0402107115988874,0.0670234814467605,-0.010864149077531813,-0.004789897432657872,-0.07102410894518889,-0.09674774253494253,-0.009518738225177245,0.10694603101533925,0.027632786042870883,-0.051177551589882506,0.015513791405472056,0.057991309521172436
-9.07003045662546e-17,8.271770970169602e-17,-1.7739911649925352e-16,7.287661330205439e-17,5.785441020919704e-16,-3.144696251637171e-16,-4.163336342344337e-16,0.010593670995126979,0.10017692933057727,-0.019516727230076636,0.333586091981608,-0.19399097657675968,-0.058831759865364146,0.16229450599023662,-0.004865968809987971,-0.13800607668109002,0.1976802487506837,0.14017431853577306,0.03220232638496978,0.07590342984949783,0.04418658872033635,0.24138587153052188,0.08032950306191293,0.13156417191902806,-0.08763991691664601,-0.20230156638196642,-0.1462719852322808,-0.01879298060650398,-0.047593090777845334,-0.08090926551408724
