-4.736848130398209e-18,1.4991622795017478e-16,-9.260562301420452e-17,3.146060589533271e-17,5.027616856055954e-17,6.891482596296472e-16,-1.1657341758564144e-15,0.1393633837960427,-0.015732917103699673,-0.1332075774159898,0.0657906607790313,0.03973832261473608,0.13517794812308592,0.06479789349999689,-0.021868093068401685,-0.022037189350795395,-0.04921453684825745,-0.06601638328641199,0.00035934471925078615,0.018926619675067185,-0.11907862880922901,0.013653504970589442,0.02006250081330741,-0.16551149373145713,0.09974292983673502,0.016248404439939867,-0.06076321731406027,-0.0296540608186267,-0.042413926797430404,0.08428572673388465
-6.124339079062895e-19,4.6838943091194777e-17,-2.0260261025689334e-16,-1.2379556249660706e-16,1.0331989439713517e-16,-2.4190861155037114e-16,-7.103692634125025e-16,0.0974986276159603,-0.1876649983017608,-0.1254762569761874,0.024711735618938836,0.07805841139527608,0.01410805561812797,-0.03913119677856946,-0.02189031734051301,-0.005360235471757191,0.0986947521407517,0.011628560686381366,-0.019659647278761804,-0.038142463657829945,0.04900059350164147,0.017660168497357135,0.15123646797834628,-0.007425417226875277,-0.0010205926731908042,0.054986831596425235,0.07423447461357319,-0.023788553481437897,0.030777466761070692,0.005400473987550796
2.0833145870421636e-17,5.209530152153775e-17,5.635959626466726e-16,-6.504018832221393e-17,1.3358961722262888e-16,6.734019383867659e-16,-5.93275428784068e-16,0.12688259940793212,-0.04311342446461017,-0.19109455129511632,-0.015995462078029453,0.011557955945234642,0.06236711069467523,0.07162177855912029,0.05208531854730507,0.08648053462873101,-0.1445254830895707,0.17282620497333412,0.08491922306586086,-0.07023931191355082,0.040722288295627344,-0.10401441496034787,0.030121880624795747,0.05798646832835288,-0.1351903863663874,-0.03735496550064767,0.10575997090092579,0.04376230084573838,0.09118997805261989,0.0785237517743091
-8.564579091344476e-18,2.218084110676669e-17,-2.5574878124829486e-16,-1.208404459770049e-16,3.5949835227445764e-16,-5.998212944141789e-16,3.7470027081099033e-16,-0.15354892306521112,0.0072329569657989465,-0.09562079282392821,0.19102344159173507,0.024883948851377773,-0.046150186241924594,-0.024058177692690304,0.13260110404876044,0.044516300515878425,0.00040356917164673307,0.015869650513454854,-0.02432209582390559,0.11374731628027356,-0.02834998008228051,0.11619416122861566,0.09339784612396718,0.04707898984164642,-0.007365571074814227,-0.04896031741045118,-0.12520639744836684,-0.017715364137852352,0.0172104993654373,-0.0519381378450278
-8.150009649713799e-18,-3.2705922114537626e-17,-1.083241729773947e-16,6.976532062560139e-17,5.408315711806617e-18,4.089961980464285e-16,-1.3877787807814457e-16,0.09152148665611745,0.0021509202972594963,0.13196322280176065,0.046752576130865385,-0.09187393966004395,0.20396105997788994,0.19942077286536025,-0.06612430447518881,0.07752486625814757,0.033978536956586855,0.02455738310445241,-0.155725411456439,0.050658274024193664,0.02902789350288666,0.013266176338197398,0.07260410457624547,0.09213154165718196,0.04071858950627509,-0.10437277038513317,0.00030302833340917483,-0.024800365809010384,-0.09408875990790254,-0.07247434724768621
3.481515030519227e-18,3.980319797268989e-17,1.0483469856467045e-16,-1.997474474743693e-16,-1.715489283182541e-17,-7.214537048924929e-16,4.5102810375396984e-17,-0.12222461525836976,-0.10774833066981483,-0.06461384471454663,-0.025887862457585016,-0.051170107422441734,-0.10555412804568613,-0.055525401263274016,0.03631357166523012,0.06492033015194744,-0.06301496662754202,0.04824260503477732,-0.08804438543162205,-0.0645991527467357,-0.035266075407607476,-0.1696428456998271,0.019496487187150822,-0.015161975796543636,-0.20474067579948274,-0.033643708451409404,0.042811208126043374,-0.10813376947968514,0.04927557869297623,0.03106836145556603
9.408009101849408e-18,-2.1447117228680637e-16,2.7288012318152384e-16,-1.8683050726441998e-16,2.6869735469851974e-16,2.1565253289859722e-16,2.3592239273284576e-16,-0.044567991577321275,0.04802849115252325,-0.109143877046383,-0.07838114806344829,-0.18420952304306887,0.0021034964751404915,-0.021644263898079386,0.04484223805726717,-0.17736460821018676,-0.10795660944423385,-0.029048695255802767,-0.04731474849015197,0.029296543088271464,-0.04068540398772376,-0.008755224515820769,-0.07176940083629994,-0.06590503217339627,-0.059655720794839266,-0.1131363148107418,-0.00015029248914497667,0.012659531751572315,0.024070094682130238,0.02766689197819031
-6.080383732974542e-18,-6.581412217974655e-17,1.761118406007471e-17,-1.4434636204635455e-18,-2.5867891295606436e-17,-1.5264086839412732e-17,-4.85722573273506e-17,-0.04258980652115151,0.04219179326800367,-0.13283568056401782,-0.022161302236716154,0.035936395967251906,0.05564687117016214,0.03191025022820998,0.0333990956324091,-0.02571069583825485,-0.01718824914617274,0.0436655906845016,0.06886531986335494,-0.09912301154032323,0.10255584837628907,0.07544720745927065,0.01956249760028118,0.022576469000801066,-0.07234303173142104,-0.00507423184790445,0.0691217384818642,-0.02646240354802788,0.07913147094913628,-0.031597618621753656
-1.628766932814708e-18,-1.5213886865963653e-16,-1.849345507596616e-16,2.2168784512584172e-17,1.9329276760748484e-16,-3.239998193498435e-17,6.106226635438361e-16,-0.15372698005774932,0.17920817211604942,-0.028481610675396084,-0.04785610867839582,-0.057736279151225034,-0.04472435052982532,0.08660403324449864,-0.023753156469587033,-0.137350064841472,-0.03575305025306773,-0.07472185337859454,0.047013978736197434,-0.09657719105481577,0.0017652019009510478,-0.04764758305897656,-0.01651513930691204,-0.025416874649735285,0.02907430923508345,-0.12107379881616914,-0.01669486278913708,0.07483777461373782,0.14340860797095115,-0.02299437555037634
-2.0534078139982536e-19,-9.121614767597311e-17,-6.360857692774963e-17,2.8106624746470245e-16,1.7041958618443796e-16,-2.813762688917594e-16,4.163336342344337e-16,-0.08716992470709148,0.08983476974221292,0.19151626112213718,-0.08472839346810175,0.043113969794976316,0.032297407626261654,0.10597122407119426,0.06810526953468499,-0.026468275446348263,-0.03274122079718918,-0.06632517835884742,-0.028167511456818152,0.021249908966798535,0.0073629494952520405,0.01168436321096319,0.05709310462537356,0.020834664078769403,-0.051923739450039724,0.01503234781743265,-0.07893270822574082,0.05869223661906992,-0.03428686398833454,-0.0038302134677565217
1.1530358537680964e-18,7.037005624400022e-17,-2.0623864816275269e-16,-1.9253815471693354e-16,5.191766975988654e-17,3.0306008665738495e-16,8.326672684688674e-17,-0.012634494432823353,0.06538405679873155,0.03418407744048233,-0.013644009294790675,-0.11607876772544888,0.08693158779745719,-0.0482230811350336,0.0805969125098078,0.0347659410753192,-0.09580493325503812,-0.006313610570786972,-0.021637126339351647,0.0733229432389067,0.11644025120296038,-0.0829374227896719,0.09985761293372272,-0.06265535484635494,-0.047065250962727075,-0.0768992023690306,0.06427370196429238,-0.04054053051017524,0.07940930479464066,0.0020964519181415242
1.287754287064319e-18,1.8414991019761465e-16,4.178606657811987e-17,-9.588686315597482e-17,1.4783417607175845e-16,-8.63990367642676e-17,3.0531133177191805e-16,0.002250450451697416,-0.052547810772372944,0.0247380651189651,0.18643854801847565,-0.07947880956300846,-0.04075611743370175,-0.05041422879559231,0.048660568316435074,-0.030056783899453907,0.018414034473304978,-0.015505990850041907,-0.12195741907129545,0.05285268804394372,-0.1298317452749009,0.027582221149429858,0.07752556352161637,0.008666253380080778,0.0783262474784534,-0.05080323649275067,-0.15506239672302866,-0.15807314475991383,-0.017528154394207147,0.025445513124520192
-1.162234453961393e-17,1.3393373100099066e-16,-1.9200881103738456e-16,-1.9995131130957464e-16,2.716714544666167e-17,-2.272838723717986e-16,-4.926614671774132e-16,0.034078793297362096,-0.08934601028256291,-0.06326993124496322,0.10185252975920943,0.041892699921494296,-0.1336568647878264,0.06356389525119627,0.06870157111373701,-0.026702148282494,-0.07637215668029712,-0.12238325422866136,0.07330413550739273,0.07989410314573438,0.031171522025869768,-0.04428904054128258,0.12854798133912052,-0.020997555478450895,0.06128081383253102,0.0828065455356038,-0.1044975138923747,-0.029574686052285252,0.0077238443841406166,-0.07256180774697239
-1.1436557281042438e-18,-1.2146018974749348e-16,-1.4747365557027977e-16,1.2472544664575625e-16,-2.9834392858572294e-16,-1.0820071858715374e-15,6.106226635438361e-16,-0.12567399917239275,-0.1578529407963945,0.07253648124329025,0.017772897488514385,0.03335228146500061,0.07605049929973089,0.07202023881299283,0.24325646429775843,-0.044997949881291806,0.038916196457371544,0.03336726476365635,-0.07201418086816276,0.021502446185040675,-0.0003771378814668872,-0.02120514881605707,0.034348191469655336,0.03014992336305828,0.049162396863825605,0.011727006676973673,0.061327439756092936,0.05939996810402276,-0.011888515157481652,0.05085941442457923
-1.1630784824106967e-17,1.116783095718543e-16,1.0284254692742429e-16,-7.529473885565513e-17,5.929511443155311e-17,-4.358727405325176e-16,-1.3877787807814457e-16,-0.033209760241121114,-0.14421790950760968,0.07112494439638212,-0.017663240875337514,-0.1611786171328501,-0.035446729355438786,-0.0562024189987302,-0.012522754141046102,0.028996014465488003,0.03105434810501813,-0.014070997906276108,0.037172341854375957,-0.1342254276171732,-0.08623929129041483,0.022738573173671804,-0.007299910590010702,-0.10863227508049053,-0.018248935195924916,-0.04163030488221404,-0.19097967787165326,-0.07406628614497195,-0.027623563143565448,-0.08268118303090317
-5.523626419792356e-18,1.217512932903216e-16,-3.484820300381057e-16,-1.3576205712507057e-16,1.3693541038969376e-17,1.5760020775631094e-16,-2.671474153004283e-16,0.09064022298893615,-0.10766921203813444,-0.025679589227831527,-0.022561458616332672,-0.00030512948024889145,0.1519695550512771,0.10542441634630595,0.18792004870734758,0.04625465853378807,-0.03808439853587049,-0.09071282756438584,0.05465180815533676,0.024695758751342972,-0.05318056725978865,-0.13588452171898543,0.1069151998727429,0.031171174054313466,0.08077243198356486,-0.03530333212514177,-0.092280323237424,-0.054959207933301335,0.07193776173871864,-0.010033920105501977
-1.326950730011726e-17,5.774611007379922e-17,2.0140170768944383e-16,-8.477307440516236e-17,2.938390670636747e-16,4.468500420499585e-16,-4.163336342344337e-16,0.08290353695611673,-0.022305466949708797,-0.041299033766144175,-0.025996437115486777,-0.10547200636105315,-0.08496840817906115,0.02605287510039968,0.009285354976393862,0.04148091388312997,-0.06967485246637978,-0.0785945796312009,0.13358337479593801,0.014115018198935299,-0.023264246846445288,-0.13135538956646997,-0.12955164164968472,0.014931906608896156,-0.026910941092433933,-0.06923716800253919,0.07478798975870714,-0.02062258902059383,-0.06642007438069997,-0.08083666287684452
-9.122983767807928e-18,1.417341916401167e-16,1.9366082265623671e-16,3.20896051145285e-16,-1.2279402002469015e-16,-2.1986528819729925e-16,-8.326672684688674e-17,0.012586916928776767,-0.03719279403537866,0.10445318723137509,-0.20767889172545795,-0.018493979382457757,-0.022243327381919857,-0.12651993306940998,-0.06234203021813333,-0.011402652236082202,0.02670652031163048,-0.048553292992038255,-0.0010134600419256356,0.1744022347994343,-0.060825710872050166,-0.12693515702960892,0.05771156197027726,-0.011181265185703431,0.11463754029006522,-0.011810407292030894,0.020635535703619114,-0.0373400480314558,-0.01481827410925986,-0.0691176857059382
2.508795565660446e-18,-1.209466949035846e-17,-4.095977415785217e-16,-1.71809217750114e-16,-1.3120658653348448e-16,6.777802118982623e-17,2.0816681711721685e-17,0.029672127726964627,0.011872254441820166,0.046929674538511205,0.05440129364712013,0.1500614078076165,0.0059543979613537945,-0.004146052031375899,-0.02399130020649336,0.01987029409007718,0.17105187620991136,-0.012908604287938736,-0.0019602045172346775,0.05815895994455476,0.0023207012615481582,0.015107241130462445,-0.00841427575871801,-0.0502720736124303,-0.05218596541611017,0.029248555848030374,0.0017821150903955057,-0.06053008383808214,-0.021456858884360212,0.0331411593201976
9.57191694883508e-18,3.7794295430899265e-16,-7.26602168781723e-17,5.563354296200723e-17,-1.9696924539627063e-16,3.2343349237511156e-16,-1.942890293094024e-16,0.10726030800970665,-0.1308198906914743,-0.017377827775662845,0.031271210241811065,-0.07473231231466966,0.1494594770204076,-0.04988007262699821,-0.04138449931652566,-0.04166340765642718,0.09459799254270503,-0.03139132786437855,0.09590611127795708,0.09602479996368204,0.025917745039766814,0.09271571406859967,-0.049274053501342306,-0.07829017152354499,0.0670484491896939,-0.019037604913535483,-0.01423779960993687,-0.04302013081678825,0.0720649974015596,0.026770065315108855
1.1962135997509406e-17,-2.862023994116228e-17,-2.386223540750375e-17,7.65538931142919e-17,-1.4719071258166744e-16,-5.921778818061104e-16,5.551115123125783e-16,-0.06481505827516057,-0.1665706548805706,0.032356172693650015,0.3883946260656513,-0.13964277321236096,0.07508648993720161,0.0894587742809636,-0.0848971435857484,-0.0787682021867224,0.14093554021666443,-0.1739080797501349,0.11075754852081207,-0.036499402123902104,0.03533487250306391,-0.02457020260963149,-0.015818282292624428,-0.02771421788766156,-0.06735826820428081,0.021299609431607053,0.05550567666613719,0.0033492683911892376,-0.01859781077164781,0.05184002986822338
-2.6593881406126964e-19,1.7583034621711843e-16,-1.5530293907191326e-17,1.6578143364573357e-17,1.3862484033860078e-16,2.247974824649333e-16,-4.85722573273506e-16,0.10830262125909425,-0.04232943353346197,-0.0020668265764132374,0.033742522221852,-0.009735780698575202,0.05283373033118893,0.048131341720429724,-0.08876515339554014,-0.11213185921584186,0.02077547740310918,-0.021695988376084444,0.015085386518228137,0.09321178439693889,0.019482540648838035,0.022806678082474063,0.033049235112233254,-0.00944891938684408,-0.05130102081697274,-0.06981564292807087,-0.010226334991769634,-0.06834409057784877,0.010918199015545305,0.001333120035718469
-6.250284550853894e-19,-1.3247281577853708e-16,-4.60160162320007e-16,5.928057430226111e-16,-1.9303099341569872e-17,7.869864968656468e-16,-2.1510571102112408e-16,0.0908172731103786,0.14677323707359247,0.026242290315804967,0.0501840028941525,-0.07353432497534722,-0.002749253966311133,-0.02887666376364264,0.09297123918640539,-0.03736880887194431,0.053234491456378825,-0.034771017449426456,-0.11965062362359868,0.03451307803687793,0.05536346818248768,-0.014560654706434263,0.10216492055698076,0.05470314725351831,0.02507203236877093,-0.03815125380106161,0.0722010804793684,0.06525414308435476,-0.002011433960571122,0.0865846459791877
-1.1408914502831953e-17,-3.397121365765411e-17,-1.312498562409977e-16,1.507273426818319e-16,-2.443699946871933e-16,-3.5424518250094236e-16,-6.106226635438361e-16,0.028682920518747573,-0.14981385057181992,-0.010446525490341047,0.07401078559321544,-0.015418068003021309,0.09652137946800192,-0.12666381960100098,0.08416375309065326,-0.127924391353912,0.04138583459564732,-0.0778856060075926,-0.051212726150360155,0.021952574680129167,-0.052116980482454,0.002156977644269756,0.08840877656782249,0.10172334790523684,-0.021382860012740423,-0.018788908610001515,0.041710050896356515,0.11953654369214813,0.025223636676690284,0.06381414391342165
3.533007868633533e-18,-5.255317600969971e-16,1.1989756281098024e-16,5.12711386807945e-16,-5.764048860149291e-17,2.447562216320508e-16,1.5959455978986625e-16,-0.02469868059771061,0.1478485489893404,0.031836506279850976,0.04346764042649533,-0.10234944890430572,-0.10876280622733384,0.01415383753013797,0.027004855818567375,-0.09646180666705102,-0.017617846838117304,0.080555150770849,0.07854669428206376,-0.08519935886930301,0.03811382344947867,-0.04181516035777437,0.03451671741760928,0.03931076504130178,0.041220080952885096,-0.01821726853824512,0.08948014151473294,0.07156185324123111,0.012557906935328447,-0.06293617399935551
1.0962443969496827e-17,-2.4306589965650957e-16,2.1256789484785169e-16,-1.1486457707072418e-16,-8.563628547981429e-17,2.0752612602489356e-16,1.942890293094024e-16,-0.0366142636829676,0.09129543860671303,-0.03160249528832744,-0.04407938184603008,0.014239532912516823,0.028702517658110112,0.0489561120126636,-0.08935122226439157,0.047319893662368766,-0.04851834806369021,-0.12335971735250784,0.055337453112592805,0.10872856390929975,0.07404561378013705,-0.015464552106336049,0.08993051480928475,-0.07209141784751198,0.09091937679176627,0.007213592639155878,0.03781809014832744,0.0595503939449128,-0.01813686845576324,0.07725519056055696
-8.8864059282033e-19,-3.9681010526620646e-17,1.9383147026234602e-16,1.7807447435740856e-16,-1.2868883915418012e-16,8.679020576970534e-16,-6.245004513516506e-16,0.21015366695108811,0.01511505881422299,0.034644484372645654,-0.14978141055296976,0.033346137245020245,-0.017041275296516775,0.017342603147850463,-0.08020249334769014,-0.11364064170850527,0.07522978414065581,-0.0033724523901285533,-0.04401200130762256,-0.0020079162320681856,0.05912450598127116,0.0035865334270319574,7.00699952843907e-05,-0.03142119397830355,-0.029212747026535164,-0.09690736164888096,-0.07245217811251939,-0.02842385991264142,-0.040270013788453636,-0.018600858937985947
2.5965021787252756e-18,1.4058741311352625e-16,-2.1259650148433646e-16,-2.571481115989258e-16,-1.6985784207638025e-16,-1.9375171424666022e-16,-1.1102230246251565e-16,0.08797391490272669,-0.11398001405337041,0.12139834142700383,0.16666905413164293,0.07832294895582556,0.038896717414755574,-0.14602433307465937,0.036022861223543604,-0.05019788221262148,0.043160755990079014,0.1284144558112719,0.001051840365387566,0.025840178021176455,-0.06591032926435657,0.03726952893791894,0.026532656451128695,0.047491245686978496,0.08768211177724644,0.07148699754090952,-0.10983904663592557,-0.06944670571216441,-0.02766722480452936,0.11135993000674035
1.5225488659170314e-17,4.6204384607134865e-16,-1.6527149977410632e-16,3.111263240868175e-16,3.2467449041782273e-16,-5.699960832646368e-16,2.8449465006019636e-16,-0.0856565569004864,0.011425093460573138,0.0234693200920201,0.015778187903146022,0.14114523127891057,-0.02527326426565019,-0.00995733606886498,0.07117486866057406,-0.10094882935106657,0.01932912915251321,-0.06425241686921462,0.07527409053730859,0.12636746035872934,0.022510384809828,-0.018800790459704144,0.023937254623929097,0.08080130434890637,-0.09847820876520125,0.05513136386195861,0.04439570110131437,0.02891887090659075,-0.026760144901244523,-0.013118397703933414
-1.1368885312105515e-17,-1.0429710737097356e-16,1.144688579048229e-16,1.763330668698682e-16,1.8555838270987082e-16,-3.1103150124927713e-16,-1.8041124150158794e-16,-0.043102510182554635,-0.020906415962803213,-0.07544554790147256,0.08099203129289255,-0.016224998654197482,-0.004369042147955375,0.14511028036881468,-0.0467162976061811,-0.17183815684510642,0.015561161489216569,0.0046930057789276855,0.08253778839790171,0.28710351308526544,-0.19114985294213058,0.03848662444159959,-0.036472497337547774,0.11619734518164104,0.013473492681442375,-0.19603157614987446,-0.04981629620848669,0.19352970417887774,-0.08432455469260179,0.0348958459156328
-3.771996193325085e-18,-1.0783116885611559e-16,8.604014811567997e-18,1.3141367286389128e-16,1.598922605362539e-16,-6.796895315231857e-16,4.614364446098307e-16,-0.1699938410125198,-7.608970237095261e-05,-0.04017336466324481,-0.0727633312063155,-0.009559853469819152,-0.04824889912428711,-0.0009997101370058336,0.06572220766853452,0.07841165274072803,-0.1048926814257542,0.05823498796028901,0.059704839240278626,0.058391003012961074,0.017210169543656048,0.03622633396384103,-0.047291997147796264,-0.04058754545704927,-0.10799776443886387,-0.02523630436823213,0.08001912877773469,-0.04858362570555448,0.05404254064548244,-0.006345637437571145
6.014968745092707e-18,7.952343097637545e-17,-4.0733048471860756e-16,-3.620508779684592e-16,-1.8110180234222478e-16,-3.3148420322080425e-16,-2.498001805406602e-16,0.028281878183968195,-0.16850455161890576,-0.029988209015783307,0.0057209057239558285,-0.03377636385006588,-0.09727885537440437,0.05670910490647407,-0.05325172080872367,-0.059844621815720936,-0.07313160260977845,0.048419684733600504,-0.0066906859669477875,0.06460417000820694,0.05567551259153294,-0.0034018566784927828,0.017933420154816537,0.016551246128568304,-0.03890594679919438,-0.055509591837377546,0.05944520091766133,-0.09265810117385231,-0.030244242913477524,0.11794021753356591
-7.92797298217598e-18,-3.8027237297017766e-17,5.727222887616952e-17,-7.229315731948751e-17,-9.881867146496555e-17,-4.886616437457777e-16,-3.885780586188048e-16,-0.05577620350552308,-0.027668068480876738,-0.03460203277098908,0.09903903034319453,0.17302824372468983,-0.007092656202040464,-0.04131321018564356,-0.04730743281914289,0.02358811700370159,-0.0938818886708292,0.0817637405399655,0.04051550571594167,0.06301399649744872,-0.09311719726876187,0.09792622615913267,-0.14749767537967778,0.04225482030331443,-0.050976225286571974,0.10032376038772256,-0.00888156519514268,-0.07650335847776775,-0.09381921042441567,0.09902287786742962
2.2344140039745535e-18,-5.367961512507844e-17,6.34566179466163e-17,-8.045164699354788e-16,1.4851078566125073e-16,-8.792099181617827e-16,3.885780586188048e-16,-0.08978778029760873,-0.13479156136748158,0.04565537290558199,-0.11301300675586205,-0.04661759465621668,-0.223965702181619,0.0562574985410912,0.06555120888428825,-0.07695576419838512,-0.008747769377755371,-0.021083671754756964,0.012483296132878265,0.1075086967661981,0.010847926384372866,0.04777673753938158,0.049270943985510456,-0.11493772255311464,0.00346222838812114,-0.009696936237854175,-0.11132995455873917,-0.12904790557820453,-0.016190108523868377,0.03353060516696223
-1.3189614521779093e-17,-2.472369861880832e-16,-1.0923833596807458e-16,1.786920008791113e-16,3.945869844645137e-17,5.334528030678857e-16,5.828670879282072e-16,-0.005785127505468931,0.10702845980540102,-0.024930387372622077,-0.008685465754672425,0.013145661183649938,0.02840800090578857,0.04474846473837619,-0.05593649401359344,0.05700020657876826,-0.007810912156196388,0.09969423222710304,0.02986478535790379,0.03400270521674016,0.07138933319996311,0.015936758366121444,-0.11014939691496026,-0.17353972095837183,0.0026755243595163315,-0.008058173766770357,-0.019675710396852154,0.06863450692612552,0.03512162671082105,-0.010299792499650929
-2.1819499365244826e-17,1.0653819011031911e-16,2.1955644542613547e-16,-9.738552164241237e-17,-4.94040497349519e-16,-7.68725011352535e-16,-3.885780586188048e-16,-0.032391616452912525,-0.15570348857652827,-0.011510977314272086,0.043224684639470386,0.1395174018229518,-0.013793476249751678,-0.05952621911205064,0.01495716707048961,0.034134830304596506,-0.06650991863382201,0.0418173125438219,-0.05990163562221146,0.014059046741860065,-0.22046043567739393,0.14844960890554845,-0.06747473969723852,-0.038035413936709846,0.1935092498733992,0.11100831871856208,0.024151180836829475,-0.035693106029656814,-0.08533564285222751,-0.08155149689886755
7.838779788914823e-18,-1.1949881295179845e-16,-1.5959751316651173e-16,1.3375660595139896e-16,-4.1199361937640055e-17,5.227805838826625e-16,-1.1102230246251565e-16,-0.005999384903791568,0.12294300524138897,-0.15250642234488782,-0.046679476094377365,0.0071011989515426715,0.09795629686689479,-0.01545256810583162,-0.03908347143329622,-0.06578683261285735,0.06774845911782322,-0.060901093164043116,0.07784119035554712,-0.04498486052856608,-0.035996886946524406,-0.021890956285721366,-0.08180388074552439,0.01775774227854642,0.07193924850799413,-0.005585125569972551,0.03430199738198349,0.013037106138851277,0.058965934328949705,0.039353361194966775
-7.355980595490945e-18,-2.4697324248687366e-16,9.919191159843021e-17,-2.0657690438268117e-16,-5.587004891698678e-17,1.1734085937894676e-16,-2.5326962749261384e-16,0.009921376520821399,0.016315602387970182,-0.08008794461977055,-0.06863388741162799,-0.009619100867467157,-0.15630746076785637,-0.021160281824799898,0.041750132623642494,0.003872805401800711,0.05838436194886654,0.004529622251328241,-0.04660727367429616,0.035647992816807465,0.01959713921275044,-0.04767555059579833,-0.001277136112120065,-0.12208770929622136,0.016451394917063458,0.094580882213916,-0.05687956288967143,0.04782844486193738,-0.005171109324997797,0.0183264546911977
-4.856706830027291e-18,-2.2546353570747154e-16,1.434871005096052e-16,2.1670203425952001e-16,-1.7965397384799316e-16,-3.833185926518343e-16,-1.3877787807814457e-16,-0.03349573468154109,-0.03145265079370443,0.10275320649929844,0.058533191779733526,0.031367326587969806,0.034498461582376544,0.11753893273985982,-0.009083829615243365,-0.011618369221464577,-0.054330113639724516,-0.20271924760749552,-0.14011049031941858,-0.012078728996799513,-0.10898806763988228,0.01855027709522009,-0.06968589291173259,0.04952917007437984,-0.02261391791977328,0.08686653379883931,0.0543438231085559,0.057914667624610776,0.016645252795966077,-0.06022425703226721
-4.139600865845125e-18,-8.361343102173165e-17,4.8835964047258505e-16,-2.859744214012572e-16,2.2812025788864297e-16,5.690889414431685e-16,-3.7470027081099033e-16,0.09549099124348442,0.03802513665117684,0.022654877768495934,-0.032857622177956486,-0.046680397431358364,-0.06384188477221055,-0.036450065738736395,0.006819886904537126,-0.020634777272358486,-0.07803865567957245,-0.14487787436180602,-0.016038845082534368,-0.11363139860996244,-0.07112449929085288,0.05101085681376565,0.07659358354297059,0.02610031905686251,-0.048654089988002316,0.03642050303503661,-0.02715328812075331,-0.055075831887340915,0.010576278153163582,0.03583321546421137
-7.38170293398606e-19,1.7506866515591762e-16,-3.615392529729663e-17,1.8807192313103495e-16,-3.230638639514031e-17,2.3667427051281637e-16,-3.191891195797325e-16,0.06770921019033559,-0.030032017657879558,-0.05776053173365633,-0.008240986196621565,0.07572539764731213,0.14969232711058364,-0.08630457602252313,0.07270666823826868,0.01139547223443657,0.010448580969490485,0.007859125546659167,0.004617325209260679,0.010600460760562796,0.06882483092562418,0.1040347671339152,0.04001749468133734,0.04130232540236168,0.021033921417244864,0.04600403491930724,0.038906329193602554,0.14553796104304392,-0.13451749603230842,-0.08348159078684868
6.1258625238873234e-18,5.276724964372482e-17,1.901171277901501e-18,-3.8743225870062964e-16,-1.3034251758088813e-16,-7.299814805741924e-17,2.7755575615628914e-16,-0.03585743196146466,0.0054182336376277325,0.020671015165087885,-0.12074779233620173,-0.1148361708644918,-0.026369049347737365,-0.07077850767719511,-0.05512117554687979,0.01990220778296706,0.016784464959402542,0.044914119594940224,0.10379807883211066,0.022660584510154062,-0.015058220060303721,-0.11564459862463872,0.1007968035210752,0.054831836899653964,-0.04194626101254551,-0.019973791082779527,0.029430642853055074,0.03479311689650151,-0.014698105294461741,-0.010797629418846655
-5.394395792751101e-18,-3.823819713422144e-18,-2.1637164916848342e-16,-3.054565776444486e-16,-2.554246130670045e-16,-1.1507404042201697e-15,-5.551115123125783e-17,-0.1174425756557177,-0.21932859818464756,-0.04200858346805254,-0.060706535714579714,0.037912360922203396,0.07002334650531067,-0.017992860215763466,-0.0005910709169775776,0.03378278343755287,-0.0029245319418573293,-0.002060613875742442,0.04957783219853597,-0.11693775929489961,-0.1359001612734131,-0.014800555582666632,-0.10309667475560118,-0.03581714349892194,0.087080300812827,0.17945148090876906,0.10244267127743467,-0.03836188281952757,0.024025950171809946,-0.038610069569168876
-1.2438599137995999e-17,-8.201845648640721e-17,1.01597439045904e-16,-4.92756007905171e-16,-3.0325404254940706e-16,-6.068983945073123e-16,1.0408340855860843e-16,-0.11440292461910083,-0.05992129709848053,-0.0488463119614672,-0.20596899044518743,0.0874816140678234,-0.10303404242892462,0.13963446608912009,-0.034590736778212096,-0.09912419047472439,0.004451473308949607,0.11016800334090066,-0.10205032552702278,-0.0013949829117790465,-0.06314768565134508,0.04901245554291593,-0.03744282695337204,-0.11683481212660683,0.0626499628786746,-0.040042233180540156,0.03139113948117314,0.09239338720666697,0.051859246100529645,-0.06729219882414873
6.434801431674439e-19,-5.974249621750536e-17,-2.6173139043448473e-16,1.3240763746437287e-17,2.8050351954835285e-16,-4.4837508526212694e-18,1.1379786002407855e-15,-0.12614561048322132,0.16697416845928262,0.04808001521817282,-0.20251142147910323,-0.1123326303437959,0.08560290861805285,0.07708061291665942,0.03940424868599957,0.012761169145773143,-0.07342739065636895,-0.11616410265721398,0.03408801537940274,-0.005041704849589015,-0.021344255159041637,-0.020075313353192247,-0.07181634751736202,0.18891954487166468,0.05418280430226903,0.03807589018396322,-0.02954597292808361,-0.022400205092262888,0.005704782409626072,-0.12039126766742625
2.3032992604896775e-18,-5.2226184632669135e-18,8.918890418691254e-17,-1.0923291127290684e-16,1.535643836489826e-16,-3.650704557571933e-16,-9.71445146547012e-17,-0.06222989263787944,-0.06556000549764122,-0.07930658389334462,0.009353898205432818,0.047386935643499294,0.03243349289922731,0.019020455259962172,0.13604188429664105,0.027537317894960632,0.22445750156744007,-0.010072763302209716,0.10065605850884145,-0.05597030575654711,-0.023206878285362702,-0.09605363297944097,0.010230817784158686,-0.03672657601249838,-0.06878579418543612,-0.10435224363479537,0.056000862629915445,0.06848867623325097,0.16702160064317984,-0.07459682221507848
1.4918822657168736e-18,-1.7691247001141896e-16,-1.6310595873886862e-16,4.032032741734262e-16,-1.5301855194790345e-16,-9.508543444550628e-17,7.494005416219807e-16,-0.07675409382167414,0.058796410326583254,0.10584823078258498,0.31256942171056284,0.06829052382162312,0.06141336743994939,0.02981266997737997,-0.010509324943851265,0.027489902541994057,0.10830712727260684,-0.04671696803552554,-0.07365301308671993,-0.021749054847951026,-0.06139125820190693,-0.034850928655950124,-0.020734345206916107,-0.23252979479132016,0.09673079168968812,-0.07454794105739124,-0.07390276746250807,-0.00907653970120494,-0.08890834766344809,-0.03420986521878473
-6.694156431681966e-18,-7.587829836001389e-17,-1.3541022275370122e-16,2.805774381516347e-16,1.5073477870330763e-16,6.434257559581571e-16,-3.9118014383277e-16,0.049906592450857996,0.1020133924721381,-0.1658267181449424,0.13892919517779112,-0.004458201617844106,-0.04242292552223587,0.005369795321254078,-0.06727368118404145,0.11779044990214904,-0.033413766688807224,0.06107895189272144,-0.13190275790485914,-0.03861802048670711,0.03276705275582352,-0.05185977864577845,-0.022887661195820107,-0.052033063741005324,-0.008253153521579027,0.09992181987476972,-0.039892685145609195,-0.025516943065530096,0.06443108145110499,-0.08196811867690948
-3.9400070445000345e-19,2.5006543967870145e-18,2.34337885276801e-16,-3.39241468743762e-16,-2.4918441076586786e-16,-7.479595598987032e-16,5.620504062164855e-16,-0.12849745251997974,-0.02785244668704182,0.10198328440557324,-0.09515619341853397,0.0798626168238816,-0.04072740612955271,0.08897031603203061,-0.01113849528491798,-0.12808103943148544,0.0815946637221863,-0.11246923573339551,-0.0053888046731764136,0.05862105453820438,0.0384394884988331,0.016010573618741482,-0.08145408398392202,-0.03672916670381194,0.00839515091412959,0.13402142594302585,-0.10089159245519734,0.03455778615310899,0.006539114684774472,0.057212819341897314
1.2076013697645832e-19,7.825416784444396e-17,-2.5802293176411353e-16,-8.824327922273067e-17,-1.6020815188002855e-16,4.2747382334898263e-16,-3.608224830031759e-16,0.13552651764559634,-0.08125966227174532,-0.053218871992092624,-0.09943854395893795,-0.010851493332278533,-0.1553277718301556,0.014200009390003394,0.07355336598092467,0.08989214665778615,-0.006496935326637178,-0.0614234217371775,0.09860532940913486,0.028034398584171418,0.02831327475846896,-0.04417582755943775,-0.07108892587603577,-0.054109871261635537,0.09965876069220692,0.14438534759961602,0.09666642878725583,0.0376343803521992,0.06572846958175237,-0.0010488971945169906
7.90133622553446e-18,2.2230797005347296e-16,-3.248735868614009e-17,2.8899171025515684e-16,-2.7040026827316895e-17,7.974566575938508e-16,-5.273559366969494e-16,0.1892883543875718,-0.055988179494584074,-0.08341781271553887,-0.042847404462414654,-0.02912327521008983,0.00686938224173733,-0.05492525729516128,-0.029613202733750916,0.06038724310691165,-0.04552561185639596,0.006998233317861941,-0.010013902868479578,0.0854298238133368,-0.07383057233193623,-0.044783120055946715,-0.02806244979789867,0.001044189696175531,0.024681839087725893,0.011247994590430854,0.01723910119390517,-0.026133198730589318,0.09358722519525946,-0.06676241107592479
-7.221585384038185e-18,3.339843268812921e-17,6.673485636931679e-17,3.5776721372575347e-16,-9.775604481551409e-17,7.565647874889614e-16,-4.996003610813204e-16,0.15182490662182827,-0.054254797139345015,-0.040698762718627046,-0.03438496684115274,-0.10654657139920641,0.19038344341273214,-0.02040136264045646,-0.031168151197566364,0.07650793193460617,-0.03145468946288524,-0.15624464111513134,0.010842260640726936,0.04273560115663846,-0.06775889167436872,-0.1105139961031208,-0.029950073143085204,-0.02713629211643009,0.03715927794813816,0.04082224319647582,0.0483315887734584,-0.037995939144659326,-0.12432570994156066,0.09022480859779297
2.7700074264738616e-18,-2.1395105807858066e-17,-3.3085179381885934e-16,-3.0173726961589435e-16,1.4491319867192707e-16,-2.937207138943029e-16,8.326672684688674e-16,-0.13800016276470034,0.1073814415009804,0.11922635075388131,0.04729249537116838,-0.08103302627181233,-0.015604555371996388,0.09633624401847903,-0.031257215055999384,-0.15742469953022434,0.09886727317128122,-0.11063631057571573,-0.04153904958092398,0.003068233826439695,-0.08275796858472063,-0.10321558229778958,0.006872032582687442,0.026048228935459616,0.024077770666755684,0.01720929489247184,-0.012780784114221273,0.01622150436505148,0.03899139497426591,0.08558206229497076
2.1777546721616056e-18,2.409219205435672e-16,-9.187125414930646e-17,8.758854491235013e-17,3.178392409809685e-17,-2.8741655547278897e-16,-1.6653345369377348e-16,-0.019285463031563175,-0.060124445156774065,0.08276621049010933,-0.028299711973995948,-0.07328178333132358,-0.06625802375058189,0.07476828764502402,0.1118294175524051,0.05037696988375441,0.036090096120607325,0.070206621681757,0.07054579779899899,0.000834756050154714,-0.011923499023160776,0.08429264395832178,0.019760153553583723,-0.002052462682253075,0.03872768489259705,-0.018133613071115266,-0.0468291365889888,0.018827344214210295,0.01164013927958394,0.061275776825641795
1.0401316275269394e-17,3.4421454177040394e-18,-2.1862789484869727e-16,5.2923421530330295e-17,-8.677422892528955e-17,1.9319826919146814e-16,-2.914335439641036e-16,0.07615648850983663,0.001136065034835105,0.10507538609912821,0.025189585016991558,0.11543274611417449,0.047556656192173044,0.12312655549732393,-0.008505174025693415,-0.030309926877735528,0.052039006292177885,0.11004521993016464,-0.020980567404976898,0.03077605210561956,-0.0016541989312214346,-0.044409632129688216,-0.07134446433119304,-0.09786666655426712,0.05775212684818275,0.04981244265032434,0.07458629865006453,0.0038056921819083424,0.11403309011215397,0.024871002150634584
-1.1319304981006075e-17,-8.545014145661047e-17,-3.3208230271324374e-16,3.411514821540892e-17,-9.973529995228203e-17,-2.928293757603544e-16,-1.942890293094024e-16,-0.0007891355473907413,-0.08586677277905168,0.15435005332285695,0.05313977684144427,0.05873204274055291,0.00910571999752779,-0.07944518288406303,0.01876896273770291,0.0340478613956306,0.02034255905107812,-0.11460595299522916,0.0879910507677315,0.11951953189628631,-0.019850700679013473,0.056575286779198576,-0.1206814533298428,-0.104815301969328,-0.06867565907375256,0.01764576430389868,0.07418012900284919,0.004833581786983347,-0.016338141650499734,0.07596661571267846
-3.943673769326098e-18,1.5735571851979576e-16,4.1741263303191484e-17,2.305410620812454e-16,1.2628766198406813e-16,4.2185845572795207e-16,-3.0531133177191805e-16,0.10122666806286325,0.07216585869755172,0.11918380131478475,0.03123109006872759,0.04880137293035269,-0.006747042392176959,0.03679341298423957,-0.053347107930165324,-0.006655472732729364,0.04995502122074927,-0.08588966486047975,0.01809228756554515,-0.01885741203181997,0.00794699561381673,-0.0693023498467496,-0.05717013694083357,0.05586066224025853,0.006759343513007151,0.10635484939594496,0.07092288807378397,-0.010558049695825895,0.07051127259950132,-0.06261237380029773
-6.801244336640392e-18,-3.1563620731549725e-16,4.3016714991021103e-16,-1.2868696066165596e-17,2.0110451907042007e-16,-4.931900034407281e-16,6.002143226879753e-16,-0.12474915841758999,0.051066937029562824,0.09168166626348656,0.011579589844996397,0.03236745570619517,0.1251113876829918,0.014295820487021717,-0.057529125179162734,0.0314883932898941,-0.029329899967652166,-0.013365419998919858,-0.02512155527858292,-0.03105188250695193,0.05962858679157509,-0.055442273728280755,0.0570150329063121,0.04423286062263425,0.0034528710389931474,-0.0013314234760160215,0.027551824991409547,-0.013007858282652194,0.07236519159893189,-0.06123644860097042
-2.536926695731148e-17,5.351487146365442e-17,2.9212562443683765e-16,-2.0724069207981695e-16,-1.0902275310029266e-16,-3.9370164174973546e-16,-2.3765711620882257e-16,-0.0624792100172308,-0.0757373391937073,-0.14949904169636596,-0.12363986209483285,0.036608458545277354,-0.21349305323404583,-0.05425546998882826,-0.09138295834043678,0.1302184186828759,0.04057465639157121,0.005578080090679358,0.050339761676820076,-0.04697890698558031,0.0401851872511186,-0.1946837027518834,-0.019706531785377325,-0.0965299126938118,-0.03492139596913542,0.03842425411187984,0.0564516824551967,-0.03536004509570815,-0.02666408013153601,0.009787926975581705
-9.214435326885334e-18,1.5793245921730142e-16,2.203617073003053e-16,4.563772766107108e-17,9.729130168409073e-17,-7.897620728386458e-17,4.163336342344337e-16,-0.08687036701690277,0.043208828922083393,-0.10176366283110105,0.08235449359183479,-0.10952462241380155,-0.02218782368841077,-0.1261489758459713,-0.047284867129434076,0.051595918503678735,0.057842680746551585,-0.08380673087817674,0.06282000357038943,0.07564112759488298,-0.035160159213293324,-0.0021638278719696286,-0.02171963711291407,0.08751143361083576,0.016664532292343607,-0.06070999809652657,0.020132987390456464,0.03868747227189233,0.04462310226019789,0.05924496721828918
5.345605140887125e-18,3.404510483094494e-16,3.4894702251514186e-16,1.6781163803684266e-16,-1.2186164356730363e-16,-1.9835687075744677e-16,-1.1449174941446927e-16,0.021274714017032008,-0.06590595957328474,0.017862187435501737,-0.01240399330496335,0.06867242512409526,-0.09561210781732285,0.08081260401015662,0.0776148082626143,0.04978767562937036,-0.012041971994496203,0.014809043888068226,-0.15454919825755042,0.05552097226029065,0.0568438444671301,-0.09965840688533534,0.00016051049266336645,-0.03583317143836238,0.03787020220750345,-0.08322655641282681,0.03248584711710498,0.0716727031440479,-0.029736860393213257,0.023330487183929653
6.888255916574015e-19,2.0291775076698136e-18,-1.1111369811436992e-16,6.554331750989444e-17,-2.1271775320651822e-16,-6.530064886120736e-16,-1.1796119636642288e-16,-0.0868696582669472,-0.1321493790211618,-0.17818115302674734,0.011640262913723026,-0.038195720662006154,0.11903291927593629,0.16054092331676087,0.03717339708912464,0.01107332730459518,-0.011357657361982807,0.09652830158383373,0.03603846814954368,0.08109719772255367,0.06973109630336716,-0.028151984676386868,0.08625564846375684,0.11138675702510692,0.01741351089566123,-0.09155453792369563,0.06870019359996257,-0.05969552907873429,-0.12573948722059064,0.037883811192595755
-1.03959421326598e-17,-1.3058060451052274e-16,1.9205375871230162e-16,1.829382354716652e-16,1.9682472366361445e-16,5.495504273157626e-16,-2.0816681711721685e-16,0.16109001540485776,-0.040946767889249454,0.025491892924437924,-0.036429479362433015,-0.005027823728142153,0.1265077164394225,0.13860981309092565,0.035939925147727106,-0.060905336503498615,-0.09512977083073551,-0.010012996227633048,-0.12166056313156202,-0.05248844522516735,-0.06395618555176133,-0.1051461835446123,0.0432938539655333,0.08104250286842757,-0.13355784615346653,0.0005031092200327745,-0.12257400587234932,0.056037119283519364,0.013415121031749973,-0.09383365346548667
2.3280632977116736e-18,1.3028609353861671e-16,-6.653434032848065e-17,4.0303418531844397e-16,-4.550104114082579e-17,3.1942439527658027e-16,-5.100087019371813e-16,0.12747093962241068,-0.08313691632322737,-0.05885883737341974,0.013264195529748326,0.0007431895320938269,0.0682413828136727,-0.06058817104360582,-0.024933689421241398,0.016349642631454827,-0.022029497206930485,0.12736011865514835,-0.061672344180510506,0.04898230034627565,-0.025872503487792586,-0.015694556061828308,-0.021424721333467574,0.03758170166555778,0.012936175514770474,-0.08446362878425337,-0.05846374234869445,0.0649314831150903,0.03863761222281687,0.011271780957838326
9.267727790261154e-18,4.556060269147615e-17,-6.566518309760289e-17,3.5149080029385766e-16,3.2687726325467024e-16,7.731799593499645e-16,6.661338147750939e-16,0.003389380245904487,0.2233979279152882,0.05729189330577478,-0.0722340601354553,-0.0008343437841822574,0.14148098787483415,0.08180148950763984,-0.023635086749961252,0.013006789964351454,-0.08580149554010397,0.11593817820918556,-0.006352854369732617,-0.00035371866847057007,-0.10057098188408138,0.11575764007194027,-0.010931940665203482,-0.10037375784792384,-0.026826798063954667,-0.0649058291366663,-0.1271643191365444,-0.10285768850843065,-0.002947633802508802,-0.06181956394812071
-7.155375661995616e-18,7.185202809746876e-19,3.134966413535083e-16,-8.074542731229687e-17,-2.053129413393233e-16,-7.910566231628956e-16,9.992007221626409e-16,-0.06623565856018573,-0.1587607807812079,0.07690812109373377,0.36858982543469065,-0.084004178937993,0.06129608594861293,0.15915276812220175,-0.026944406574211613,0.0023051448736456153,0.07298062809523681,0.0419438380921334,0.024937329343903625,-0.017453815422741735,-0.043146781415392195,0.0042875581174537025,0.08317037868675128,0.0216758351019131,0.02341538463398642,0.006884836817254434,-0.030512270531183983,0.062063005165445405,0.052357812936728025,-0.006148638843800881
7.396273502129978e-18,6.151324338120856e-17,-6.835894923606174e-17,-3.0584669424733305e-16,2.672373713803342e-16,-5.420837503572419e-16,6.245004513516506e-16,-0.11468216927470114,-0.008294592328145476,0.0009670121628241419,-0.17898915174476984,-0.04917952941154038,0.07131147362789486,0.04336310780108997,0.04668518114814239,-0.004789611052354237,0.05715981862128505,0.05253728054452842,-0.12905811098544354,0.0034847746212406483,-0.11063933089973435,0.041156188797128214,0.031545490435084214,-0.005100631509511392,-0.01754104972328742,0.010016494728149845,0.0036928099738981267,-0.1561596408412538,-0.027383771876421915,-0.008193607996263825
1.077208749514589e-17,1.7447482915137812e-16,-6.807389032655031e-17,-2.3775755623950133e-16,-1.648495303459372e-16,9.171662218191536e-17,-4.996003610813204e-16,-0.0009456945834762549,-0.007309645356490845,0.04119164380428636,0.09232781387206895,-0.16522578512881722,0.07446292464930067,-0.13282172093320582,-0.10327702724626016,0.052227804338750745,0.0019419747748795405,-0.10206321196069158,0.0005740270631350343,-0.1129677653353728,0.06892824574823912,0.09609919209967882,-0.06274668179032428,0.06948460259980484,0.03463354862769301,0.03870112226699393,-0.08040166083803063,0.019600553522324805,-0.04472615004748062,0.03221465298527986
1.0773863534977054e-17,1.6047425129548505e-16,-2.0403339030769602e-16,-1.9950834354085428e-16,1.361386372787918e-16,-8.818468878892639e-16,1.3877787807814457e-17,-0.09273882133037785,-0.10003524744416625,-0.17504439543485278,-0.17013476968502966,0.21312754972871253,0.01720365569645282,0.16433094693506403,0.04435415542261212,-0.047669603660773545,-0.01909030701975685,-0.03130889214141414,-0.02087668986492188,-0.001449279538106957,0.05297163901016166,0.06176470140234968,-0.0004769525311366311,0.15322166822278818,0.04685962828190236,0.027441263954034737,-0.021869722060000058,0.011936023633938498,-0.038173115058618506,0.06762270462701526
1.4345001210205377e-17,8.591348796506526e-17,2.922716352261199e-16,6.731578663045526e-17,6.81444581336304e-17,6.139006662332244e-16,-6.938893903907228e-18,0.07408128944622036,0.13092052651503963,0.04773802218496043,-0.08360279725784239,0.07455812647031668,0.07112937238435699,-0.0843485724823727,-0.1468035721640071,0.03662215399847509,0.10192796436301611,-0.002887827293405519,-0.0231914622938483,-0.07147937400744055,-0.07146448858831726,-0.06977318515588525,-0.024731613775395993,0.11506523613184928,-0.061093347476983494,-0.09620924036544878,0.11524239538372724,0.06523564236967849,0.017683008784986486,-0.002156841144583292
4.139489509689117e-18,1.660182331486156e-16,4.094053236247143e-18,-9.986728158053556e-18,-5.135642228204963e-17,3.428169931306968e-16,-5.828670879282072e-16,0.09283517684723998,-0.009538138737959652,-0.03392109414812909,0.037080504250425826,0.009204166934612045,0.027727480494688275,-0.029127401279745148,0.005533723498953891,-0.061160086193329743,-0.10878663074447405,0.08438659227545985,0.16653358506338126,0.03554390796265431,0.015054189451620171,-0.04526519369168374,0.004149628780308473,0.06707124333392772,-0.007522815808740453,-0.03439794207063952,0.0819345448642865,-0.09980802923912406,-0.02142026993994147,0.010168775241580564
-1.2061103967501625e-17,-8.209132223352872e-17,1.7246794203775396e-16,1.0753489154353039e-16,-1.691209039580605e-16,3.326207606995021e-16,-6.418476861114186e-16,0.1622486827522877,-0.11491734630388079,0.02245050199913477,0.06811399532557676,0.03072409685328209,-0.03160905890884889,-0.03653145752093425,0.017192781798007525,0.02861701780534803,0.11832416851929675,-0.021079559264689126,-0.053998846907289975,0.07215462304639961,-0.05276136400239967,-0.003033951553734693,0.010215061518492555,-0.06811785749482645,-0.034361271426552986,-0.07189059593494196,0.05347989239489247,-0.03271070843923115,0.1472477715789282,-0.09041789853736411
9.379920697903292e-18,7.156070710474672e-17,-3.542778519448458e-17,-3.588920372532689e-16,-1.6651783868289484e-16,-1.5173966337453622e-16,8.604228440844963e-16,-0.11046553887222828,0.08371916809753235,0.06673994610218167,0.07383570128613273,0.05329936691296207,0.04534845321029616,0.06973325197547879,-0.1754929727710376,0.08526192500431826,-0.0717839950553241,-0.045236522575559705,-0.0060687094517832265,0.10766534139491724,-0.0027942130416722887,0.12545281531288158,-0.17208210868090404,0.01960511368081298,0.11438074638113938,0.042036742806797645,0.11356695899983986,-0.002392520273629165,0.05363503932859284,0.00852677537556949
-5.8166650155739965e-18,3.09852596028918e-16,8.926476969737463e-17,3.414792382573284e-17,5.244625895437911e-17,-2.004509479725781e-16,6.938893903907228e-17,-0.09404547042393477,0.07554400009168107,-0.037049532162461,0.098963501618985,-0.11088443626680536,-0.08685881100129675,0.04156400361930236,0.0643661626441248,-0.08741678485442313,0.08598041341447442,-0.05576514777885936,-0.10172610308062414,0.023595741389258747,-0.042866380211580624,-0.032479930407819976,-0.007164257360309425,0.14208987665892195,-0.03044849946352064,-0.061098650863967964,-0.06483925697220504,0.020730543275340962,-0.0879881704571185,0.00922250303737558
-2.2197574046892672e-17,2.972111270211472e-16,4.336206938512409e-16,1.4699534090497028e-16,-1.9406895817389878e-16,7.429889129803841e-16,-3.7470027081099033e-16,0.23478248975798546,0.027573300104287567,0.30241850203082316,0.15551555613477214,0.1016075540308594,-0.015354122445164712,-0.028644578195382752,0.023493397197253962,-0.15582531577278186,-0.038410510554795115,0.13948120955718807,0.028589906304325317,0.09577654363090435,-0.026543360746963406,0.0282459909838121,-0.14311198148700652,0.0872246495713444,-0.11649691462594389,-0.015378188711703104,-0.036903751882224195,-0.037605814704936256,0.030700579193155927,0.07559504478773203
-1.2111135059404731e-17,-1.1175361570676665e-16,1.7818278529084625e-16,-1.600384712658211e-16,-1.8750859338166122e-16,-1.0782959966728627e-15,9.992007221626409e-16,-0.2089012507498294,-0.04595494040139407,0.1141776300376949,-0.009973046587888156,0.04543087263188941,0.1845091071835784,-0.10533633507315722,0.06722352580595112,-0.017902130617088268,0.06122849934587291,0.040138868760769164,-0.10237383074862758,-0.058123377217634886,0.0029696217563788757,0.12154005900571488,0.02720306984703152,-0.08064187028383583,-0.03137494837351641,0.06848855093788164,0.03475472333537276,0.10987011699328576,-0.013525690695093249,-0.08675474752094783
-5.507836338688367e-18,1.881160157098291e-16,1.4718764150936783e-17,1.8508127490306843e-16,-2.951860094097097e-17,-1.586197201637877e-16,-2.914335439641036e-16,0.013043233634400887,-0.08947716921825151,-0.048922296005246994,0.042213531658690275,0.01256585972347435,0.059237160863684156,0.011265689990444442,0.0044816228833810595,0.022781614778151393,-0.09296408026909403,0.0325876048764638,0.050828135176947425,0.017723518614189825,0.03846545119742533,-0.05209064038947733,-0.04993415247054502,-0.010864248098448074,-0.010263653828705834,-0.15604637645299624,0.02905633035717317,0.019316132264927184,-0.004920150036517459,0.09476266636215487
5.320985851259249e-18,2.5649330975275807e-16,-2.321188939713642e-17,-1.8807471242295024e-16,-7.69509893387738e-17,2.7581427353195338e-17,-2.220446049250313e-16,0.0948226017755347,-0.12691679154795096,0.03439309772144376,-0.14202322437993878,-0.033912182883246496,-0.07586981211920968,0.07934171936695013,-0.14107680968893702,-0.04747297118025103,0.022383429562220843,-0.08768298697933778,-0.04880745780901871,0.03307232582699967,0.08190377708151907,-0.08782280050491648,-0.04179871943251887,-0.015286011888786739,-0.008626693416428804,-0.07737557881157896,0.1792686645350729,-0.0914336589776548,-0.03658837273565454,-0.026141077315967223
-1.3164217032609788e-17,9.177637893957949e-17,-2.4043868929144046e-16,4.8221264436797124e-17,-8.135600485828375e-17,6.675123673428249e-17,7.28583859910259e-17,0.0070258253833925975,0.036495204175030244,0.028252474837646518,-0.07984908644306046,-0.06757339061310097,-0.07439096026805006,-0.017766099637316353,0.07943050336384062,0.05180185279222358,0.07052035155310722,0.03980231024152823,0.02796771016020439,-0.14771593802113223,0.08075517418103074,0.04850848800883257,0.044895863833650865,0.06445687993952066,0.04842326864763228,0.11897610159827043,-0.052538874527654586,-0.028733678103125056,0.05924484388341018,0.03771686757876046
-3.5234687069604974e-17,6.853941693934637e-17,2.702524116002317e-16,1.146015208982564e-16,-2.101373599093304e-16,1.0265223546973945e-16,-6.106226635438361e-16,-0.018643209330415342,0.0438335911242821,-0.07788174812767223,0.05207053049825046,0.02057731147287854,0.07441899457467653,0.04593166638535066,0.11812365440066022,-0.12189394032345735,-0.008168474559959615,0.06252099887925204,-0.07488960535248897,0.006566331195072987,0.016088324061651078,0.06967890182292408,0.07283148525783442,-0.031304846514898524,-0.04342036252637386,0.05293914003953182,-0.014989827890266476,0.09415462465475223,-0.09452585617972449,-0.09240745587313348
-9.695386249394874e-18,-2.447297540385923e-16,1.327366956867103e-16,-5.237196283032302e-17,1.213797205367606e-16,-6.257876949755534e-16,1.3877787807814457e-17,-0.10083026724808203,-0.0011587790295531067,-0.007239469346986315,0.022356248775268147,0.04131786471527079,-0.05936802556247716,0.14832539786550172,0.020017932346493097,0.0005035474658285527,0.07505139374795668,0.018478350772301724,0.006305354594322851,0.0532622789571834,-0.19441258483088736,-0.037370239756583774,0.07617297859819105,0.1161953181438534,-0.029546037170063183,-0.032361792645093854,-0.12235322161138634,0.03728331191777994,-0.12599737799507954,0.07107386107970949
-1.2196289675159692e-18,4.2210854239976707e-16,6.730305542371776e-18,9.831471541969863e-17,3.6563767455225304e-16,-7.9246020003845e-17,3.191891195797325e-16,-0.09361847184364536,0.09731632527281282,-0.01546459959605283,-0.053391737094552055,-0.03363236259745427,0.04895017687280839,0.06831240094059887,0.02577043057462282,-0.05380289236485484,-0.05387928551579827,0.0726502393717818,0.0691583078455288,0.019092838963707098,-0.0826885155997191,-0.07430197607312418,-0.01905555111795182,0.06079859971833189,-0.0010866626761032662,-0.004473620860515068,-0.025854890896964477,-0.018754398986021943,-0.04983608373873451,-0.03896381412488055
2.201105397362266e-18,5.297170460709633e-18,-1.0213513946860569e-16,1.0788452502520015e-16,-3.4554779246888106e-17,-5.354577351466872e-16,4.163336342344337e-16,-0.16469138320439058,0.00934689544247851,-0.02382266142942302,-0.1385969164938814,-0.056838852938804245,0.05289782349150976,-0.10883876469869572,-0.10545991375301073,0.03142333398537179,0.07868354687758897,-0.042190931038673433,0.06396038261020698,0.053797470587057,0.12264456173091105,0.06338883134431307,0.08033878746240447,-0.10248322969164426,0.04347646707665772,-0.0440663729015251,-0.09388231223842203,-0.08191273157701039,0.05297769665879983,-0.018329780698806176
-2.519509827880334e-17,3.368549936194964e-16,3.072776463975912e-16,3.124449236304362e-17,3.6418889264287863e-17,-8.396439115091334e-16,6.904199434387692e-16,-0.1899068877116357,0.019783867090288322,0.0248509666750055,-0.13681622802323004,-0.06750980119144631,0.05482595425684293,-0.024444215808097473,-0.0013602971945144478,-0.03765542113716819,0.07041043645995074,0.12427058280436568,0.06656239992918625,-0.11936596564276865,0.17793319361149196,0.09222664585608628,0.013652820990106673,0.0328426042462936,0.09342962700547655,0.054340003634076615,-0.005413940652620493,-0.05593683984351984,-0.09064734376791458,0.0660676120439042
4.570939863661456e-18,-1.626057474143168e-16,1.55776764231589e-17,3.3995524092639163e-16,-1.5543373068468644e-16,3.095570647910048e-16,2.0816681711721685e-16,0.07814573516809656,0.00017019202222573124,0.08363102781891972,-0.048298575775376655,-0.001801648363578881,0.029431015280242535,0.044502827893111156,0.09685439644264582,0.018662469314499726,0.058985794420352365,0.013264432529422264,-0.013507175131908775,0.002500179501447941,-0.004136823065950141,-0.12806589600975343,0.03245667447400238,-0.025166906651963254,-0.08943292786010722,0.11071618644071904,-0.01771910759421842,0.03773651671124788,-0.04733258294785457,0.01982295881309599
-5.937840915023823e-18,-9.5787131435603e-17,2.512611239268341e-17,-1.5956763704747934e-16,2.0006773033016945e-16,1.853875735965883e-16,-1.942890293094024e-16,-0.033678841061666895,0.10298683833633751,-0.0666394136000606,-0.00475405243260545,-0.03673234306482588,-0.02696629672213802,-0.0025536771602394067,-0.13680525077300862,0.018509137149703266,-0.003438697054618899,-0.09738863420769153,0.03313163600613887,0.07888163372844104,0.07251239085604763,-0.05368566294824783,0.07467820666333377,0.003901348351727135,0.09041638933765311,0.06434000885318845,-0.1285397076958461,0.022371980070451877,-0.07961106503504621,0.03804941067266857
5.674862860540466e-18,2.2493121240447384e-16,-3.4974151947226286e-16,1.371514147809608e-16,2.0009896929494026e-16,-4.0125473188292134e-17,1.249000902703301e-16,-0.13105290513574797,0.16377636527633457,-0.07091153826290134,0.0885524496595647,-0.0872648089462484,-0.07269273506480654,0.17510275630076733,-0.05117996279997996,-0.14425446837482675,-0.00912366574145143,-0.22354980126207638,-0.1320307403846004,0.0036178535759604624,-0.08970699456965453,-0.019243382031468616,-0.15332248009397792,0.04390848860922779,-0.0066535405288190895,-0.09941162062967517,-0.010602901046327023,-0.08690875499241678,0.05121589778031662,-0.05358519916094008
3.7364196871682273e-19,1.7991383195671366e-16,-2.7616209960360045e-16,4.7011037365869576e-17,1.266891061450717e-16,-8.116937582623636e-16,6.938893903907228e-17,-0.08003133434769512,-0.1266700579064777,0.052361026145234,-0.05055974005711051,0.06307216595060536,0.010647443798085542,-0.06746163672622385,-0.03127945396296724,0.04519818363459963,-0.11246512916826444,0.04154082406729531,0.09061971578760662,0.023083330114037497,-0.10875188766227542,-0.07847097209720354,0.06226018744183369,-0.04162035719107379,-0.05669481488766156,0.007012211961426253,-0.018508824126493576,-0.06756337592851988,0.053069685413621934,-0.023162009205713128
-8.102727977582512e-18,4.441220168735988e-17,2.945214547911884e-16,-1.967374267159582e-17,2.4913738984854923e-17,1.6814018924473475e-16,-2.7755575615628914e-16,0.015927923342004862,-0.013205135096466878,-0.06309052127056976,0.18036634231240078,0.023417606050182716,0.15411648010653023,0.09506183077481185,0.02349307199416798,0.031265326528637616,-0.07893280548778633,0.07361145744493039,0.10764964254907843,0.11328764290861615,-0.03794068282081413,-0.09020925526119239,0.004983306605920829,-0.014091669064721988,0.06877632393970791,0.11807602214952978,-0.15957496874034122,0.08082151903502953,-0.056812411953890536,0.01023401989027553
1.2861239109531881e-18,-3.270960353255114e-17,-1.6218441352554067e-16,5.555360443656274e-16,4.234214651033336e-17,5.37020465180619e-16,-2.636779683484747e-16,0.08011671803422711,0.04895641793876193,-0.023672514340666657,-0.09080596918042727,0.02344961919691994,0.007975927526157247,0.10899451268593233,-0.14379768954568736,0.03240588590531967,-0.09734058474960751,0.05770675238591563,0.10240082088250253,-0.07583364695026226,0.01839350676470775,-0.010825267323387323,-0.0011190715043118272,-0.05197710748650652,-0.02023412234131725,-0.1735692866719492,0.026450776065798865,-0.036266625511096925,-0.0059807387182592335,-0.024269975246813135
-1.2977248953467503e-17,-1.3508048333676271e-16,-2.272394607632217e-16,-1.1757468079384372e-16,1.113277646483541e-18,-6.76273142874635e-16,3.122502256758253e-16,-0.1553675802832196,-0.07388372453592744,-0.07620759868959442,0.1246582545673254,-0.21325042802058877,-0.021958931407847167,-0.13819665506515472,0.04574247543305131,-0.1243537526938698,-0.04693906775340022,-0.03831684818715601,-0.05546993278691153,0.0020763749115265706,0.05773346323986914,0.014410455262724838,-0.005424166115134851,-0.012348856662686685,-0.051012242261933,-0.00032917310678397244,-0.01769789227602706,0.11713605735203513,-0.024181775326461635,-0.038001678697375904
-1.3656448607832059e-17,3.966716896816387e-17,1.0740729288011708e-16,2.375158643508221e-16,-3.5451969014860066e-17,-1.8432318686617928e-16,3.0531133177191805e-16,-0.13346272322422625,0.11966508767761005,0.03954937360178528,-0.032302054256052586,-0.14052215836668935,-0.027927949166210667,-0.057412852356234584,0.09915712090711006,-0.1084657382581718,-0.09769856064720021,-0.035182552872165415,-0.1300776738731323,-0.1354436841270563,0.08788981807654384,0.06905694407392442,-0.04442372428447602,0.0019450943143348711,0.018104530861577237,0.09217411786222951,-0.019660491467925263,-0.012197312677957341,-0.08728845166018459,0.0719688664681567
1.3325375174627935e-17,-1.7239807216988575e-16,-6.615861240293306e-17,-5.2217663773542385e-17,-2.494059226352093e-18,1.956748742276998e-16,-4.996003610813204e-16,0.05027833176664418,-0.04843063510412453,-0.06585993055625362,-0.04893278060416095,-0.07847921463371453,-0.020559045251411286,0.046591886590854954,-0.07146120057285797,-0.08587457797536782,0.034187786909173616,0.078326559871948,-0.043521425487945055,0.024890345533088477,-0.10095651484104777,0.18095112997615856,-0.006510380749679202,-0.08436543140271885,0.049221458503118036,-0.026219030760578254,0.03675370974908385,-0.03979929573166115,0.06386825890700559,0.11034117220071159
8.943179276903023e-19,-8.302712268893869e-17,-9.073941472492614e-17,-2.919777504311932e-16,3.2594016618949584e-16,-4.456883881089124e-17,-2.463307335887066e-16,0.07873906860908188,-0.03780644886684287,0.05086773167300394,0.07679641039069536,0.12612058600605702,-0.07680133860008333,0.024036002683747993,0.007206945543409114,-0.09474512010159558,0.0045542690886145615,-0.010112310048774832,0.08628164573952635,-0.019340035675535567,0.016141584853511966,0.0769905673742729,0.00818388446175144,0.0984427272089375,0.027601351164333703,0.002833812985811238,-0.11060322995627386,0.012351909884402983,0.0007906506483446638,0.0428621835997927
3.1322743421840776e-18,1.6340652780403243e-16,-5.163793783700282e-17,5.362095184725619e-17,9.78959316375906e-17,-2.6125462466813786e-16,-1.6479873021779667e-17,-0.054086501858237636,-0.016920268420698527,-0.07031433944166977,0.00763155200125234,-0.10349578548878975,-0.08526303083031156,-0.10251732928188916,0.10967051431292571,0.04596416970077999,-0.0653951469036171,0.03132362089421268,-0.18370512809262662,0.04572292480847985,-0.09605926562077625,0.00182038053077415,0.00739070825698495,-0.06263016949081443,0.031125744327666245,0.027573346958590095,-0.09529894937024501,-0.05770821766007864,0.07757953174231737,-0.02490990076280979
-6.8366206188072235e-18,-2.5027806883078236e-16,-2.989303067169443e-16,-1.2254745494849717e-16,-1.3051652877406872e-16,6.08449651312844e-16,-1.734723475976807e-16,0.06836465910797213,0.09108618356692912,0.019163586681611097,0.12855176319322975,-0.012891365134665482,-0.008698113422043277,-0.04265563733327967,0.011664725331256237,-0.026409185894062007,0.15627228885366437,0.1412273385991259,-0.007481352329877815,-0.06277362385863247,0.02089230330153875,-0.03294661610134756,-0.06367557542261273,-0.04646712408292223,0.028569753394089698,-0.08597580182684426,-0.06615018567776697,0.06611671153827332,0.08544698414111898,0.002028461457400377
-3.536552467465244e-18,-1.8275070252325905e-16,3.115082090544271e-16,-5.736212699935704e-17,-2.707769436832385e-16,1.4769380637314648e-16,6.938893903907228e-17,-0.005121689326775744,0.046213966483182885,-0.07210348156619324,0.012373335892923647,0.13678467014460352,-0.06934369378191949,-0.03512517762806744,-0.055554712724618066,-0.012398649001696252,0.08477678778537706,-0.05013404225181654,-0.028250349963496305,-0.07501320986281897,0.06468320693240852,0.06939895771352023,0.00828550291703293,-0.07923698254140192,0.031515390888619876,0.05841490990684027,0.07644252863406158,-0.0324979659416698,0.012304264540393385,0.07289319498244724
-4.384130035416143e-18,-1.6956705536549656e-16,7.528799564214756e-17,-1.5971477969249695e-16,2.980393397097577e-17,2.4927909402184284e-16,1.8041124150158794e-16,-0.043810056809850687,0.12249564426003459,-0.12348164108222083,-0.014630533498244742,-0.0006648072255627911,-0.08335625614115169,-0.1360581771702036,0.04522958662276048,-0.03767260130558638,-0.18057188306444688,0.03576190696916361,-0.0747107591339063,0.021213010577573483,0.033311283895335116,-0.05313694579675378,-0.05748426570046463,0.0055270941129109755,-0.1598276381588465,0.004119031009796561,0.08219672840064608,0.0011556189544622238,0.06966090033258097,0.0032316299103375607
-2.0363804946382677e-18,1.126008971081109e-16,-3.88950586872157e-16,2.334815765603095e-16,-3.311433167139322e-16,-6.51562431800582e-16,5.391737403770414e-16,-0.144123016776497,0.039613940066490286,0.08126107322027358,0.023747185191855674,0.02465144384423394,-0.086526759378844,0.17002871887817295,0.04762030951308071,0.02028958467119074,0.03733790489956262,0.2308351264089883,0.03368206255180414,0.07085717883780394,-0.11545430184365142,0.028082637474578943,0.05450015101965788,-0.019010772042666126,-0.12111589282177121,-0.08166974135543542,0.019153419944063273,0.05347853819502429,0.019827406169673868,0.025669161003481086
1.3373638999656872e-17,-1.443702371905507e-16,-2.964093190561396e-17,2.931774693522697e-16,-3.440141171504216e-16,9.093082561364063e-16,-5.273559366969494e-16,0.1870365338671116,0.008096830803629242,0.10343467274812301,-0.00845867951043065,-0.1135571150836296,0.10071266735006529,0.12099946260673991,0.016114145531963053,0.09259428149816004,0.00309045772839011,-0.079937503384498,0.08661138992460791,0.08469371769869977,-0.030160606607533957,-0.008970380180881336,0.008263649453788867,-0.11082819739874715,0.01167188978622414,-0.08393422165920952,0.056763402016800565,0.049565358995080945,0.08980837652624765,0.03463538781520106
2.2830649570991917e-18,2.1704513937358437e-16,1.8669084909043805e-16,-2.4655698761417904e-16,3.249292927637864e-16,-5.736326506244378e-16,6.661338147750939e-16,-0.14395539588135137,0.04847003693103784,0.2722530039015749,0.1129836920963768,-0.09798288536239627,-0.02656462471227993,-0.04375817143716118,0.03234706647387455,0.0012630142843189675,0.02219036277612685,0.14943181319230525,0.09220398385079612,0.10602212171835879,-0.03287887941420619,0.014897058924005217,0.006990389288674429,-0.037133400848812656,-0.07954009241929284,-0.01798053381391268,-0.058020757795310955,-0.12928744717170773,0.035737624203112495,0.024924051105729608
-4.6179439010143445e-18,-1.4249353318487709e-16,9.474015961163325e-17,-1.5839098443056003e-16,3.3884185810337645e-16,3.3824291999773727e-16,8.326672684688674e-17,-0.11625777209457015,0.13837746085829525,-0.08836552438036047,0.0680760288780389,-0.11953656747169392,0.02658600019165967,-0.06391649052243423,0.09159084279568595,0.07594976223971718,0.1220159231215376,-0.02876479412428201,-0.011204819440490368,0.12981087168346914,0.13204718219014142,-0.1031447609927793,0.059211419552376424,-0.057812323910361035,-0.06419490845659087,-0.0464834850922038,-0.011547572283872825,-0.014189315302811362,0.04657878937867807,-0.04096227827924276
1.1913728607764211e-18,-4.705394183655364e-17,4.2688145340544675e-17,-7.062151814005896e-17,-1.875010861831435e-16,-1.8676001245488901e-16,3.469446951953614e-16,-0.011479629675808957,-0.006357980256146197,0.1383399661793574,0.014370729881244066,-0.0481350973879603,-0.002573843836486048,-0.09748536620992297,0.03953639510251641,0.08652268381854232,0.06726995320320178,-0.0010643411713024719,0.060117174883824495,-0.14040376477140487,0.09230743800334107,0.00715616947906358,0.03709204558244263,0.15237705203611562,0.05857769232233072,0.07323929266648806,0.07743975383676341,0.01600874571180508,0.0522834214124285,0.06049086504102997
6.553859942151327e-19,-2.49618215830271e-16,2.5605533265417894e-16,-4.510310216199459e-16,-9.476655914536826e-17,-1.2514378847873926e-16,-3.469446951953614e-17,0.08104077301881923,-0.1362510658360018,0.10560724789861667,-0.05158789173214404,0.017566749299637856,0.04054397144117599,0.04727185690312623,0.008512092705670854,-0.06686795701465287,-0.04727009480381336,0.04336566221676167,-0.06850318444098945,-0.09818287333672764,0.025768154385801666,-0.1020169037144852,-0.023755276079752734,-0.03124730938182435,-0.034607443445691555,0.05208174035910889,0.04090899766383921,-0.08399614024171015,0.10723462216484635,0.04170350238508845
-9.767267844561447e-18,8.679758428853513e-17,-2.740488277304347e-16,-2.7279510466133946e-16,-1.561195253673898e-17,-2.5088348088550762e-17,-3.7470027081099033e-16,0.031118084193844806,-0.02704372932284345,-0.025177570207741154,-0.010854359854367675,-0.021344487872814847,-0.04993374879079193,0.02027728300467424,-0.004721073730482437,-0.05633868356406105,-0.04223797992177271,-0.028683045842077377,-0.12153450883715662,-0.020136359594076263,0.025397916848637327,0.06080551884277814,-0.03862617564354837,0.0677307800854694,-0.028414453866853144,0.08496199783489584,-0.017381710111039634,0.07673217206484337,-0.040547471772917336,-0.057954161111851824
1.1818217902884682e-17,-1.3389014119144393e-16,9.970661286353209e-17,1.9612529586484254e-17,4.3184892304787894e-16,6.967143641097628e-16,5.273559366969494e-16,-0.07183792679227344,0.22698212873473014,-0.06627010487769518,-0.034487082403126874,0.004801735428576503,0.12087524257551285,-0.00889555022402446,-0.08052372651227635,0.07895599134254459,-0.003316177208507255,-0.053954414787795696,0.07620213816317588,0.18924867733577969,0.017904788060545813,0.08594835434199885,0.013547440862693516,-0.07735751514144874,-0.13368577618581487,0.10172052715219142,-0.13988618532712627,-0.13103516988090208,-0.02253943432277678,-0.05656713750234826
-9.745661271273132e-18,1.0323031538224119e-16,9.431823003070732e-17,1.3762907482439653e-16,-4.477326757366976e-16,-2.560765468722075e-16,-2.914335439641036e-16,0.043776221168030136,-0.12292439902571996,0.04034038165967844,-0.024876683546609546,-0.00023590545881585018,-0.05735811115849171,0.03558855761909887,-0.13551993349674676,0.1300536694932226,-0.04627247740900836,0.013108382289108112,0.05667449901646725,0.06351548898638905,-0.022823651429323168,-0.03223095812725,-0.12076007260459994,-0.010982792058985143,0.17122950960667416,0.09056648639924068,0.11388889601273525,0.05542290084784401,-0.11533013094366364,-0.048416788264695566
-3.1726682454881614e-18,1.712005375646864e-16,7.409611549752124e-17,2.790414128722592e-16,9.834663841462964e-17,-1.0074063466381985e-16,3.191891195797325e-16,0.0110792817330775,-0.04006334068556665,0.11433970926142112,-0.0891046744238993,0.016197443145150748,-0.004194176523836031,0.035964638403052474,0.11770322836036207,-0.03209038784832268,-0.02513269961637545,-0.11046877018438923,-0.004331089286203598,-0.0264174170844496,0.0013729934359843737,0.040510160056668375,0.007262496842725504,-0.04050993937322684,-0.032644889793489076,-0.0641265695756168,0.014864129106484282,0.000349825613114954,-0.051271481103496455,0.04338231621388923
-6.701420847008289e-18,-3.847548494440664e-16,5.42257159526821e-17,2.03893226589882e-16,1.210882477591535e-16,-2.616979047291024e-16,6.938893903907228e-16,-0.12100087496239274,0.1374493893844835,-0.007708904440416606,-0.13485118901605506,0.04197555178687347,-0.02167244360678788,0.0048560517547332465,-0.019620480456453187,0.05828709349858837,0.021505554763880306,-0.028954479439609864,-0.02235730134668165,-0.0474901068262231,-0.018100933214075833,0.07023887494537599,-0.051767337074467956,0.14476189616244015,-0.03344761158164781,-0.060548058555982436,0.044323018342373136,0.06772056444719517,-0.04467548429032175,-0.19467210634276105
8.382501542597987e-18,8.03704506247034e-17,2.808038177182263e-16,-1.1945407764008772e-16,1.4963972420986494e-16,9.311200046892395e-17,-2.697495005143935e-16,0.10659695069489472,-0.12213721404732082,0.025347825597483383,-0.11250595123731989,0.07001274599222469,0.13726354844657193,0.03928317683068173,0.013239304917288836,0.08461454158509558,-0.01395265522353815,-0.06402997482174297,0.0859858233719026,0.021949233340273874,-0.03905117565212272,0.05259272849657342,0.028784947285758335,0.000627556621896499,-0.06632798764211781,0.02055737306774828,-0.01917060612222956,0.05002843300594303,-0.06960387544155121,0.07973442070608329
-1.6708452317356894e-18,2.565787939820467e-17,-1.452900902498125e-16,-2.789762874505826e-16,-8.65635683719776e-17,-8.574585894440731e-16,6.661338147750939e-16,-0.09713692581883497,-0.09145835973144574,0.1334516994890858,-0.02710798836567189,0.08415021721926173,0.07860881242894885,0.12984516675588276,-0.04640845989999433,0.11166702120828763,0.03225415055217007,-0.06466101933079203,0.007469512927993256,-0.029510329453593432,-0.04436330707413726,-0.04502863239884927,-0.028817012946163702,0.07262366670050528,0.0940939529957729,-0.013019166940762385,0.009779127715991948,0.03619756928642371,0.01944677532136736,0.010725214864986078
-2.796978464029671e-18,-1.1141108903933229e-16,-4.6535132936471675e-17,-7.233308680095995e-17,1.866107695268503e-16,-1.5481589282554423e-15,6.557254739192331e-16,-0.31638708341296773,-0.04411538529088622,-0.04874806802048039,-0.006951129585547075,-0.020186195422241603,-0.10134576235763586,0.053355293368411855,-0.22465063004083738,-0.018079225653739445,-0.06943286906700155,-0.02811907760360933,0.16988821432895276,0.09413155028243979,0.07579883320142196,0.01141935770283597,0.009580551340071564,-0.007170949930037453,-0.13513718609834044,-0.05796698219628406,-0.13420624603215853,0.049572571571965394,0.015924149659489167,-0.06870236538726493
3.641708757236058e-18,-8.038074945183736e-17,-2.383323545141273e-16,7.585125156426177e-17,-2.2322359014912458e-17,7.615713899506537e-17,9.020562075079397e-17,0.05124762628949491,-0.05444095511347873,0.17550911177046596,-0.13555392202770086,-0.06828985163418848,0.008721812754229069,-0.12661733553411286,0.020718947295974118,-0.009802058335734347,0.0007457275675573049,0.059351964063550436,-0.03736942918912253,0.00638095222532389,0.041799168634551,0.03303598441024924,-0.0023573712143704567,-0.0809324855150175,-0.12728620124624165,-0.14957533592992603,-0.00657823195401446,-0.00915681964181225,0.00019398723560009253,-0.041082139797844267
9.322649586130114e-20,5.999515275418894e-17,5.70592224559751e-17,1.9499181431283565e-16,-4.2844394101901788e-16,4.424516505570008e-16,-8.326672684688674e-16,0.11061882925911835,-0.05056546710122884,-0.15109404047503774,-0.020686249993259492,-0.02124499787379166,0.12488862645149204,-0.11835308760741346,0.0003139297953354041,-0.13082123349497385,0.12558600780632087,0.06506847240318159,-0.01901265448299624,-0.030856988235398727,0.07858415129275641,0.03949371076087708,-0.1042549537210148,0.03663730163326228,-0.02658721312872215,-0.0014794919641440355,0.08424647867651491,-0.006151878106623092,0.04367659707889897,-0.06397025387472025
-8.065446974191872e-18,1.221369839509619e-16,1.4114890400544062e-16,-2.149740107754279e-16,1.0854417085800738e-16,-3.6551676505735025e-16,5.898059818321144e-17,-0.038704051255366585,0.0737007346054493,0.029700264217286075,0.0967950004019916,0.1843321020304917,-0.1483349914264145,0.14160902581039778,-0.07366952899485371,0.13931956903162965,0.11724867212424894,0.03818106263727033,-0.05976450045256859,-0.03004320372044133,-0.1642038548869814,0.09499456918496808,0.12585978782086196,-0.01221270046578582,-0.0541897647608644,-0.024293189469170043,0.05340182416708879,0.04020300992816183,0.03952170195919181,0.023263775998623004
6.220615063698741e-19,8.61871248625986e-17,-7.854810141808792e-17,8.988299647949848e-17,-2.0104242971154124e-16,-5.400745814017915e-16,-3.0531133177191805e-16,0.005749242295525043,-0.1597445162570465,0.09314912091146829,0.1144363318872997,0.07476256716820177,0.07347258527647856,-0.09060402955900342,-0.08014963013291858,-0.07204890679138436,0.10297352155633425,-0.01032008333974816,0.01646582049630474,-0.005116550479795509,-0.06984775970763851,-0.08197550553667524,0.09092842302628792,-0.09712771564931404,-0.038501891256312565,-0.04914585702400543,-0.032285362484659894,0.05837543487570933,-0.06927978795574297,-0.04504949783720245
-1.6198928019508068e-18,-3.8527406604591587e-16,1.1419902534049013e-17,1.6387571340304186e-16,-1.2952284670132602e-16,-5.662041110423348e-16,5.273559366969494e-16,-0.17066456040134614,0.051024062700534126,-0.09056600028780158,0.12414266514857036,0.026874204211078678,-0.04452263343798549,0.03642509602433666,0.05873154324643734,0.02656683568369604,-0.024770322918671685,-0.023627911030795496,0.017449735445912978,0.08456608274872492,0.014349352724783776,0.10665072336592073,0.03351343702033881,-0.014779897624974244,0.015046645098150712,-0.09413461565938405,0.07212618862964673,-0.005155811326274855,-0.018399534767533286,-0.08322512049730219
-6.0821750870594e-18,1.4892452097795056e-16,-8.246778710549714e-17,-2.5200861984643326e-16,8.701230048062292e-17,-6.843618704146946e-17,-2.0816681711721685e-17,0.04763648731542188,-0.09781818623662294,0.12709719720213786,0.04507335557886589,-0.11153431324967032,0.0762020484253996,-0.02972440740845573,0.05560500955467617,-0.01854057388137076,-0.07305590337130853,-0.01954634924749433,-0.08565496869223953,0.030268628338222765,-0.028638114147628308,-0.09345044535941972,0.03722187261086491,0.022816634659992025,0.06815495503216903,0.012134640209667662,-0.018196349555068308,-0.021900477535496923,-0.08618299731566491,0.0005563688442308037
-1.625842994356105e-17,-8.027027372276203e-17,1.0381350915475789e-16,1.908110636872253e-16,-1.7780716353260856e-16,-5.794102900506575e-16,-5.689893001203927e-16,-0.014671735465763178,-0.14123362826217079,-0.1263468717366626,0.10192266162387052,0.10466225138116801,-0.0783455992424959,-0.10013885629191788,0.06751289846897889,-0.10797100463357442,-0.05623186745331876,0.006477467407394011,-0.10959295718982646,0.07539479286525769,-0.010215388502802264,-0.001221883483308037,-0.1166551432558535,-0.03661607894470997,-0.05848046593849491,0.09973227154377586,0.1520655283547862,-0.015349656269119098,0.004848709115057093,-0.10647079850007946
7.135690120535916e-19,-5.156903297368752e-17,2.0570639264761295e-17,-6.388257006930292e-17,-1.1000625681135565e-16,-1.0523231974609756e-16,3.608224830031759e-16,-0.006928807955403242,-0.03271707869760478,0.003928161917350543,-0.10717714883742563,0.031638559649722835,0.08176688011277321,0.22033713380202033,0.05414589621671328,0.06558010862084607,-0.013714128536312039,0.07007470971849915,0.012664165754020297,-0.03615296417893206,0.05286098092130424,0.048079990023299116,-0.07042815817808816,0.017986343164801515,0.01773185999940999,-0.05303215027021149,-3.4749484452149744e-05,-0.05141846073631594,-0.07985320431800279,0.02828195075435654
-1.6587823182877258e-18,-2.7865625003611727e-16,-9.139380597476825e-17,2.113274840825927e-17,7.29890223092349e-18,-3.867926913282694e-16,1.6306400674181987e-16,-0.07556526524413808,-0.0710365582328793,-0.019667869395292532,0.10216809341719442,-0.10027484106064564,0.04894059905941605,0.029557364245402767,0.008877540938462278,-0.06980339592464921,0.11096972380465127,0.023875728961518527,-0.042597468935424015,0.047533973622216875,0.11050274404889117,-0.0355129554235555,-0.13864835652367766,0.038441749208739474,-0.0724590055780897,0.017546132990554904,0.04828297747694073,0.04937940743373315,-0.07518679147980889,-0.07198994464349033
2.883486563173704e-17,1.537248206866457e-16,-3.1832535784738603e-16,6.0168967320097e-17,-1.4459425432059756e-16,1.1111689837170573e-16,5.551115123125783e-17,0.055368000980780235,0.00600072116724103,0.0485194881243758,-0.03654563736696311,0.0368652591059935,-0.040767190999962795,0.13568869370903675,-0.15235859749879915,0.018765540359992693,-0.04061033134538989,-0.09447601499314974,0.0591223975728337,0.04645210790322551,0.021651801197868276,0.012064449179664925,-0.008806947244536859,0.09952839504789816,0.16705454682696758,0.06775261586435752,0.09681269834784315,0.08954757151243702,0.09331112039800704,-0.04350948445705519
-2.9357115126982692e-18,1.2144077903250761e-17,8.543676851558239e-17,2.3298049246653657e-16,7.148269048777157e-17,2.5319222493301577e-16,1.8214596497756474e-16,-0.043567184507734495,0.20859014741686466,0.045766208034542975,0.12857529076788857,0.07695009057877401,-0.19381152093994375,-0.03445223894295311,0.03023821380032535,-0.08745990883427447,0.10370080180769203,-0.1189306490099702,-0.03364755478028565,0.10106293600768164,0.012171773556881706,0.008304281462659819,-0.06541491176111225,-0.027999753996382312,0.14420482872252005,-0.12614981691575206,-0.031013271878291247,0.1079051006022178,0.017247433985475874,-0.06492480078870803
2.3892593760855432e-17,1.6638029731513735e-16,-4.021051560793186e-18,-6.123622120478498e-17,-4.0701637047226666e-17,8.986915399875844e-16,1.942890293094024e-16,0.1650832632203154,0.07840061017198928,0.08253689564183207,-0.044931608610856634,-0.09466664833845254,-0.013659863565591618,0.11133477905213987,0.0068324300654651945,0.18577329195657888,-0.09746760430841427,0.005776278666043847,-0.06917796138577922,-0.06508995544421439,0.040291604216485186,0.050443601602613054,0.002614223957354734,0.03564921409041256,0.17410947550193887,0.14982537313326094,0.09217776536283734,0.07229821409533585,0.06636132592676494,-0.024467249982986893
-8.363120338301832e-18,-3.165692487585606e-16,1.2205217778008041e-16,2.9352044939732674e-16,-1.418754874295151e-16,6.708790227658722e-16,-2.393918396847994e-16,0.1347023738125244,0.057377715632484706,0.06896539329495512,0.03387392615682331,0.028422774197860035,0.13581451579852113,-0.015008276192653993,-0.04385476625792046,-0.05375746806610778,-0.055889979995620155,-0.10681246937933078,0.08973597604385938,0.027982802265808522,-0.1441428707689605,0.013730426661704424,0.07192151150403121,0.08716072525471522,-0.023259873558953797,0.06120597292988057,0.02249490117998113,-0.009821238117463254,-0.1189109668652314,-0.02113808935024066
6.134828722784e-19,-2.625920577909906e-16,-2.1673759996381335e-17,1.9876264023833065e-16,-1.1376766974409397e-17,2.911477370333159e-16,2.8449465006019636e-16,0.017171159007579095,0.08987745208180685,0.09725383055501818,-0.22424228244493616,0.008022632110205645,0.035705258034030886,-0.02734258848794003,0.08655087512181994,0.016184004633389395,-0.06730777776613696,0.039445952407470224,0.01898043267670845,-0.12358338076747938,-0.012338141639483938,-0.01982264355385174,0.0727381220832653,0.013901559650380297,0.02844052642588157,-0.0807200490272913,0.023218689783865317,-0.04432451056499702,0.020334679625239754,0.0273039050728138
-1.3614055554977102e-17,-2.8704042887715333e-16,1.2906299259434922e-16,5.331080569842828e-18,-6.603019812427314e-18,3.3819899163187626e-16,-1.3877787807814457e-16,0.019193310434010097,0.11182696693709343,0.0741838433553394,0.14927805276231232,0.00420348406764953,-0.05792029450225974,0.025360091823523147,0.017993372886229264,0.012379037998765764,0.030709231433320133,-0.021000297294761324,0.012671363101542807,-0.09515213845826667,0.0806878752114118,-0.029500760903571042,-0.048012658964527805,0.02579068260032796,0.030618231892730066,0.10779605625669922,-0.018204001024776602,0.06535305494397434,0.0647421808918626,-0.1371379868813167
7.89140620041762e-18,3.5932962398903874e-16,-1.12330342226471e-16,-1.0190505853653983e-16,-3.398976301994995e-16,-6.672624983937671e-16,-1.0408340855860843e-17,-0.02971812299710602,-0.12222378031056289,0.06883553600765902,0.025245327901817008,0.05291054633457945,-0.02500703071750869,-0.058771999300072236,-0.06490222032805557,-0.002818350799997889,-0.12287685570808934,0.10218494968402218,-0.10006435129246334,0.11365977433604786,0.20545291860801404,-0.11564897107047524,-0.06576735137472506,0.11424502908427718,0.042269640959975194,-0.0011742178862373933,-0.04608270806999393,0.08611133851083448,0.00432460783928265,-0.07483323653879091
1.1655449658694455e-17,-3.061725904042439e-16,2.0882880264752789e-16,3.7928814862650603e-16,-1.1685134323215864e-16,-1.365507755654541e-17,-5.551115123125783e-17,-0.010090890629349385,-0.0074407166688243735,-0.20857373395042986,-0.09699547811859417,0.131908906711901,0.06185895405420459,0.004332043776663123,0.0012799897956999652,-0.057933025747947654,0.07823317538014829,-0.11045001585645867,-0.06199601703064339,-0.001224369404582891,-0.007312197670050589,0.09415123160497867,-0.07397949282881462,0.04130449274127116,-0.09009942315953814,-0.05884352089207502,0.0005079430442948879,0.1391705678330621,0.07151233981633633,0.06089430942153283
2.827661180620428e-18,-3.063516791924247e-16,9.74331052075086e-17,1.3814588709870038e-16,1.91860810648545e-16,1.0966857385847732e-16,-2.7755575615628914e-17,-0.03003850640582137,0.03846067048169239,-0.0374522907328279,0.026811104102425917,-0.10131290635323463,0.017728091773389423,0.10321414128745503,-0.08044565865178165,-0.023021309142563732,-0.09404812641172082,0.08035678286724482,0.03188281445840392,-0.02528511941381181,0.024306694017383047,-0.06755463971854582,-0.04271496976962724,0.01056092809704814,0.01618780106286408,-0.0542202245524153,-0.012223028388476623,-0.05449248316788216,-0.1289400045802286,-0.0796096049075911
-6.843337132355308e-19,1.693549570551213e-16,3.73461211165405e-17,3.2417143811037135e-16,1.683510745642575e-16,6.939091445577549e-16,-5.551115123125783e-16,0.08773643615879899,0.1347247495243203,-0.07059612063869157,-0.04103878148147927,0.10692409806297676,0.040282499819480025,-0.044796604302427,-0.0539729821061204,-0.0662530713779282,0.017399422678376946,-0.018105557014211116,0.07584211799054953,-0.034070114141966035,-0.04661861214222865,0.1378194494948542,0.05673045550237888,0.024171227125627186,-0.039125267479905156,0.0938179956950098,0.04545498354521983,-0.04644577258863123,-0.1210277087477035,-0.08460386518307651
-5.786661760544108e-18,9.727820203598432e-17,-3.9688198134709393e-16,-3.68404905037946e-16,3.050488843604093e-17,-5.336435902058004e-16,-2.7755575615628914e-17,-0.08700124527104934,-0.13133049889371484,-0.03574991519107042,0.043380514889954626,-0.07072160789319118,-0.0012995062929128415,0.06754850364441095,-0.0490428630620321,0.04421297559060823,-0.023736451450175933,-0.07565921752784124,-0.03524631316345579,-0.04729030724954615,0.02373176680044269,-0.028081565816613852,-0.018714469811116803,-0.06418195963573113,-0.05723722493227509,-0.050670523259931155,0.1181327834135174,0.0386822580023533,0.09544732711036852,-0.015737281573622156
3.05372396145502e-18,3.3136080965435596e-17,1.158424574945389e-16,-4.383701182610748e-17,-2.325025468929888e-16,-5.496536934100867e-16,-1.5092094240998222e-16,-0.0657490190698584,-0.10912031541003585,-0.14978101511777964,0.027092326277912544,-0.05675517037437841,-0.046527629611726955,-0.07177939839866507,0.01312450990089856,0.058125447003464704,-0.10026928045656486,-0.059340880758318504,0.0031608866865253044,-0.012894696769469385,-0.0163601796889791,0.03893784876011311,0.07265310155568581,0.06367179647468199,0.07462352197475011,-0.022772143734516696,0.1458988239701749,-0.04959505125357059,-0.07639138714578471,0.06698575604715591
-4.332835476133006e-18,1.7463799308762535e-16,6.947515212401543e-17,3.29221666859233e-17,5.1460736452467985e-17,1.0978251265478656e-16,5.551115123125783e-17,-0.004625846932604598,0.07498268942512498,0.04062175318066982,-0.00765197350984037,0.013550554779789089,-0.028277937648681764,0.0559558399878631,-0.06332245688747029,0.036940292766019414,-0.004122908238392281,-0.015051461103544935,-0.063389559870046,-0.10851825344216932,-0.023480027164060505,0.06371098467719072,-0.05144322275023042,0.07761043545324496,-0.129209281113122,-0.020387694856216516,-0.06885704923498148,-0.10530999007437651,0.09150940980324865,0.05859696402366069
4.675387423828179e-18,-1.2808423724643923e-16,-1.5996573702218867e-16,3.2681330912864764e-16,-4.830725615394276e-16,-8.782906184996736e-17,-4.163336342344337e-16,0.008220769574185636,0.038950922333856386,-0.04291660422293282,0.07263362924188675,0.16116361606659407,-0.10999403076443208,0.12159410898233351,-0.11265005345052898,-0.01436670247486,-0.005131796040319903,0.006087648143600863,-0.12159101728606217,-0.08188188954411524,0.12040991948010857,-0.1456269818301561,0.03253073705627655,-0.005298130316878995,0.01760820675315149,0.09055497005757294,0.11708482787798909,0.06755507247412729,-0.0877965474291392,-0.06507280794143065
-8.611556688716903e-18,5.198796054658544e-16,-2.4529124941774197e-16,1.9066982793543042e-16,-2.562241118918126e-17,5.10271820490393e-16,-3.885780586188048e-16,0.10994278393033965,-0.07003900438687985,-0.14503181916528826,-0.1537966206863032,-0.04434608384021463,-0.0047086278714198295,-0.014011737791987533,0.046335707688846615,-0.060513330476178656,0.10538433909024708,-0.09369636105605784,0.022150959680774338,-0.04075637987724355,0.060308675508825016,0.017109926665447407,-0.09010523903595556,-0.04181408159706059,0.01833423336903472,0.006061651843382351,0.057125435872906714,0.00576915929930729,-0.010852112564496351,0.049069444655864755
-9.017843009234613e-18,2.1896535794268397e-16,8.120402140445503e-17,1.1456786199522484e-16,-1.4852109333070605e-16,-3.066972795362371e-16,1.8041124150158794e-16,-0.04882946992657058,-0.007447962080167314,0.033165044223139116,-0.03358322152570678,0.0030372886155248216,0.11268668500990021,0.09550543378150583,-0.012007380811648505,0.007463234920369986,-0.09495396141578592,-0.025434257392640134,-0.014062047816038334,0.01203645576628425,-0.08696414378296616,0.04087234486505395,0.014709917189959013,0.13042119879831207,0.10005458400780695,0.02487544072706962,0.11518446368327534,0.02997809162680357,0.10428921959115822,0.02872919990630167
-4.61130385317211e-18,3.810496481438315e-16,9.798995286156831e-17,1.1359218723540803e-16,2.518336359850341e-17,5.713717413003272e-16,-1.734723475976807e-16,0.10364596559871464,0.02132641942356519,0.06980265500354413,-0.08073732744968004,-0.03473514828939276,0.04816265748043488,-0.016556808729331924,-0.10489260143480075,-0.03190565605509312,-0.10452781924203948,-0.0991178277232178,0.05377761764706724,0.028090177910493768,-0.02206448971838688,0.1332132635217879,-0.06700574940799076,-0.015210221434881457,-0.0755135825733411,0.14143680454814508,0.12331671031850705,0.0027271948283060466,0.04822724384856366,-0.04200788312550542
-3.6697825276947886e-19,-3.0186413273249997e-16,-3.6052455614613164e-17,3.2733003769998337e-16,-3.158223106276614e-17,3.318604773723506e-16,-4.163336342344337e-16,0.04224892797121633,0.017727375913680416,-0.08045316225022826,0.10668357113396676,-0.04688578767554105,-0.1144160354222799,0.06846729974591066,0.004490275503386537,-0.06788749552587699,-0.017699676787422902,0.007534189518124405,0.0172016354849346,0.06338956779928745,-0.06837222025335002,-0.15534143186065485,-0.12751725357977503,-0.10914308267682099,0.011431747331128922,0.07904009625520092,-0.015565937811659518,-0.0701375558036593,-0.014977560825202714,-0.02883413640095199
-5.457376089223126e-18,-3.3687625589033174e-16,7.79851473802235e-17,1.7567320173432534e-16,6.093592981810707e-17,2.7294293113580172e-17,4.0245584642661925e-16,-0.05484043681342113,0.0963792058292741,0.013615012776536933,-0.13490089583887768,0.023018925833044854,0.06640759961997479,-0.00620924831731095,0.01017999989134223,0.04320557075998933,0.03641121855706696,0.07886102178484512,-0.021054968915264136,0.07388487570913498,0.02980710081477756,-0.01929733392628435,0.0244280048822023,0.0744138793773158,-0.0754397636399644,-0.09863721201872788,-0.061238381596410596,-0.011738263578010317,-0.0606412245758983,-0.040535230995521816
6.117871305791483e-18,-1.1090351399336378e-16,-3.127046291189194e-16,1.394385917816915e-16,5.123785378607253e-16,4.448990031162465e-16,3.0531133177191805e-16,0.06701993716368868,0.03670172601954033,0.05721491881179236,0.029062368384218946,0.08123531168257095,0.08291783856720966,0.0050693165759075004,0.13591441272711405,-0.1449133618935898,0.024560073042572784,-0.09492264291091292,0.12363555892381081,0.05928484198319834,-0.0035222536269543902,0.01546461186718313,-0.05301410923406127,-0.07270634382438343,-0.055785524850234906,-0.031016346246816203,-0.09623230664767582,0.00852091246031117,0.0727722783526314,0.14721953112791208
-7.508925816504584e-18,-2.8607144183285527e-16,1.875351402350117e-16,4.021370586436146e-18,3.5866635175797035e-16,-4.0170618633280216e-16,5.672545766444159e-16,-0.08012385111484521,0.03850678624111022,0.1949666773383857,0.0282033664990471,-0.016098584300054123,0.03273924222361909,0.006878025363244593,-0.01484082039193013,-0.10396870185353202,-0.06572070107329891,-0.07664111899280071,0.08291139377981359,-0.07256013109739391,-0.05534511072189223,0.015942300948104532,0.047411186346772126,0.09706311520592907,0.0636665152345356,-0.10496213225110154,0.1291851463469318,-0.06954529932146518,0.02601644174254918,0.005783626690983111
-6.1379892766685386e-18,-1.2647521503833263e-16,1.9825450145605875e-16,-4.3782953716450304e-17,6.020088901104467e-17,2.358408689615546e-16,-4.163336342344337e-16,0.02679009570425695,-0.001820724035985722,-0.0460647736353006,-0.032875719219150445,-0.0910588851235302,-0.07795425748973883,-0.0048563569214085485,-0.07576928819376871,-0.009082123468581477,-0.007177351410439457,0.02009373275604757,0.05816101402120757,-0.07948303269737389,0.09008739723840593,0.04402050956693108,0.11190718266580373,-0.07094282908505072,0.01948822011478376,-0.029384449194568348,0.06701609129087298,0.038824872360107114,0.09180724747309167,0.03158531164222153
1.264091941164908e-18,-1.8265944469803398e-16,7.152081415360344e-17,6.875968724724867e-17,1.4193743330944755e-17,3.630264536286395e-16,3.469446951953614e-17,0.015479327577111113,0.13705871272355877,0.013749257675608998,0.054843057480462795,0.0809045484481864,-0.13437576420768085,-0.0490132923380409,-0.1471633404057101,0.09423154772850546,-0.061006122337943516,0.005909159276569517,-0.07983175130262304,-0.13041026996399877,0.03578670623894608,-0.06615804531542191,-0.044731719878905944,-0.08949554578116847,0.04022727363199682,-0.04477540264700807,0.08207442555772408,-0.042470146014260995,0.03311632154121265,0.0922391930204017
3.3951799943857135e-18,-1.9230818905963458e-16,1.5086682817787286e-17,7.077407362196722e-17,-4.765472753248266e-17,1.8466876992994863e-16,6.938893903907228e-16,-0.10025712452808626,0.17236909532392022,-0.0059977124390695365,0.012169358111564934,-0.04573927558356126,0.09493688026437357,0.07743743831838597,-0.06606941825784209,-0.07118194718588185,-0.034235129874526364,0.12613587119065614,-0.0343345395161284,0.0147436374994168,0.06503645187740814,-0.021552156268185435,0.1559540609598857,-0.0231097803138683,-0.03720146573067348,0.0836071303442584,-0.15650212418117637,-0.03495289700118668,-0.03886448191228523,0.13801241686856924
-4.777372061284176e-18,-7.522077898442372e-17,4.702165582630587e-17,1.252733801511455e-17,2.4762251260709128e-18,3.5442630660284116e-16,1.1102230246251565e-16,-0.01051307342639811,0.135303354253213,-0.13647002856324084,0.0038867342086863366,-0.018479737460490885,-0.10773884038472246,-0.03126250490329251,-0.14110181814109005,0.04896943204254123,0.12842706869686965,-0.09582569005504538,-0.04654666533379178,-0.11420376241515952,-0.004882232194130331,-0.04896700829841218,-0.0016577105067475616,0.05828984177839969,0.044733586946970424,-0.028784184466836105,0.037970706861405294,-0.07337749900858839,-0.022961441004887097,0.04250409210656786
-6.279455126493242e-19,3.672676420859426e-16,5.575765164749835e-17,-2.9462715419507255e-16,1.9952334247663761e-16,-6.993592846759938e-16,1.942890293094024e-16,-0.04034769770220518,-0.19153775089232436,-0.07237739311262643,-0.05772528195131868,-0.12833412303184355,0.0060138653336013585,0.049740507743363305,-0.01243197402456218,0.06396303410814264,-0.10284799886843245,-0.08802447941132761,-0.018336703869797463,-0.09881765905080084,0.012700217924170367,0.08951509362682362,-0.07700110014939593,0.16138512880802336,0.012651010798338167,-0.0301821466190789,0.0901007395420547,-0.0048932551198210585,0.03799250522476653,-0.005944282255371963
3.7300373811235384e-18,-2.0158496907933893e-16,-4.113870102963677e-16,9.531941543023704e-17,-5.216488946308215e-17,4.914995631376681e-16,8.326672684688674e-17,0.07418021912341423,0.07120861318370993,0.08761589908244087,-0.07036568724450179,0.031094888759803478,-0.06967438345729612,-0.01720211071598168,-0.0401905325254542,0.04968588675570068,-0.05138755679808491,0.04328380197749567,-0.001030626862553502,0.005026466360127126,-0.10650519064732755,-0.05263257084780853,-0.11145232005413419,0.018033286070535375,0.005097230902129799,0.013338969040234185,0.0273131366819539,0.027081837382013623,-0.006329650980826103,-0.003948506758642526
-7.198929575499156e-18,-1.3287197892075626e-16,9.274687128897304e-17,-1.7142413456872003e-16,1.0559326428820855e-16,-5.762703932969771e-16,1.0148132334464322e-16,-0.004241106820504115,-0.14005660295875236,0.11240600011701932,-0.05271090693639494,0.03932838177789899,0.01369297377904957,0.015233906834255833,0.06819021836803198,-0.0304317030326287,-0.14675980702597627,-0.09440592530794682,0.05901712341072355,-0.07341744363456486,-0.01623119772083564,-0.0778525964739234,0.01891092668410739,0.06819028259250615,0.01955791206277892,-0.015018477655536057,-0.06004687337516784,-0.09323773622476296,0.031313685421074516,-0.08262419555897971
2.169191769501129e-18,-2.4387941267806903e-17,1.387109134907809e-16,5.626633272684114e-17,3.43987144564742e-16,-2.265354443243035e-16,-1.4137996329210978e-16,0.014233945400858306,-0.08112401548169075,-0.005856814999561504,0.03796767091010109,-0.000878895757561539,0.00794737671657182,0.00862510239381213,0.07955620530609607,-0.037305547888626396,-0.06555141217858332,-0.09493838327194654,-0.013826937883587787,-0.09849495909084154,-0.2217570812031275,0.08935516891544848,0.039058298530996724,0.0030917226696810995,0.05005777241689248,-0.12724032219175002,-0.09035511199342883,-0.005521897842727815,0.0075540357934399125,0.024746376166093348
-1.1172925529877564e-17,-3.2682020012039184e-17,-1.585208730166571e-16,-1.4429918330953313e-16,-3.118511730437541e-16,-5.486398946542918e-16,-5.273559366969494e-16,-0.040714012035024186,-0.11604733438643447,-0.06167297747931862,-0.008391021516396839,0.021489298967800555,-0.06289482291404874,-0.11367819658586095,0.04160455494420968,0.07113322947875288,-0.06257624875902132,0.04590964527988669,0.044235601395989504,0.08521514572959343,0.006307976366164566,0.04083110824110842,0.030564366926840874,0.01667817133028104,0.04604098170769122,0.01855539811140883,0.03090564445419279,-0.026007467509259165,-0.04265356889840128,0.062073072897778914
-9.913709694328751e-19,-5.203219854149302e-17,3.795643033265963e-16,1.2760363299693724e-16,1.2780984798143495e-17,3.1835079749398966e-16,-2.1510571102112408e-16,0.0868952866837518,0.018821452103548967,0.04066246444824038,-0.047370120968720536,-0.027968732696127933,-0.1520633091116286,-0.09897840711045891,-0.058859087370687985,0.039752159814047165,-0.04709860883368756,-0.1610045373311526,-0.05612045268663266,-0.07399265480880583,-0.14881373687055616,0.12637514305630015,0.09570296953586166,-0.0015384273879772378,-0.05082383521407753,-0.03387421740715401,0.10140804119879354,0.02579034421691607,0.06966459108199957,0.08348388842268954
-4.700018898275247e-18,7.607086383512454e-17,-2.8558907920386465e-16,7.538737267049389e-17,-4.491294088628018e-16,-1.975143763963985e-16,-3.191891195797325e-16,0.07676578023456303,-0.19807184408870013,-0.052252872876308226,-0.04913538081887209,0.037610733710820216,0.07190471287581156,0.005966087762104246,0.08310065327802313,-0.04268337827003371,-0.06237328658948189,-0.02968248323467992,-0.14590303540300986,0.11582238775908395,0.018594453740475365,0.028753487739926246,-0.05889861615726012,-0.06713436561435598,0.09657261279662605,0.04273959187290422,0.019310617289921117,0.04169045754947871,-0.11557788843740041,0.09801993383823022
1.5153374701078096e-18,1.7068169910883107e-16,4.2533582915705846e-17,1.7434899445838804e-16,9.677517526206255e-17,3.2966185662748096e-17,9.194034422677078e-17,0.09775966452783741,-0.020067318589179407,0.28458389617677765,-0.00246710179511996,-0.025505349517650714,-0.06496018393762201,-0.1303980220043709,-0.0638400661335466,0.05597979624958888,-0.01664039334487977,-0.04343118875598863,-0.061393280452986254,0.01176238685750768,-0.008941694726944394,0.11656452966253897,0.0672843227761909,0.042358281636484786,0.11973729708488962,0.028053544084778045,-0.004515763294646565,0.05205173812908995,0.02103955940811064,0.04644385961952084
-4.659310641078509e-18,5.013809197429436e-17,2.262619432045625e-16,-4.0512163256769966e-16,9.924443710004618e-17,3.0765513295767505e-16,-4.440892098500626e-16,0.054196618983744824,-0.04993029134522691,-0.040939327975071986,0.00793570062258424,-0.07555840744394758,-0.06099312343181822,-0.04162296558700904,-0.02809026394951277,0.16205558057993522,0.1351944175644842,-0.032801676857361205,0.013693014685600531,0.0309598160503816,0.04737585137259409,0.05910600797978531,-0.004391102292667515,-0.1580744435030328,-0.1416519423829197,-0.0703311288324579,0.0454481714828208,-0.10801315535421803,0.016236227795560977,0.06761152235344452
-1.3384175053104306e-18,-4.7175693001171205e-17,6.160166345392473e-17,1.96242327314188e-16,1.252910377486525e-16,9.613405852146937e-17,3.703634621210483e-16,-0.030540906257744024,0.1219459770728493,0.1450456060778729,-0.012551927890990525,-0.05214755184352169,-0.08269587107833763,-0.07778123464686693,0.0751031901376523,-0.08440235495811275,0.07329190695740292,0.008517610397058215,-0.005940159888003759,-0.022165384446988925,0.0036691583010412974,-0.06058113630174276,0.04936610073333272,0.01385715376782034,-0.006782231629538975,-0.01051386333321425,0.052494625419620314,0.07159944401887736,-0.04168451160700237,-0.003549669098732775
